<?xml version="1.0"?>
<opencv_storage>
<stage1>
  <maxWeakCount>10</maxWeakCount>
  <stageThreshold>-1.6212459802627563e+00</stageThreshold>
  <weakClassifiers>
    <_>
      <internalNodes>
        0 -1 20011 -574424560 1346404512 1529399344 -2138389764
        -570252640 -611798496 -8144150 -74452758</internalNodes>
      <leafValues>
        -3.6803364753723145e-01 6.5885800123214722e-01</leafValues></_>
    <_>
      <internalNodes>
        0 -1 44412 -200745222 -584978707 520621056 -1616853496
        -454275158 -307466548 2007961257 -3192949</internalNodes>
      <leafValues>
        -3.7724626064300537e-01 5.5601739883422852e-01</leafValues></_>
    <_>
      <internalNodes>
        0 -1 59126 -1934887689 -288305711 -942880269 -1095972192
        -1345267019 -104263629 -68257935 -1934570444</internalNodes>
      <leafValues>
        -4.8039689660072327e-01 4.3565019965171814e-01</leafValues></_>
    <_>
      <internalNodes>
        0 -1 42650 -108339286 1968161866 1050872332 -1645362675
        -194323734 -257379634 -116926321 -170569715</internalNodes>
      <leafValues>
        -5.2218818664550781e-01 3.9783048629760742e-01</leafValues></_>
    <_>
      <internalNodes>
        0 -1 28414 1359370146 1560890257 -2067389351 194871297 75514103
        503976088 178520287 682617019</internalNodes>
      <leafValues>
        -5.0784283876419067e-01 3.4860223531723022e-01</leafValues></_>
    <_>
      <internalNodes>
        0 -1 55091 -1367084167 -1964867254 -780017197 -1972080420
        -1316335152 -274484319 -1135661003 -22224008</internalNodes>
      <leafValues>
        -5.1290023326873779e-01 3.7327593564987183e-01</leafValues></_>
    <_>
      <internalNodes>
        0 -1 63341 -2102678991 -1900017533 756139412 -2008898203
        -2141827799 -671083129 -778888789 -926155525</internalNodes>
      <leafValues>
        -4.4944748282432556e-01 4.3523079156875610e-01</leafValues></_>
    <_>
      <internalNodes>
        0 -1 42597 -536878638 -27082640 -100760124 -153104306 -572785410
        -822624034 1332368351 -610414898</internalNodes>
      <leafValues>
        -3.9531213045120239e-01 4.6961659193038940e-01</leafValues></_>
    <_>
      <internalNodes>
        0 -1 62656 -1053833987 8300590 -704644655 -1142237156
        -2069749268 514582442 -1283330069 -1892955126</internalNodes>
      <leafValues>
        -3.7896922230720520e-01 4.7240665555000305e-01</leafValues></_>
    <_>
      <internalNodes>
        0 -1 38268 -745615890 1433104335 -1753346614 2006040083 84745725
        887709541 -1896936245 -189280445</internalNodes>
      <leafValues>
        -3.9185473322868347e-01 4.7265601158142090e-01</leafValues></_></weakClassifiers></stage1>
</opencv_storage>
