<?xml version="1.0"?>
<opencv_storage>
<stage19>
  <maxWeakCount>22</maxWeakCount>
  <stageThreshold>-8.2668805122375488e-01</stageThreshold>
  <weakClassifiers>
    <_>
      <internalNodes>
        0 -1 23945 466252637 -37231113 132879757 -219012514 -311528895
        -109629581 791949068 -88456120</internalNodes>
      <leafValues>
        2.2780831903219223e-02 5.6224668025970459e-01</leafValues></_>
    <_>
      <internalNodes>
        0 -1 46551 -114617246 -607399102 -1444262076 -204945845
        -536039546 -1326312882 146821071 2113232349</internalNodes>
      <leafValues>
        -3.5606291890144348e-01 2.4234059453010559e-01</leafValues></_>
    <_>
      <internalNodes>
        0 -1 53648 -22282245 -696262941 -205 -1246577411 -285889644
        1391706103 -134927207 -151331032</internalNodes>
      <leafValues>
        -2.2281952202320099e-01 3.7578192353248596e-01</leafValues></_>
    <_>
      <internalNodes>
        0 -1 63314 -1767963909 -689306981 -1664511552 -1462785073
        -268201857 2101592601 -309593509 -977278641</internalNodes>
      <leafValues>
        -2.8032916784286499e-01 2.9280993342399597e-01</leafValues></_>
    <_>
      <internalNodes>
        0 -1 44216 1705799226 1458412229 -1311137004 -1515358755
        822974930 -1586674848 730531839 434973695</internalNodes>
      <leafValues>
        -4.1257983446121216e-01 1.8827885389328003e-01</leafValues></_>
    <_>
      <internalNodes>
        0 -1 13627 141656228 -1388074847 1073939240 462774088 805343447
        188858585 815227317 96535936</internalNodes>
      <leafValues>
        -4.7336143255233765e-01 1.8319925665855408e-01</leafValues></_>
    <_>
      <internalNodes>
        0 -1 15100 -1624574222 -1616930642 898570089 -1289080619
        -1484129553 -1798149176 -1953030118 -942690485</internalNodes>
      <leafValues>
        -2.8780585527420044e-01 2.9390421509742737e-01</leafValues></_>
    <_>
      <internalNodes>
        0 -1 49925 -21284877 -489884297 -1074004393 -643104993
        1155000021 -16957902 -126853552 -872465636</internalNodes>
      <leafValues>
        -2.2587172687053680e-01 3.7708079814910889e-01</leafValues></_>
    <_>
      <internalNodes>
        0 -1 63591 697288471 1821302302 -1861017066 -216561390 260214868
        1261164658 -1601883530 19116163</internalNodes>
      <leafValues>
        -3.9449986815452576e-01 2.3809489607810974e-01</leafValues></_>
    <_>
      <internalNodes>
        0 -1 56757 -1937744420 -597830575 143114293 -57519776 -518335360
        -1561161553 429419288 85868656</internalNodes>
      <leafValues>
        -4.5364472270011902e-01 1.9474995136260986e-01</leafValues></_>
    <_>
      <internalNodes>
        0 -1 22700 -757609470 -667888623 353999281 193284119 -10807672
        -1040154354 -1293688888 943141309</internalNodes>
      <leafValues>
        -3.3075928688049316e-01 2.7210691571235657e-01</leafValues></_>
    <_>
      <internalNodes>
        0 -1 54218 -1567452141 -1219489636 -1945888750 832039332
        994753963 1226236044 1401820158 -1785341291</internalNodes>
      <leafValues>
        -2.8929004073143005e-01 3.0437344312667847e-01</leafValues></_>
    <_>
      <internalNodes>
        0 -1 49229 -923534569 -1116353740 -1403017838 -181461595
        -292767813 -1677395973 -361029655 -604683779</internalNodes>
      <leafValues>
        -2.1858844161033630e-01 4.2810618877410889e-01</leafValues></_>
    <_>
      <internalNodes>
        0 -1 59499 1736544670 -1037696887 306263297 -1198772191
        -256051682 1615845643 -1420105509 353048555</internalNodes>
      <leafValues>
        -3.0106779932975769e-01 2.8938600420951843e-01</leafValues></_>
    <_>
      <internalNodes>
        0 -1 38346 268699302 1386689934 54432260 989343948 613177856
        -1040448870 -646263273 -1116143720</internalNodes>
      <leafValues>
        -4.7656503319740295e-01 1.8758821487426758e-01</leafValues></_>
    <_>
      <internalNodes>
        0 -1 45317 1214966532 575844613 -1124036399 -819876607
        1491463865 1772454416 -764780370 930319979</internalNodes>
      <leafValues>
        -3.1405881047248840e-01 2.9456457495689392e-01</leafValues></_>
    <_>
      <internalNodes>
        0 -1 48268 781973352 537194862 -591011257 185130394 1343373553
        969455827 -529970987 759909024</internalNodes>
      <leafValues>
        -4.7756004333496094e-01 2.0790044963359833e-01</leafValues></_>
    <_>
      <internalNodes>
        0 -1 33902 1534836621 -1801871665 2113890680 1294741009
        1442080078 -713286475 -1965752197 -620808525</internalNodes>
      <leafValues>
        -2.6637542247772217e-01 3.6408755183219910e-01</leafValues></_>
    <_>
      <internalNodes>
        0 -1 37059 -556641470 899417776 -894424249 -1086607813
        -944473169 -1553285123 746338844 -1423384614</internalNodes>
      <leafValues>
        -2.4288657307624817e-01 3.6555933952331543e-01</leafValues></_>
    <_>
      <internalNodes>
        0 -1 15304 -531113293 -643602309 1899970537 1403136546 352257269
        -1971875492 -696403684 -547100550</internalNodes>
      <leafValues>
        -2.2631955146789551e-01 4.0012836456298828e-01</leafValues></_>
    <_>
      <internalNodes>
        0 -1 64793 -544353339 1371315772 -16933603 -1955363609 -42255728
        -1963149319 -755235776 1014628155</internalNodes>
      <leafValues>
        -2.9200184345245361e-01 3.0056825280189514e-01</leafValues></_>
    <_>
      <internalNodes>
        0 -1 63216 -1174176533 1444389079 1108814916 308302763
        1749115724 1250935809 1212398236 2013670007</internalNodes>
      <leafValues>
        -3.9049115777015686e-01 2.4304413795471191e-01</leafValues></_></weakClassifiers></stage19>
</opencv_storage>
