<?xml version="1.0"?>
<opencv_storage>
<stage5>
  <maxWeakCount>17</maxWeakCount>
  <stageThreshold>-1.1477433443069458e+00</stageThreshold>
  <weakClassifiers>
    <_>
      <internalNodes>
        0 -1 22993 -622865902 -690020254 952168688 -256182076 -117477144
        -740613904 -1074790916 -68235080</internalNodes>
      <leafValues>
        -2.1315325796604156e-01 5.4991853237152100e-01</leafValues></_>
    <_>
      <internalNodes>
        0 -1 56447 -829689862 -292621684 -2146906512 -1478704386
        -1024530179 -1119796688 109169904 368495344</internalNodes>
      <leafValues>
        -4.4864749908447266e-01 3.2333883643150330e-01</leafValues></_>
    <_>
      <internalNodes>
        0 -1 63464 -846230051 1254764102 -1142280391 -283340 -846482945
        1525640878 -2145150550 -919869430</internalNodes>
      <leafValues>
        -3.0901601910591125e-01 4.0949735045433044e-01</leafValues></_>
    <_>
      <internalNodes>
        0 -1 42639 -267456770 331080671 1794993365 755097605 1143554492
        1889106108 -725022513 1832241987</internalNodes>
      <leafValues>
        -4.2684838175773621e-01 3.0139538645744324e-01</leafValues></_>
    <_>
      <internalNodes>
        0 -1 58339 254197651 -1185242526 -1021257415 -786970591 67234488
        -62145274 176179438 -1652167516</internalNodes>
      <leafValues>
        -3.6422598361968994e-01 3.4853732585906982e-01</leafValues></_>
    <_>
      <internalNodes>
        0 -1 42308 2015352814 1372256070 -574537651 1360188570
        2118602933 1079546811 -57734600 -302253190</internalNodes>
      <leafValues>
        -3.5993316769599915e-01 3.7044450640678406e-01</leafValues></_>
    <_>
      <internalNodes>
        0 -1 40100 -1626864382 2081436674 2057651628 -48146331 -68261469
        -1279314418 -731446835 -271893041</internalNodes>
      <leafValues>
        -4.4379898905754089e-01 2.9163125157356262e-01</leafValues></_>
    <_>
      <internalNodes>
        0 -1 66964 -98946051 1422262902 268861688 1183480794 1523710074
        -1153581053 -105321590 1242492570</internalNodes>
      <leafValues>
        -4.0036746859550476e-01 3.2401666045188904e-01</leafValues></_>
    <_>
      <internalNodes>
        0 -1 66215 -917535091 44862662 -2146434832 1791883318 1359855359
        1237484192 -1029119354 -790105665</internalNodes>
      <leafValues>
        -3.6006739735603333e-01 3.5000541806221008e-01</leafValues></_>
    <_>
      <internalNodes>
        0 -1 51616 -1025576222 1980129507 -805036141 -539863202
        -840309006 -1971011576 -788282700 -949820829</internalNodes>
      <leafValues>
        -3.6347228288650513e-01 3.5481667518615723e-01</leafValues></_>
    <_>
      <internalNodes>
        0 -1 50249 -728502538 -1241783347 622926637 1033945859
        -1521784356 -708673378 1397557619 -570801917</internalNodes>
      <leafValues>
        -3.5871315002441406e-01 3.5987988114356995e-01</leafValues></_>
    <_>
      <internalNodes>
        0 -1 17452 1167570099 1431558134 -85655560 -1385979918
        -1732139777 888913850 2017589115 -1373127734</internalNodes>
      <leafValues>
        -2.9428061842918396e-01 4.4043639302253723e-01</leafValues></_>
    <_>
      <internalNodes>
        0 -1 9975 -2005406113 -1921012051 485404141 -1718145343
        -1041241505 -1685215383 -1443618967 -631827163</internalNodes>
      <leafValues>
        -3.3641237020492554e-01 3.9681506156921387e-01</leafValues></_>
    <_>
      <internalNodes>
        0 -1 62809 -1442853041 -1343066260 285156599 -302303195
        1190524118 265260973 -1191435164 -1757957505</internalNodes>
      <leafValues>
        -3.3182778954505920e-01 4.0108850598335266e-01</leafValues></_>
    <_>
      <internalNodes>
        0 -1 1771 -413735169 1088840610 83518221 -137658706 46313711
        234190620 91510243 1382535635</internalNodes>
      <leafValues>
        -3.5322907567024231e-01 3.7899824976921082e-01</leafValues></_>
    <_>
      <internalNodes>
        0 -1 52008 -124786438 1356304398 219240560 -1451047549
        1347351543 586814201 17129752 -715787464</internalNodes>
      <leafValues>
        -4.1024091839790344e-01 3.3515202999114990e-01</leafValues></_>
    <_>
      <internalNodes>
        0 -1 48791 -204241792 -87083800 437935193 -23403007 1494205963
        -253033797 -19465569 340125507</internalNodes>
      <leafValues>
        -4.9075084924697876e-01 2.7204534411430359e-01</leafValues></_></weakClassifiers></stage5>
</opencv_storage>
