<?xml version="1.0"?>
<opencv_storage>
<stage18>
  <maxWeakCount>23</maxWeakCount>
  <stageThreshold>-9.4391053915023804e-01</stageThreshold>
  <weakClassifiers>
    <_>
      <internalNodes>
        0 -1 57889 -1970606086 783593192 -1434784028 -1930252562
        -453188353 511063103 1114885712 1347552532</internalNodes>
      <leafValues>
        -2.9019609093666077e-01 4.6104416251182556e-01</leafValues></_>
    <_>
      <internalNodes>
        0 -1 28866 -177997825 1680160177 -8945693 -6637910 -48439617
        -33687105 -69468291 -352585970</internalNodes>
      <leafValues>
        -1.8820403516292572e-01 4.4247242808341980e-01</leafValues></_>
    <_>
      <internalNodes>
        0 -1 26361 -35596640 -1274686838 1028663145 -1677665406
        -1693722383 -1864321637 855928324 1093057602</internalNodes>
      <leafValues>
        -4.4973391294479370e-01 1.8773552775382996e-01</leafValues></_>
    <_>
      <internalNodes>
        0 -1 50348 -138412053 -473533497 1939091923 1881849242
        2038442001 932720650 2125663381 -420836552</internalNodes>
      <leafValues>
        -3.1025895476341248e-01 2.5520429015159607e-01</leafValues></_>
    <_>
      <internalNodes>
        0 -1 61538 -269513235 -537121746 -1077954839 -1175722819
        -1209164645 -89419855 -299268309 -380926450</internalNodes>
      <leafValues>
        -1.9688045978546143e-01 4.2974185943603516e-01</leafValues></_>
    <_>
      <internalNodes>
        0 -1 48217 -1769291712 -125718203 774440963 -1178507989
        -1604463504 281965664 -681639383 -378924249</internalNodes>
      <leafValues>
        -4.1246315836906433e-01 2.1395412087440491e-01</leafValues></_>
    <_>
      <internalNodes>
        0 -1 49776 -1426426169 1592187425 -169429033 -885966537
        -122749190 -1345030412 -1560814338 -922471905</internalNodes>
      <leafValues>
        -2.7013716101646423e-01 3.1389209628105164e-01</leafValues></_>
    <_>
      <internalNodes>
        0 -1 54272 -2116938477 293085036 1341091833 -1619567180
        -1073824581 -1384108308 -537829915 -741481267</internalNodes>
      <leafValues>
        -2.7831140160560608e-01 3.1926634907722473e-01</leafValues></_>
    <_>
      <internalNodes>
        0 -1 52341 -543598140 1550549732 1074984287 -723775695
        -1348668982 1795377894 -406258866 577167413</internalNodes>
      <leafValues>
        -3.9386737346649170e-01 2.1513631939888000e-01</leafValues></_>
    <_>
      <internalNodes>
        0 -1 59506 1294401999 1388084990 1853848505 -650118250
        1335361162 808761882 912205631 -481572646</internalNodes>
      <leafValues>
        -2.5260290503501892e-01 3.4509935975074768e-01</leafValues></_>
    <_>
      <internalNodes>
        0 -1 60083 -1037693238 1936721171 -998204926 76830151 1073819210
        973736094 1648833148 1143124558</internalNodes>
      <leafValues>
        -4.9490341544151306e-01 1.8637861311435699e-01</leafValues></_>
    <_>
      <internalNodes>
        0 -1 32036 -1112837133 1422976212 -1145763792 160154527
        -671741126 2045818719 -76496485 -50212789</internalNodes>
      <leafValues>
        -2.2998923063278198e-01 3.9837652444839478e-01</leafValues></_>
    <_>
      <internalNodes>
        0 -1 60231 -1500054789 302400075 1746964562 525504984
        -1730244868 -662257648 -1165040908 1343678677</internalNodes>
      <leafValues>
        -3.7107613682746887e-01 2.4162124097347260e-01</leafValues></_>
    <_>
      <internalNodes>
        0 -1 1773 691203135 1146399477 1052714607 -531775902 190053119
        1009893020 1609692677 -1052011909</internalNodes>
      <leafValues>
        -2.7139633893966675e-01 3.3745184540748596e-01</leafValues></_>
    <_>
      <internalNodes>
        0 -1 21907 406085712 -585938920 -1860890473 -1723956976 75926005
        -4480855 2072783250 234950673</internalNodes>
      <leafValues>
        -3.6471486091613770e-01 2.5491771101951599e-01</leafValues></_>
    <_>
      <internalNodes>
        0 -1 53481 -54530053 1625988011 -26411278 -102309642 -318816105
        1694062591 -319461547 -181141576</internalNodes>
      <leafValues>
        -2.7673500776290894e-01 3.2562798261642456e-01</leafValues></_>
    <_>
      <internalNodes>
        0 -1 34682 -488208841 -38175003 -1898611217 997112637 -338379080
        -1074159686 -1998455572 -632291036</internalNodes>
      <leafValues>
        -2.7087560296058655e-01 3.4386232495307922e-01</leafValues></_>
    <_>
      <internalNodes>
        0 -1 44845 1617752794 -1278688482 -1858649594 -1090420462
        9961688 -174726482 -1044561669 235250847</internalNodes>
      <leafValues>
        -4.0825405716896057e-01 2.3822298645973206e-01</leafValues></_>
    <_>
      <internalNodes>
        0 -1 61488 -1408832805 -1240087331 71521791 482083139 -327112513
        -1467836251 -922027596 -1452752640</internalNodes>
      <leafValues>
        -3.0920332670211792e-01 3.2554009556770325e-01</leafValues></_>
    <_>
      <internalNodes>
        0 -1 64725 -53577512 -118136301 -1051260874 2013843745
        1073947147 2081528659 -1156853986 1681046034</internalNodes>
      <leafValues>
        -4.0873259305953979e-01 2.3775571584701538e-01</leafValues></_>
    <_>
      <internalNodes>
        0 -1 59107 -298851077 -570467457 1065316133 233679472 -403831031
        650115068 131983256 -806892573</internalNodes>
      <leafValues>
        -2.4255719780921936e-01 4.1703206300735474e-01</leafValues></_>
    <_>
      <internalNodes>
        0 -1 38905 2121900959 1563463531 -1115721837 -170000856
        209025721 -1093243280 879681083 -589867445</internalNodes>
      <leafValues>
        -1.9051244854927063e-01 4.8684531450271606e-01</leafValues></_>
    <_>
      <internalNodes>
        0 -1 8615 913773883 -715880200 290431048 726681616 1778400054
        1220935722 1654337647 1815820954</internalNodes>
      <leafValues>
        -3.3587765693664551e-01 2.9468405246734619e-01</leafValues></_></weakClassifiers></stage18>
</opencv_storage>
