<?xml version="1.0"?>
<opencv_storage>
<stage22>
  <maxWeakCount>24</maxWeakCount>
  <stageThreshold>-9.0805363655090332e-01</stageThreshold>
  <weakClassifiers>
    <_>
      <internalNodes>
        0 -1 23876 1031407711 -101204997 402457597 444489274 -1352400063
        -38852746 -1384797716 -915144</internalNodes>
      <leafValues>
        3.3904485404491425e-02 5.8550810813903809e-01</leafValues></_>
    <_>
      <internalNodes>
        0 -1 48579 -669520708 -744520692 -653683772 -722756911
        1626913021 -807467329 -1072279152 -637235302</internalNodes>
      <leafValues>
        -2.8841978311538696e-01 2.9123315215110779e-01</leafValues></_>
    <_>
      <internalNodes>
        0 -1 55144 -424674853 -1402227326 386352375 -1365477282
        -207052681 -2079092605 1633835345 -66823416</internalNodes>
      <leafValues>
        -3.5303846001625061e-01 2.2028005123138428e-01</leafValues></_>
    <_>
      <internalNodes>
        0 -1 52641 -1933361601 1528827226 -745520548 1058345597
        119149053 973444899 33583767 1607956787</internalNodes>
      <leafValues>
        -2.6567739248275757e-01 2.8181076049804688e-01</leafValues></_>
    <_>
      <internalNodes>
        0 -1 60578 198611228 658944411 -180150249 -1966066970 789590670
        -263806870 743068351 570606082</internalNodes>
      <leafValues>
        -4.7294580936431885e-01 1.2995909154415131e-01</leafValues></_>
    <_>
      <internalNodes>
        0 -1 26196 1044704312 847050502 -238845099 782029199 1086355928
        932945592 1644431599 129991724</internalNodes>
      <leafValues>
        -3.8053670525550842e-01 2.0421329140663147e-01</leafValues></_>
    <_>
      <internalNodes>
        0 -1 61291 -1945417237 -9092545 -1862110992 103255465 1359193626
        1802199147 -964505089 -176463281</internalNodes>
      <leafValues>
        -2.8318214416503906e-01 2.7486935257911682e-01</leafValues></_>
    <_>
      <internalNodes>
        0 -1 53604 -1934960264 1224659415 1251407891 873515560
        -1878652891 -775790397 -963638599 1433808304</internalNodes>
      <leafValues>
        -4.4223132729530334e-01 1.6666491329669952e-01</leafValues></_>
    <_>
      <internalNodes>
        0 -1 44573 1220237060 2063744119 166321218 132202504 1078984956
        1614039532 1654465152 1544098434</internalNodes>
      <leafValues>
        -4.6936503052711487e-01 1.6772085428237915e-01</leafValues></_>
    <_>
      <internalNodes>
        0 -1 49505 -1543468736 1607517496 907098335 398729486 276849594
        -1600154997 177490876 218238304</internalNodes>
      <leafValues>
        -4.1662272810935974e-01 1.9913788139820099e-01</leafValues></_>
    <_>
      <internalNodes>
        0 -1 66140 -973086433 -854839891 -420495690 1068478126
        -152271544 -908079542 -939974944 -2377297</internalNodes>
      <leafValues>
        -2.0475097000598907e-01 4.1278365254402161e-01</leafValues></_>
    <_>
      <internalNodes>
        0 -1 37907 -1049004865 -13923276 939489269 -1748908309
        -545261859 -1224980826 1885120011 -632193333</internalNodes>
      <leafValues>
        -2.0482102036476135e-01 4.2363694310188293e-01</leafValues></_>
    <_>
      <internalNodes>
        0 -1 5191 283506851 -939384816 1420035013 -1996809530
        -1796865349 1559454659 273232045 1149438571</internalNodes>
      <leafValues>
        -3.1308788061141968e-01 2.7413666248321533e-01</leafValues></_>
    <_>
      <internalNodes>
        0 -1 44938 -777603514 1422848224 -1655515591 -1987847150
        1343921303 814911666 1887519625 1958038025</internalNodes>
      <leafValues>
        -3.8112890720367432e-01 2.1510563790798187e-01</leafValues></_>
    <_>
      <internalNodes>
        0 -1 55846 890977783 769801895 -1149489479 1598023487
        -1661143657 -1375830017 -51069443 -306267530</internalNodes>
      <leafValues>
        -2.3902495205402374e-01 3.5847097635269165e-01</leafValues></_>
    <_>
      <internalNodes>
        0 -1 41268 -73965657 -1347717723 -428403816 -6294537 -1226390346
        -275343659 1489507065 -501103689</internalNodes>
      <leafValues>
        -2.3906438052654266e-01 3.6369740962982178e-01</leafValues></_>
    <_>
      <internalNodes>
        0 -1 54856 -281025537 -1917948214 2122070899 -714577582
        452918886 -269437583 -864748188 -652157340</internalNodes>
      <leafValues>
        -2.8489339351654053e-01 3.0764397978782654e-01</leafValues></_>
    <_>
      <internalNodes>
        0 -1 27943 -1645525759 1506033515 -861491985 -851494920
        1240891615 1537269644 41693331 -1892214819</internalNodes>
      <leafValues>
        -2.6503852009773254e-01 3.4125554561614990e-01</leafValues></_>
    <_>
      <internalNodes>
        0 -1 37885 1083866542 -456560246 -996093903 588509987 2048086355
        142745777 -1340471109 1761082107</internalNodes>
      <leafValues>
        -3.4082800149917603e-01 2.7464380860328674e-01</leafValues></_>
    <_>
      <internalNodes>
        0 -1 23277 -182094917 -728431557 -1133051933 1451409818
        1032420739 1731291443 -311233881 -252740466</internalNodes>
      <leafValues>
        -2.6139101386070251e-01 3.5378715395927429e-01</leafValues></_>
    <_>
      <internalNodes>
        0 -1 62027 1549761301 710172275 856183637 -1695276288 1783195913
        -619462617 1929668431 1623755338</internalNodes>
      <leafValues>
        -3.9613583683967590e-01 2.3123483359813690e-01</leafValues></_>
    <_>
      <internalNodes>
        0 -1 57757 -20994821 -20058129 750743415 -1410426129 -957309192
        1453783001 -705233255 -944505319</internalNodes>
      <leafValues>
        -2.3147493600845337e-01 3.8673007488250732e-01</leafValues></_>
    <_>
      <internalNodes>
        0 -1 50201 -541130616 2052317384 17558977 -1700580150 136478989
        1493914107 1510802185 -613590263</internalNodes>
      <leafValues>
        -3.6936300992965698e-01 2.6480859518051147e-01</leafValues></_>
    <_>
      <internalNodes>
        0 -1 23758 -246110048 -774588230 -930004179 564030375
        -1954995237 971366403 1238692388 -2130238802</internalNodes>
      <leafValues>
        -3.4595599770545959e-01 2.8159025311470032e-01</leafValues></_></weakClassifiers></stage22>
</opencv_storage>
