<?xml version="1.0"?>
<opencv_storage>
<stage8>
  <maxWeakCount>20</maxWeakCount>
  <stageThreshold>-1.5895241498947144e+00</stageThreshold>
  <weakClassifiers>
    <_>
      <internalNodes>
        0 -1 55279 -1229896256 -1124073504 -1350963445 1449047809
        -1079047081 -1629585557 214656943 1161974608</internalNodes>
      <leafValues>
        -2.3788546025753021e-01 5.0107806921005249e-01</leafValues></_>
    <_>
      <internalNodes>
        0 -1 42414 -779355393 -143040513 256890567 1039248939 1430832895
        -1667482386 -287373693 -12549</internalNodes>
      <leafValues>
        -1.8144854903221130e-01 5.2127790451049805e-01</leafValues></_>
    <_>
      <internalNodes>
        0 -1 64237 -417726979 78529804 -1928638371 -1081418285 82440411
        715080162 -228399638 -1423813574</internalNodes>
      <leafValues>
        -3.3124271035194397e-01 3.3090245723724365e-01</leafValues></_>
    <_>
      <internalNodes>
        0 -1 44348 -22080 1933660576 -1876045719 -245796667 1397872782
        -349261301 -1064334195 735002861</internalNodes>
      <leafValues>
        -3.5637629032135010e-01 3.1086334586143494e-01</leafValues></_>
    <_>
      <internalNodes>
        0 -1 56436 -884999237 -1357974269 -665268045 -980758420
        -123733161 -1790386102 1955252981 -776807948</internalNodes>
      <leafValues>
        -3.4624373912811279e-01 3.1715860962867737e-01</leafValues></_>
    <_>
      <internalNodes>
        0 -1 63606 -1882724373 788568210 -2137681226 433558200 177661082
        170633243 1099686134 301463287</internalNodes>
      <leafValues>
        -3.8448530435562134e-01 2.9850515723228455e-01</leafValues></_>
    <_>
      <internalNodes>
        0 -1 16201 82821371 -578861249 234830781 1609268708 1758793182
        -1376103081 -914571815 -1990897391</internalNodes>
      <leafValues>
        -3.0737960338592529e-01 3.7076660990715027e-01</leafValues></_>
    <_>
      <internalNodes>
        0 -1 6117 -514716898 1494298881 1602245058 805476434 550045988
        171966491 1628124507 -765198473</internalNodes>
      <leafValues>
        -3.6465254426002502e-01 3.1736412644386292e-01</leafValues></_>
    <_>
      <internalNodes>
        0 -1 60014 1580621555 1502762199 285294935 -1330225613
        -250084980 1238616072 -1414412034 136346339</internalNodes>
      <leafValues>
        -4.2489144206047058e-01 2.5412985682487488e-01</leafValues></_>
    <_>
      <internalNodes>
        0 -1 32107 -668384228 -593785717 -1054678370 -1086601105
        597285537 -1178941 -1666989368 -1090351364</internalNodes>
      <leafValues>
        -3.5626605153083801e-01 3.2119467854499817e-01</leafValues></_>
    <_>
      <internalNodes>
        0 -1 62746 -1531000229 639938074 -268571913 -1818170726
        266135676 -813766849 1568040174 -1355142177</internalNodes>
      <leafValues>
        -3.2702505588531494e-01 3.5631039738655090e-01</leafValues></_>
    <_>
      <internalNodes>
        0 -1 55141 -576728852 -1659525831 1243841971 1952444611
        1248111389 171481472 -385858813 -681634802</internalNodes>
      <leafValues>
        -3.5284501314163208e-01 3.3991470932960510e-01</leafValues></_>
    <_>
      <internalNodes>
        0 -1 48718 -22402338 1399759190 1396889109 1360146741 1535182861
        933740719 1317210206 724639763</internalNodes>
      <leafValues>
        -4.2467451095581055e-01 2.7732014656066895e-01</leafValues></_>
    <_>
      <internalNodes>
        0 -1 53594 -1532241670 545445067 1375990259 817034722
        -1198050603 1655374279 1113655605 -763452640</internalNodes>
      <leafValues>
        -4.9022206664085388e-01 2.4603369832038879e-01</leafValues></_>
    <_>
      <internalNodes>
        0 -1 38594 -247201814 -731718846 -1451089691 864237043
        1092468873 -116815566 -359544281 1124816110</internalNodes>
      <leafValues>
        -3.3855903148651123e-01 3.6878728866577148e-01</leafValues></_>
    <_>
      <internalNodes>
        0 -1 64066 -771333557 -109066109 -2028883498 575586903
        2086764335 -95283158 -805135361 1887141231</internalNodes>
      <leafValues>
        -3.7849900126457214e-01 3.2817620038986206e-01</leafValues></_>
    <_>
      <internalNodes>
        0 -1 44633 464442862 1924002254 543278193 -1290604389 1497959328
        898643976 1891631134 124727859</internalNodes>
      <leafValues>
        -4.2731967568397522e-01 3.0062672495841980e-01</leafValues></_>
    <_>
      <internalNodes>
        0 -1 30993 1448590404 403200392 1015132409 168301569 964710560
        -1945956692 240197850 149119131</internalNodes>
      <leafValues>
        -5.5395656824111938e-01 2.0609278976917267e-01</leafValues></_>
    <_>
      <internalNodes>
        0 -1 17327 -183296 -787083231 -829325278 -1862069673 -1714833272
        -1928820493 -108517027 1215765823</internalNodes>
      <leafValues>
        -3.6088168621063232e-01 3.3899071812629700e-01</leafValues></_>
    <_>
      <internalNodes>
        0 -1 64396 -2061845477 106582311 306237837 2141180880
        -1985107750 -724522480 46356483 -2004936291</internalNodes>
      <leafValues>
        -3.4481948614120483e-01 3.7362971901893616e-01</leafValues></_></weakClassifiers></stage8>
</opencv_storage>
