<?xml version="1.0"?>
<opencv_storage>
<stage24>
  <maxWeakCount>23</maxWeakCount>
  <stageThreshold>-8.6235445737838745e-01</stageThreshold>
  <weakClassifiers>
    <_>
      <internalNodes>
        0 -1 47209 -402931790 -206078530 -1091123978 1356346293
        -982987522 1225807096 -323747089 87333</internalNodes>
      <leafValues>
        -1.1583011597394943e-01 4.9032837152481079e-01</leafValues></_>
    <_>
      <internalNodes>
        0 -1 31034 1824442935 -1666048097 -1525962807 767651817 -2689057
        -537071941 1890248519 1875508328</internalNodes>
      <leafValues>
        -2.2947524487972260e-01 3.5596278309822083e-01</leafValues></_>
    <_>
      <internalNodes>
        0 -1 65574 -857431559 1816691060 -1878589032 708851814
        -400454632 -1606729336 -1381789270 -1484131574</internalNodes>
      <leafValues>
        -3.1117299199104309e-01 2.6145851612091064e-01</leafValues></_>
    <_>
      <internalNodes>
        0 -1 29462 -845559097 -71612737 1002040699 -68433361 -826586743
        -59668 -1074922068 -90651750</internalNodes>
      <leafValues>
        -1.9836193323135376e-01 3.8674265146255493e-01</leafValues></_>
    <_>
      <internalNodes>
        0 -1 55183 -289734192 2145314000 -1916031497 -404829376
        537610207 1911570466 -1644117728 -887729916</internalNodes>
      <leafValues>
        -3.9173838496208191e-01 1.7503117024898529e-01</leafValues></_>
    <_>
      <internalNodes>
        0 -1 53554 -545269255 -132769789 595722922 -569094033 -376569734
        -2107600869 201261731 538334858</internalNodes>
      <leafValues>
        -2.6337760686874390e-01 2.9554688930511475e-01</leafValues></_>
    <_>
      <internalNodes>
        0 -1 37374 -1979140318 -488192623 -1697203243 -393575627
        -262107934 -1696065792 822334805 -1323095829</internalNodes>
      <leafValues>
        -3.4664803743362427e-01 2.1892757713794708e-01</leafValues></_>
    <_>
      <internalNodes>
        0 -1 42610 1978093717 1341718495 -1103889695 282107390 -34313470
        -540762530 -14428792 -277184642</internalNodes>
      <leafValues>
        -2.6764836907386780e-01 2.9775971174240112e-01</leafValues></_>
    <_>
      <internalNodes>
        0 -1 65058 -1915395971 1315079422 369430869 -1373238870
        1133101309 267347003 -1475038534 -1910457302</internalNodes>
      <leafValues>
        -3.5182696580886841e-01 2.3331205546855927e-01</leafValues></_>
    <_>
      <internalNodes>
        0 -1 42423 289036202 1401291054 265377762 635556371 1074790508
        1387274468 -530562302 92755777</internalNodes>
      <leafValues>
        -4.8519140481948853e-01 1.5511846542358398e-01</leafValues></_>
    <_>
      <internalNodes>
        0 -1 61836 -2111766605 -213983577 -336648201 -138937616
        134064543 -1766277282 766855991 -2049444534</internalNodes>
      <leafValues>
        -2.2057874500751495e-01 3.6115810275077820e-01</leafValues></_>
    <_>
      <internalNodes>
        0 -1 47001 1979362989 -1750028264 1238227387 2097439522
        1480843437 -1417629551 -238747417 609605650</internalNodes>
      <leafValues>
        -2.9972454905509949e-01 2.8160643577575684e-01</leafValues></_>
    <_>
      <internalNodes>
        0 -1 12771 1450579765 1377185092 218238253 -1778202624
        2117169461 822740001 797076271 1780490259</internalNodes>
      <leafValues>
        -3.6438295245170593e-01 2.2788988053798676e-01</leafValues></_>
    <_>
      <internalNodes>
        0 -1 26468 -193041123 -562835465 510877404 -1103512925
        -184360735 -311566923 1136757984 -1834733494</internalNodes>
      <leafValues>
        -2.5717175006866455e-01 3.1930553913116455e-01</leafValues></_>
    <_>
      <internalNodes>
        0 -1 58623 -23701688 1914634370 -2054167017 -259886110
        1779302987 -645323605 1523349614 -1542300118</internalNodes>
      <leafValues>
        -4.2154079675674438e-01 1.9675266742706299e-01</leafValues></_>
    <_>
      <internalNodes>
        0 -1 64277 -1852700448 1812431803 -2138799892 138821862
        1091186974 -1927511493 -1890565381 -930069821</internalNodes>
      <leafValues>
        -3.7130054831504822e-01 2.1735168993473053e-01</leafValues></_>
    <_>
      <internalNodes>
        0 -1 58986 -1602622726 -1852037530 -1240821679 1438664758
        -492128004 715537292 -1442706992 -2067644320</internalNodes>
      <leafValues>
        -3.7757602334022522e-01 2.2387994825839996e-01</leafValues></_>
    <_>
      <internalNodes>
        0 -1 51655 1445165632 -1148329879 -1196274304 -232091191
        683514732 -1171642328 1503021644 -203437526</internalNodes>
      <leafValues>
        -3.2583540678024292e-01 2.5773686170578003e-01</leafValues></_>
    <_>
      <internalNodes>
        0 -1 44574 -84806785 -688140423 266307441 -398647 -1258426512
        -1716892466 -1236679265 -139460957</internalNodes>
      <leafValues>
        -1.5671092271804810e-01 5.3203284740447998e-01</leafValues></_>
    <_>
      <internalNodes>
        0 -1 57545 1309353186 -1837268861 -128087658 542281858 554875464
        671330352 -1551834882 574648931</internalNodes>
      <leafValues>
        -4.5669156312942505e-01 2.0305557548999786e-01</leafValues></_>
    <_>
      <internalNodes>
        0 -1 7400 -1683752256 362185059 -234564003 131795601 430039254
        129141569 1113930997 1339260940</internalNodes>
      <leafValues>
        -3.5705173015594482e-01 2.3885402083396912e-01</leafValues></_>
    <_>
      <internalNodes>
        0 -1 61448 -1207728453 -926477085 -795103205 -796063471
        -1423197727 -1298571100 -720139755 140038404</internalNodes>
      <leafValues>
        -3.8533172011375427e-01 2.3364335298538208e-01</leafValues></_>
    <_>
      <internalNodes>
        0 -1 43101 -1744160814 327160794 1367656076 -167684860 38379534
        549060754 -1778142390 1145955143</internalNodes>
      <leafValues>
        -4.3490570783615112e-01 2.1144808828830719e-01</leafValues></_></weakClassifiers></stage24>
</opencv_storage>
