<?xml version="1.0"?>
<opencv_storage>
<stage11>
  <maxWeakCount>20</maxWeakCount>
  <stageThreshold>-1.2378734350204468e+00</stageThreshold>
  <weakClassifiers>
    <_>
      <internalNodes>
        0 -1 56797 -16951860 1861730293 2146434847 1451160947 -403776690
        -717295626 -4296875 302149680</internalNodes>
      <leafValues>
        -2.2700296342372894e-01 4.9570077657699585e-01</leafValues></_>
    <_>
      <internalNodes>
        0 -1 42493 1352659967 -1142161667 -1364756509 -1846280629
        882339326 -793219322 -174125176 -135307293</internalNodes>
      <leafValues>
        -2.0794448256492615e-01 4.8772430419921875e-01</leafValues></_>
    <_>
      <internalNodes>
        0 -1 40559 304229870 816157133 -1323415846 553771529 284711806
        274204825 -865399618 758770195</internalNodes>
      <leafValues>
        -4.9257427453994751e-01 2.0228873193264008e-01</leafValues></_>
    <_>
      <internalNodes>
        0 -1 64919 -386203591 2096376637 -1978225316 -2070923705
        -534042343 -289115879 -911239139 -865285492</internalNodes>
      <leafValues>
        -4.0879121422767639e-01 2.4066458642482758e-01</leafValues></_>
    <_>
      <internalNodes>
        0 -1 50177 -255920646 -225473178 -1384517872 -642650897
        2004077823 230719485 299358156 -143130647</internalNodes>
      <leafValues>
        -2.8004604578018188e-01 3.4191527962684631e-01</leafValues></_>
    <_>
      <internalNodes>
        0 -1 46311 135063042 621400669 -1843367612 1051558749 1555300722
        743115250 1947862173 -1832045611</internalNodes>
      <leafValues>
        -5.2612149715423584e-01 1.7719697952270508e-01</leafValues></_>
    <_>
      <internalNodes>
        0 -1 43349 -374027473 -1233069506 -1631710254 -1789984517
        -247944033 -1821068281 452741119 -1727183399</internalNodes>
      <leafValues>
        -2.6218605041503906e-01 3.6315333843231201e-01</leafValues></_>
    <_>
      <internalNodes>
        0 -1 42719 -1699844498 296672479 -1966094480 -1511992832
        952206332 1354261025 1392706824 1969742354</internalNodes>
      <leafValues>
        -5.0355112552642822e-01 1.7422296106815338e-01</leafValues></_>
    <_>
      <internalNodes>
        0 -1 56412 -13448735 2046189025 -50372617 -69943037 538954993
        771649761 1618816975 -44119346</internalNodes>
      <leafValues>
        -3.0655241012573242e-01 3.1068411469459534e-01</leafValues></_>
    <_>
      <internalNodes>
        0 -1 65045 -823753716 1256194196 787816202 126604306 1078037898
        716728559 -384298238 -881067337</internalNodes>
      <leafValues>
        -3.3338010311126709e-01 3.0373561382293701e-01</leafValues></_>
    <_>
      <internalNodes>
        0 -1 58267 8173494 2060501938 -2079873117 -292437248 171486942
        -574396607 197600250 -1491107200</internalNodes>
      <leafValues>
        -3.7661045789718628e-01 2.6345312595367432e-01</leafValues></_>
    <_>
      <internalNodes>
        0 -1 47255 -5245041 632274935 -419549654 1977923063 742677696
        250943334 -25362697 -951848233</internalNodes>
      <leafValues>
        -3.1300178170204163e-01 3.5003331303596497e-01</leafValues></_>
    <_>
      <internalNodes>
        0 -1 44482 -96477781 1397395814 -1877084848 57858672 2020279985
        -1809954281 1918105336 -145530159</internalNodes>
      <leafValues>
        -3.2666888833045959e-01 3.4254622459411621e-01</leafValues></_>
    <_>
      <internalNodes>
        0 -1 20938 -754958117 2078240726 687538109 -1129171275
        -212141008 -92490124 -1814546644 -1153835502</internalNodes>
      <leafValues>
        -2.7398520708084106e-01 3.7381795048713684e-01</leafValues></_>
    <_>
      <internalNodes>
        0 -1 65655 128128092 642311448 289430013 -1996092620 424476865
        -8470106 -242301974 -1694484428</internalNodes>
      <leafValues>
        -4.8412701487541199e-01 2.2902275621891022e-01</leafValues></_>
    <_>
      <internalNodes>
        0 -1 53550 210489322 -796506920 -796409728 -1145904999
        -909418393 1808860002 -1031665239 1397969560</internalNodes>
      <leafValues>
        -4.4367077946662903e-01 2.2633667290210724e-01</leafValues></_>
    <_>
      <internalNodes>
        0 -1 56686 -1365522024 -1064320071 791512849 116310403
        1509994695 479961612 1275292281 224154180</internalNodes>
      <leafValues>
        -4.5571795105934143e-01 2.3938682675361633e-01</leafValues></_>
    <_>
      <internalNodes>
        0 -1 64970 -269547019 -915525957 2046246844 -1092166092
        -49619589 1046576530 -1942760221 -821297273</internalNodes>
      <leafValues>
        -2.6732867956161499e-01 4.0364193916320801e-01</leafValues></_>
    <_>
      <internalNodes>
        0 -1 61261 -1533349159 -1634712907 294244533 1476158357
        -1328769392 -1896150888 -1735988432 -1397487372</internalNodes>
      <leafValues>
        -4.6353626251220703e-01 2.6509281992912292e-01</leafValues></_>
    <_>
      <internalNodes>
        0 -1 17688 457602946 914012078 18883213 668906509 1336048446
        1220452971 293903032 -1953535086</internalNodes>
      <leafValues>
        -4.4290181994438171e-01 2.4434208869934082e-01</leafValues></_></weakClassifiers></stage11>
</opencv_storage>
