<?xml version="1.0"?>
<opencv_storage>
<stage4>
  <maxWeakCount>16</maxWeakCount>
  <stageThreshold>-1.3199409246444702e+00</stageThreshold>
  <weakClassifiers>
    <_>
      <internalNodes>
        0 -1 38269 1410207486 909109772 -1146221370 755084833 494948351
        1552690476 2127432843 753782273</internalNodes>
      <leafValues>
        -2.9893994331359863e-01 5.2846235036849976e-01</leafValues></_>
    <_>
      <internalNodes>
        0 -1 61422 -1440551173 -1252321251 -1538471689 -1090982156
        -74269959 -1967412843 975240148 -1393549132</internalNodes>
      <leafValues>
        -3.9279508590698242e-01 3.6218565702438354e-01</leafValues></_>
    <_>
      <internalNodes>
        0 -1 51980 -826277893 1756336367 -84298863 -1293222401
        -420014638 1979381401 -553758123 -25171044</internalNodes>
      <leafValues>
        -3.2274591922760010e-01 4.0010553598403931e-01</leafValues></_>
    <_>
      <internalNodes>
        0 -1 11782 -705251917 -805266798 -1116126345 -81741812 -16653
        -253750813 -67806401 -95438262</internalNodes>
      <leafValues>
        -3.0392107367515564e-01 4.1969835758209229e-01</leafValues></_>
    <_>
      <internalNodes>
        0 -1 55930 1538741235 1569725827 1367645439 -1123759769
        -793611265 -618486645 -71946022 -1417486453</internalNodes>
      <leafValues>
        -3.3108469843864441e-01 4.0379047393798828e-01</leafValues></_>
    <_>
      <internalNodes>
        0 -1 42320 1359828718 1363802073 -906279742 620823082 1214005720
        814350668 -226164349 964258315</internalNodes>
      <leafValues>
        -4.2483672499656677e-01 3.0838176608085632e-01</leafValues></_>
    <_>
      <internalNodes>
        0 -1 65557 -1103879 1568803084 -2063405921 -1407187334
        -666887912 -121438167 -301066056 -1471548790</internalNodes>
      <leafValues>
        -3.7645047903060913e-01 3.4639984369277954e-01</leafValues></_>
    <_>
      <internalNodes>
        0 -1 53569 -57416200 -34096999 -1417573039 -1210254495 764140029
        -1408546052 103104568 -546343166</internalNodes>
      <leafValues>
        -3.5297077894210815e-01 3.8903748989105225e-01</leafValues></_>
    <_>
      <internalNodes>
        0 -1 57155 193593907 -2004742025 -788478977 914766012 679688353
        -1528622853 -8275424 -353498427</internalNodes>
      <leafValues>
        -4.3925336003303528e-01 3.0044555664062500e-01</leafValues></_>
    <_>
      <internalNodes>
        0 -1 44947 -785981502 -41049400 -1992187575 -1082031871
        1505759723 948633835 2020046601 1478525763</internalNodes>
      <leafValues>
        -4.8829251527786255e-01 2.7151703834533691e-01</leafValues></_>
    <_>
      <internalNodes>
        0 -1 63478 -808849924 44760624 -268435467 -819794275 -1899799057
        -273772609 -2057654562 -1911877653</internalNodes>
      <leafValues>
        -3.1323230266571045e-01 4.2947342991828918e-01</leafValues></_>
    <_>
      <internalNodes>
        0 -1 25601 1365602550 2032380896 229177723 -1074987268
        1970298367 -59540226 -156910433 -1110463233</internalNodes>
      <leafValues>
        -3.1657132506370544e-01 4.3490374088287354e-01</leafValues></_>
    <_>
      <internalNodes>
        0 -1 53335 -62198279 -72290240 -67217595 -101076607 -721433115
        998210856 -864979570 -648035893</internalNodes>
      <leafValues>
        -3.1220743060112000e-01 4.5092573761940002e-01</leafValues></_>
    <_>
      <internalNodes>
        0 -1 60440 -1500388111 -65538872 -1719412751 -992161496
        -483661393 -1464039248 -24383631 -925866812</internalNodes>
      <leafValues>
        -3.7997475266456604e-01 3.6980488896369934e-01</leafValues></_>
    <_>
      <internalNodes>
        0 -1 44702 1353074426 -1867470676 -228797928 755321247
        -2136730396 -1130363413 1140918351 234948755</internalNodes>
      <leafValues>
        -5.5361610651016235e-01 2.4707977473735809e-01</leafValues></_>
    <_>
      <internalNodes>
        0 -1 48050 -83951633 1538435683 -1510478096 -201619598
        1585436661 -1058605468 -864559924 -478942205</internalNodes>
      <leafValues>
        -2.8635695576667786e-01 5.0636845827102661e-01</leafValues></_></weakClassifiers></stage4>
</opencv_storage>
