<?xml version="1.0"?>
<opencv_storage>
<stage7>
  <maxWeakCount>18</maxWeakCount>
  <stageThreshold>-1.0047167539596558e+00</stageThreshold>
  <weakClassifiers>
    <_>
      <internalNodes>
        0 -1 55119 -1465135142 -18088450 -1912606864 -1359048776
        -405885699 -810911881 70604592 85380496</internalNodes>
      <leafValues>
        -2.8172042965888977e-01 5.1965254545211792e-01</leafValues></_>
    <_>
      <internalNodes>
        0 -1 56462 -90384907 -184623919 -2828857 -8989371 2131987709
        1870270696 -279589473 -11611570</internalNodes>
      <leafValues>
        -3.1214800477027893e-01 4.0463733673095703e-01</leafValues></_>
    <_>
      <internalNodes>
        0 -1 32162 -266090927 -5168483 -1145295425 1601916479 -189295632
        -117446667 -23814724 -629638662</internalNodes>
      <leafValues>
        -2.6045903563499451e-01 4.3136990070343018e-01</leafValues></_>
    <_>
      <internalNodes>
        0 -1 56757 -2136384039 -572682128 -778860237 -57486992
        -542199818 -102004566 -1722254544 -1721610128</internalNodes>
      <leafValues>
        -3.7292569875717163e-01 2.9813891649246216e-01</leafValues></_>
    <_>
      <internalNodes>
        0 -1 60436 167494861 1232570463 -335642789 -572795667
        -1943292673 2108359882 -1492914685 -1356881910</internalNodes>
      <leafValues>
        -3.1502023339271545e-01 3.8988205790519714e-01</leafValues></_>
    <_>
      <internalNodes>
        0 -1 43997 -1907862489 -1336245133 -1178503841 400299311
        512649916 -1663550336 445693882 -1950824448</internalNodes>
      <leafValues>
        -3.2465931773185730e-01 3.5158360004425049e-01</leafValues></_>
    <_>
      <internalNodes>
        0 -1 62473 -875811331 -354909732 -1585435183 -1980592767
        -203240965 -91725365 1023732698 1091235530</internalNodes>
      <leafValues>
        -3.7799197435379028e-01 3.1361991167068481e-01</leafValues></_>
    <_>
      <internalNodes>
        0 -1 36203 -223459642 -1213258622 528892332 -574671419
        -1156884998 -483585830 1235966745 1871473112</internalNodes>
      <leafValues>
        -4.3447789549827576e-01 2.9888731241226196e-01</leafValues></_>
    <_>
      <internalNodes>
        0 -1 50285 -1416634933 -362502659 -1182657678 1914229066
        449531906 1837287438 1978210501 -689245444</internalNodes>
      <leafValues>
        -4.1654726862907410e-01 2.7136558294296265e-01</leafValues></_>
    <_>
      <internalNodes>
        0 -1 64356 1274013563 -1370993540 -1790895791 -1525311630
        1390580216 975935099 44528275 -1019480877</internalNodes>
      <leafValues>
        -3.4990671277046204e-01 3.3820521831512451e-01</leafValues></_>
    <_>
      <internalNodes>
        0 -1 17252 -1861869040 1373560830 -1386117668 701156590
        419963041 1084198670 1801492739 1502600890</internalNodes>
      <leafValues>
        -4.5472529530525208e-01 2.7879467606544495e-01</leafValues></_>
    <_>
      <internalNodes>
        0 -1 4533 -41252974 1078995364 -1114783342 1267467266 243273136
        -1682308532 780184482 1900347922</internalNodes>
      <leafValues>
        -4.6880903840065002e-01 2.5748476386070251e-01</leafValues></_>
    <_>
      <internalNodes>
        0 -1 57118 607290559 534016838 285623006 501090480 173128110
        -1714186074 1514279344 -1915374267</internalNodes>
      <leafValues>
        -3.9752432703971863e-01 3.0542564392089844e-01</leafValues></_>
    <_>
      <internalNodes>
        0 -1 63227 -191147565 -1110128397 -1825533423 482000921
        -658085265 956461172 -850937621 -1471502221</internalNodes>
      <leafValues>
        -3.4629318118095398e-01 3.5390636324882507e-01</leafValues></_>
    <_>
      <internalNodes>
        0 -1 44663 2013925370 -1111718571 222791536 666958087 -334359671
        -107325953 -2074607224 1977339395</internalNodes>
      <leafValues>
        -3.7751233577728271e-01 3.2107007503509521e-01</leafValues></_>
    <_>
      <internalNodes>
        0 -1 31539 1173926325 815009812 562680599 -1946998638 939585726
        503325334 957387083 169601570</internalNodes>
      <leafValues>
        -4.1263070702552795e-01 2.8665074706077576e-01</leafValues></_>
    <_>
      <internalNodes>
        0 -1 56332 -996160526 -845135241 -1579354381 -134818062
        -208674699 -1836040174 -863851660 -911058762</internalNodes>
      <leafValues>
        -3.5939794778823853e-01 3.4222355484962463e-01</leafValues></_>
    <_>
      <internalNodes>
        0 -1 38567 2018671069 -785086850 -1726908134 1875352967
        -936623696 -1449639232 -262629196 793716827</internalNodes>
      <leafValues>
        -3.4326541423797607e-01 3.5339048504829407e-01</leafValues></_></weakClassifiers></stage7>
</opencv_storage>
