<?xml version="1.0"?>
<opencv_storage>
<stage3>
  <maxWeakCount>13</maxWeakCount>
  <stageThreshold>-1.4498009681701660e+00</stageThreshold>
  <weakClassifiers>
    <_>
      <internalNodes>
        0 -1 40496 -11731454 1510993614 1072187540 -1079181627 -65120776
        -36901812 -983557 -1194525476</internalNodes>
      <leafValues>
        -3.2667997479438782e-01 5.5392485857009888e-01</leafValues></_>
    <_>
      <internalNodes>
        0 -1 46549 -727191554 -171970813 765792003 -1381958910
        1952284138 -1112120116 1983842051 -34748670</internalNodes>
      <leafValues>
        -3.5005223751068115e-01 4.3604320287704468e-01</leafValues></_>
    <_>
      <internalNodes>
        0 -1 61292 -22075461 -537123013 2053947188 -1942444109
        -176351476 -1126416564 -597299748 -464650709</internalNodes>
      <leafValues>
        -3.8264670968055725e-01 3.9406254887580872e-01</leafValues></_>
    <_>
      <internalNodes>
        0 -1 42542 1604842311 1355411791 -850899843 270538680 2144811073
        1883267851 1333663848 -834935158</internalNodes>
      <leafValues>
        -3.7640279531478882e-01 3.9858546853065491e-01</leafValues></_>
    <_>
      <internalNodes>
        0 -1 38646 1348653021 1477982038 252206044 -821413874 1078417628
        -1102182398 -934065078 -853312893</internalNodes>
      <leafValues>
        -4.1147398948669434e-01 3.5457232594490051e-01</leafValues></_>
    <_>
      <internalNodes>
        0 -1 59404 -369304099 -1155990651 -4720321 -142148232 1845222622
        1321760528 -483533377 -1962434550</internalNodes>
      <leafValues>
        -2.9609954357147217e-01 4.7933813929557800e-01</leafValues></_>
    <_>
      <internalNodes>
        0 -1 46915 -779405986 -644886302 -1623306547 -1254776063
        -908600561 1627124927 -103007477 1397847811</internalNodes>
      <leafValues>
        -3.9953559637069702e-01 3.6877664923667908e-01</leafValues></_>
    <_>
      <internalNodes>
        0 -1 6869 -2140148489 312282671 630841851 -2052079783 1223025597
        -903372763 1087729080 606404885</internalNodes>
      <leafValues>
        -4.3634948134422302e-01 3.2513639330863953e-01</leafValues></_>
    <_>
      <internalNodes>
        0 -1 40323 -221380629 -779227377 -1157722445 85085787 1901024765
        -253175956 -86177784 -511705165</internalNodes>
      <leafValues>
        -3.0070120096206665e-01 4.9120238423347473e-01</leafValues></_>
    <_>
      <internalNodes>
        0 -1 29092 -460980265 487005440 2147467263 -68033022 -462366723
        -122227549 -529213444 -131601370</internalNodes>
      <leafValues>
        -3.0335119366645813e-01 4.7931712865829468e-01</leafValues></_>
    <_>
      <internalNodes>
        0 -1 57245 1597114099 2108910627 1072938737 -1783886159
        -20992801 -42590209 -1617743879 -1434405150</internalNodes>
      <leafValues>
        -3.4528663754463196e-01 4.1234982013702393e-01</leafValues></_>
    <_>
      <internalNodes>
        0 -1 23685 -18361538 -83938570 1273498927 -218365969 -776474438
        -34123557 -1360712679 -1410336162</internalNodes>
      <leafValues>
        -3.2602432370185852e-01 4.7378522157669067e-01</leafValues></_>
    <_>
      <internalNodes>
        0 -1 56787 -1983445672 -787246116 -582809159 -566067087
        -641146406 -443543309 -1596450816 -266954288</internalNodes>
      <leafValues>
        -4.1185986995697021e-01 3.3723640441894531e-01</leafValues></_></weakClassifiers></stage3>
</opencv_storage>
