<?xml version="1.0"?>
<opencv_storage>
<stage9>
  <maxWeakCount>20</maxWeakCount>
  <stageThreshold>-1.0943788290023804e+00</stageThreshold>
  <weakClassifiers>
    <_>
      <internalNodes>
        0 -1 44403 965553842 709488359 1034437720 774475725 -38207590
        1022119006 1975930843 -1077019139</internalNodes>
      <leafValues>
        -1.3312034308910370e-01 5.4585152864456177e-01</leafValues></_>
    <_>
      <internalNodes>
        0 -1 64955 -578818760 1558086767 -897632216 -1985115969
        -622775806 -1059015109 -646511488 -908332518</internalNodes>
      <leafValues>
        -3.0268970131874084e-01 3.8597506284713745e-01</leafValues></_>
    <_>
      <internalNodes>
        0 -1 57880 -1903431941 -825842481 -1207844431 -1126774608
        1592238247 -7708565 -373134795 -1338841872</internalNodes>
      <leafValues>
        -4.1269445419311523e-01 2.9111498594284058e-01</leafValues></_>
    <_>
      <internalNodes>
        0 -1 60400 -63181125 1606053823 -1422937417 766492655 -688067349
        -215811980 -51393048 -780152965</internalNodes>
      <leafValues>
        -2.3602665960788727e-01 4.4800958037376404e-01</leafValues></_>
    <_>
      <internalNodes>
        0 -1 26862 1568139796 -40531777 1011374555 2108846015 -473595696
        -7716200 -1546415380 -97334598</internalNodes>
      <leafValues>
        -3.2109746336936951e-01 3.3654034137725830e-01</leafValues></_>
    <_>
      <internalNodes>
        0 -1 38247 2143770434 735171 -1168487396 1345480794 1905602820
        407977000 1507985432 1210821562</internalNodes>
      <leafValues>
        -5.2557253837585449e-01 2.0841902494430542e-01</leafValues></_>
    <_>
      <internalNodes>
        0 -1 48557 -1767158570 -235671348 227231489 -1256069855
        -1789949235 -252509809 1698695979 2113786635</internalNodes>
      <leafValues>
        -3.8439497351646423e-01 2.9371470212936401e-01</leafValues></_>
    <_>
      <internalNodes>
        0 -1 62628 -416332291 1254795882 -16884103 -1453085656
        -285243153 -877680833 -985099653 -280762102</internalNodes>
      <leafValues>
        -2.9630193114280701e-01 3.6603996157646179e-01</leafValues></_>
    <_>
      <internalNodes>
        0 -1 10182 71666318 -153026375 -2083805347 730419772 1949378600
        -1316648694 -1692953254 1074129160</internalNodes>
      <leafValues>
        -4.3527099490165710e-01 2.7619957923889160e-01</leafValues></_>
    <_>
      <internalNodes>
        0 -1 48518 1574813547 678719794 1921089990 -1472804498
        -360240377 -884801445 -489097631 -365102256</internalNodes>
      <leafValues>
        -4.0502005815505981e-01 2.6245760917663574e-01</leafValues></_>
    <_>
      <internalNodes>
        0 -1 57811 -270084767 -56102663 -1122361 -67790517 -1036555061
        217533682 689138947 -282684790</internalNodes>
      <leafValues>
        -3.1062203645706177e-01 3.5202267765998840e-01</leafValues></_>
    <_>
      <internalNodes>
        0 -1 64371 -2054164581 -1441863594 269572402 -825086 247056568
        148035744 -2000058762 -951854089</internalNodes>
      <leafValues>
        -3.5299843549728394e-01 3.0988010764122009e-01</leafValues></_>
    <_>
      <internalNodes>
        0 -1 2054 -158173389 -188178306 458428675 94379324 -1317013581
        -177171453 2063641395 554508635</internalNodes>
      <leafValues>
        -3.7013542652130127e-01 3.1165826320648193e-01</leafValues></_>
    <_>
      <internalNodes>
        0 -1 59007 -122706183 -537280517 -201460048 -2005946633
        -1810418615 -330963679 -1266811667 -1415053705</internalNodes>
      <leafValues>
        -2.5623336434364319e-01 4.3402376770973206e-01</leafValues></_>
    <_>
      <internalNodes>
        0 -1 39232 -1051003261 -1987704639 -921599846 417685195
        1939580039 536912849 1222989043 940672999</internalNodes>
      <leafValues>
        -4.1045659780502319e-01 2.6431080698966980e-01</leafValues></_>
    <_>
      <internalNodes>
        0 -1 64299 -1398653475 673843204 554029903 -1223585406 182061243
        -611713009 -1573723033 -1154784678</internalNodes>
      <leafValues>
        -3.4138679504394531e-01 3.2707265019416809e-01</leafValues></_>
    <_>
      <internalNodes>
        0 -1 33568 1360479828 990910797 -754673132 1027117321
        -1446039481 -113241970 -1387284340 674987679</internalNodes>
      <leafValues>
        -4.0337762236595154e-01 2.9985117912292480e-01</leafValues></_>
    <_>
      <internalNodes>
        0 -1 35873 -1000431536 -268234018 2139412990 -924877218
        -49024776 211746992 -1696556979 1654916104</internalNodes>
      <leafValues>
        -5.5506211519241333e-01 2.1035572886466980e-01</leafValues></_>
    <_>
      <internalNodes>
        0 -1 23189 178310672 2048909724 727983825 -1362583143 -830289569
        2067341503 -1319624087 919592987</internalNodes>
      <leafValues>
        -4.7694739699363708e-01 2.3332050442695618e-01</leafValues></_>
    <_>
      <internalNodes>
        0 -1 51861 -157286749 1781255171 -237972157 -1329317128
        1085168247 1532074088 1889253937 -329813188</internalNodes>
      <leafValues>
        -3.5943064093589783e-01 3.2792845368385315e-01</leafValues></_></weakClassifiers></stage9>
</opencv_storage>
