<?xml version="1.0"?>
<opencv_storage>
<stage14>
  <maxWeakCount>22</maxWeakCount>
  <stageThreshold>-1.0334415435791016e+00</stageThreshold>
  <weakClassifiers>
    <_>
      <internalNodes>
        0 -1 50697 -25273780 -11014591 -50561331 1014199569 -17113202
        -436207642 -285701045 1949321738</internalNodes>
      <leafValues>
        -6.4000003039836884e-02 5.3200000524520874e-01</leafValues></_>
    <_>
      <internalNodes>
        0 -1 57718 -56741893 -38098945 1035439808 637167609 -1264578783
        -722536663 -721975396 -1248722953</internalNodes>
      <leafValues>
        -2.7914220094680786e-01 3.3954763412475586e-01</leafValues></_>
    <_>
      <internalNodes>
        0 -1 54937 -134746431 1926988965 -23005798 -538913941 -302043736
        -54536848 -1500556881 -34416673</internalNodes>
      <leafValues>
        -2.4015568196773529e-01 3.7706589698791504e-01</leafValues></_>
    <_>
      <internalNodes>
        0 -1 23162 1439036789 16891874 -109182981 800258362 -178940417
        -136495118 1230862299 -1997826946</internalNodes>
      <leafValues>
        -2.7978363633155823e-01 3.3141109347343445e-01</leafValues></_>
    <_>
      <internalNodes>
        0 -1 46459 1344993278 1519051087 -1600269084 437383355 269291326
        -532647221 -528480109 1030464419</internalNodes>
      <leafValues>
        -3.9863026142120361e-01 2.1185056865215302e-01</leafValues></_>
    <_>
      <internalNodes>
        0 -1 52088 -1752433669 -1427374231 -2091667021 -1337812494
        -1173206923 1085819051 688072753 -420322392</internalNodes>
      <leafValues>
        -3.4087732434272766e-01 2.7061370015144348e-01</leafValues></_>
    <_>
      <internalNodes>
        0 -1 51024 1863230999 522715257 1073778358 2047152023
        -1680936481 584745969 75957751 -1612332571</internalNodes>
      <leafValues>
        -3.0604001879692078e-01 3.1921803951263428e-01</leafValues></_>
    <_>
      <internalNodes>
        0 -1 63184 -1598658357 2123849819 -1837084330 406737651
        -351491809 -95608799 -1400198902 135455331</internalNodes>
      <leafValues>
        -3.8071197271347046e-01 2.7037072181701660e-01</leafValues></_>
    <_>
      <internalNodes>
        0 -1 48566 -1263973264 -5518865 708022017 -308157527 -730844165
        569303430 1175916834 2099369985</internalNodes>
      <leafValues>
        -4.4175249338150024e-01 2.0796047151088715e-01</leafValues></_>
    <_>
      <internalNodes>
        0 -1 65017 753443321 1311408536 1366495533 495489164 -1410663973
        -1287107837 218147066 -1372928214</internalNodes>
      <leafValues>
        -3.6781394481658936e-01 2.4890887737274170e-01</leafValues></_>
    <_>
      <internalNodes>
        0 -1 14356 -897536110 583452638 -481605871 -1496141090
        -1421963359 1560774824 -1605883317 1373354750</internalNodes>
      <leafValues>
        -4.1857621073722839e-01 2.3040045797824860e-01</leafValues></_>
    <_>
      <internalNodes>
        0 -1 36076 2004352981 928374484 -33752141 -1087685361 2035291469
        -121096485 -185263501 779859643</internalNodes>
      <leafValues>
        -2.3263108730316162e-01 4.2622554302215576e-01</leafValues></_>
    <_>
      <internalNodes>
        0 -1 58379 583996775 1171008966 170887900 -532901808 9375430
        1263044640 2113943 869333247</internalNodes>
      <leafValues>
        -4.4367998838424683e-01 2.1237395703792572e-01</leafValues></_>
    <_>
      <internalNodes>
        0 -1 37083 2005737749 410267909 1041505886 -1122607187
        1539844591 -94758243 2074090239 -1475319512</internalNodes>
      <leafValues>
        -3.1168216466903687e-01 3.1293308734893799e-01</leafValues></_>
    <_>
      <internalNodes>
        0 -1 37560 -1139649268 -199329245 335477439 -142873741
        2129667210 -923548120 -2145159274 -711772131</internalNodes>
      <leafValues>
        -2.8048491477966309e-01 3.4867912530899048e-01</leafValues></_>
    <_>
      <internalNodes>
        0 -1 55260 -1769220391 1699562375 -662449869 -362113198
        -332877343 25266713 1417678704 -260265708</internalNodes>
      <leafValues>
        -4.0179046988487244e-01 2.4232853949069977e-01</leafValues></_>
    <_>
      <internalNodes>
        0 -1 22507 285401856 -1706915724 12863640 600655592 391036528
        805450784 470470152 -519147278</internalNodes>
      <leafValues>
        -5.7390761375427246e-01 1.8740150332450867e-01</leafValues></_>
    <_>
      <internalNodes>
        0 -1 44299 1937669479 317605376 1548111238 -786533102 1392150644
        268632066 1744959116 1076083575</internalNodes>
      <leafValues>
        -4.0184184908866882e-01 2.4644185602664948e-01</leafValues></_>
    <_>
      <internalNodes>
        0 -1 37518 2146238636 -467431676 1032439085 -1595649528
        -1534600465 -1455423296 -742480600 1289752495</internalNodes>
      <leafValues>
        -4.3072202801704407e-01 2.4628983438014984e-01</leafValues></_>
    <_>
      <internalNodes>
        0 -1 50120 -383204293 -1616320127 -1348149307 2112121603
        1960017034 -788306876 1466254605 -279978037</internalNodes>
      <leafValues>
        -2.7953162789344788e-01 3.8190910220146179e-01</leafValues></_>
    <_>
      <internalNodes>
        0 -1 8379 -46661941 -1951794988 1742895734 -966273477 1286786779
        1660190658 205309155 -721435213</internalNodes>
      <leafValues>
        -1.9412331283092499e-01 4.7946491837501526e-01</leafValues></_>
    <_>
      <internalNodes>
        0 -1 43183 1890047613 2130708272 -1962968027 -1618651923
        -1873201560 953426240 1014404782 1327223175</internalNodes>
      <leafValues>
        -2.4823841452598572e-01 3.9579430222511292e-01</leafValues></_></weakClassifiers></stage14>
</opencv_storage>
