<?xml version="1.0"?>
<opencv_storage>
<stage20>
  <maxWeakCount>22</maxWeakCount>
  <stageThreshold>-8.8327401876449585e-01</stageThreshold>
  <weakClassifiers>
    <_>
      <internalNodes>
        0 -1 36042 -1104270334 -1507696062 246306631 -286436115
        1467710930 -537960528 1364479300 -554953532</internalNodes>
      <leafValues>
        -1.7620481550693512e-01 4.7816780209541321e-01</leafValues></_>
    <_>
      <internalNodes>
        0 -1 31748 -814773487 2133453355 -1343668900 -190057285
        -589692995 -2380825 1927535569 -131402372</internalNodes>
      <leafValues>
        -2.5246080756187439e-01 3.7051421403884888e-01</leafValues></_>
    <_>
      <internalNodes>
        0 -1 65016 -875592231 719587734 -788286055 -1471245492
        -636430113 -1427518301 -922553350 -819805254</internalNodes>
      <leafValues>
        -3.0098906159400940e-01 3.1079676747322083e-01</leafValues></_>
    <_>
      <internalNodes>
        0 -1 54932 -290558469 -55803925 -71831951 -739975554 -823200034
        -898859154 1433513976 -470564970</internalNodes>
      <leafValues>
        -2.3628510534763336e-01 3.2078173756599426e-01</leafValues></_>
    <_>
      <internalNodes>
        0 -1 62516 -1825141444 -575370883 -1811804127 -580949157
        -962949582 815376719 1619077634 4433675</internalNodes>
      <leafValues>
        -3.9189296960830688e-01 1.9286240637302399e-01</leafValues></_>
    <_>
      <internalNodes>
        0 -1 60798 227768327 260756372 -1844437648 -539164069 671722401
        1099989001 2047525767 -956434405</internalNodes>
      <leafValues>
        -2.8894928097724915e-01 2.6752024888992310e-01</leafValues></_>
    <_>
      <internalNodes>
        0 -1 51862 -1500874773 1087305918 -519450029 -1447916331
        2074084867 -653246215 -267894319 -940436916</internalNodes>
      <leafValues>
        -3.6791241168975830e-01 2.0541261136531830e-01</leafValues></_>
    <_>
      <internalNodes>
        0 -1 52062 -778482472 -1327636015 -1881291757 -451028647
        -988135180 -1176043466 1728944936 -446770600</internalNodes>
      <leafValues>
        -2.9614967107772827e-01 2.7402305603027344e-01</leafValues></_>
    <_>
      <internalNodes>
        0 -1 33304 906364932 603990338 -163296683 738307603 1381187980
        1599488 1765277722 741696267</internalNodes>
      <leafValues>
        -5.9821611642837524e-01 1.4586752653121948e-01</leafValues></_>
    <_>
      <internalNodes>
        0 -1 39088 -941630196 -1042336494 -797113114 1072923925
        -653541133 47226497 -391596421 1555555287</internalNodes>
      <leafValues>
        -2.8733131289482117e-01 2.9438006877899170e-01</leafValues></_>
    <_>
      <internalNodes>
        0 -1 64166 -1457786883 -554033217 258977725 -1683296780
        -25961031 -1098907649 1228347647 -311431445</internalNodes>
      <leafValues>
        -1.9481165707111359e-01 4.2717161774635315e-01</leafValues></_>
    <_>
      <internalNodes>
        0 -1 28581 1098124580 709334349 324166960 -1965533169
        -1048041020 -263589717 -1048267648 243281953</internalNodes>
      <leafValues>
        -4.9395358562469482e-01 1.8246211111545563e-01</leafValues></_>
    <_>
      <internalNodes>
        0 -1 58380 112899343 2004239270 1942158943 1158365250 327469302
        2021853058 1544117231 95804116</internalNodes>
      <leafValues>
        -3.5635158419609070e-01 2.3830106854438782e-01</leafValues></_>
    <_>
      <internalNodes>
        0 -1 20219 2015827894 2132715448 -2014933879 324630669
        -1840174315 -1697764617 -481684705 968794377</internalNodes>
      <leafValues>
        -2.9025557637214661e-01 2.8761395812034607e-01</leafValues></_>
    <_>
      <internalNodes>
        0 -1 46962 -157115894 819974342 -1140449220 -1256095186
        1661145400 -795246418 -1349052085 536872962</internalNodes>
      <leafValues>
        -4.5145213603973389e-01 1.9960787892341614e-01</leafValues></_>
    <_>
      <internalNodes>
        0 -1 44922 -196692162 2071970414 93689037 -519907803 1351703432
        1891188922 -753858129 137996938</internalNodes>
      <leafValues>
        -3.1518900394439697e-01 2.7272570133209229e-01</leafValues></_>
    <_>
      <internalNodes>
        0 -1 58823 -257732879 1969094848 -779791881 -1794088423
        -200185688 -595016960 1235153296 143663591</internalNodes>
      <leafValues>
        -3.8236707448959351e-01 2.3405300080776215e-01</leafValues></_>
    <_>
      <internalNodes>
        0 -1 59492 -1596763004 1787019480 1694763279 612028677
        -1466427118 -1304207253 -1994728658 2101360</internalNodes>
      <leafValues>
        -5.3945505619049072e-01 1.8007114529609680e-01</leafValues></_>
    <_>
      <internalNodes>
        0 -1 7671 -1861123420 929009940 -468121622 1360232644 1113711289
        733176566 805671669 2044971677</internalNodes>
      <leafValues>
        -3.5112366080284119e-01 2.5189691781997681e-01</leafValues></_>
    <_>
      <internalNodes>
        0 -1 48300 -46691093 -550924785 -1087756379 -274604083
        -302717526 -303858324 -737298971 -537971315</internalNodes>
      <leafValues>
        -1.9864808022975922e-01 4.5442077517509460e-01</leafValues></_>
    <_>
      <internalNodes>
        0 -1 56435 -397021474 1317830784 -933971312 611451918
        -2111047264 -392560070 -534476431 1143198167</internalNodes>
      <leafValues>
        -4.5940640568733215e-01 2.0192837715148926e-01</leafValues></_>
    <_>
      <internalNodes>
        0 -1 39796 -1925176032 -622231187 -1581176675 2106399049
        749445656 144861218 302498315 2027885560</internalNodes>
      <leafValues>
        -4.3636840581893921e-01 2.1048164367675781e-01</leafValues></_></weakClassifiers></stage20>
</opencv_storage>
