<?xml version="1.0"?>
<opencv_storage>
<stage16>
  <maxWeakCount>23</maxWeakCount>
  <stageThreshold>-8.1191599369049072e-01</stageThreshold>
  <weakClassifiers>
    <_>
      <internalNodes>
        0 -1 55319 -17608228 2126771777 2147397213 -755698685 -75554
        -1419771913 -100732081 -1494059422</internalNodes>
      <leafValues>
        -3.1208790838718414e-02 5.5597317218780518e-01</leafValues></_>
    <_>
      <internalNodes>
        0 -1 21009 -839988387 -22571 -1409656740 -94220461 -1123071419
        -1075981219 1834983416 -16057446</internalNodes>
      <leafValues>
        -2.3348718881607056e-01 3.8402152061462402e-01</leafValues></_>
    <_>
      <internalNodes>
        0 -1 57747 -1364471813 -21005592 -1074073872 -205124 -814813511
        -847382915 79048377 -2013856521</internalNodes>
      <leafValues>
        -2.7653560042381287e-01 3.3707505464553833e-01</leafValues></_>
    <_>
      <internalNodes>
        0 -1 64112 -625244935 -1870886721 918470300 229484393 -59007635
        -304341636 -1460404292 -589451649</internalNodes>
      <leafValues>
        -2.3874145746231079e-01 3.4703189134597778e-01</leafValues></_>
    <_>
      <internalNodes>
        0 -1 31015 1292642978 1918207164 -1794986407 713894033
        1895853979 1232743354 -466876327 66846233</internalNodes>
      <leafValues>
        -4.4825738668441772e-01 1.7143529653549194e-01</leafValues></_>
    <_>
      <internalNodes>
        0 -1 55218 -1366734340 -1260527401 -1752135373 -602815432
        -1018756299 -377036593 -1365681596 1095680304</internalNodes>
      <leafValues>
        -4.0384909510612488e-01 2.1533194184303284e-01</leafValues></_>
    <_>
      <internalNodes>
        0 -1 56567 -85219859 -39069449 -17367577 -144841660 -432101743
        754207227 -2014738878 -8413558</internalNodes>
      <leafValues>
        -2.6069286465644836e-01 3.5258692502975464e-01</leafValues></_>
    <_>
      <internalNodes>
        0 -1 11281 -1548628797 -1996308366 -805206603 -808647211
        1771303073 1222314126 1414537381 1430733505</internalNodes>
      <leafValues>
        -3.4275349974632263e-01 2.6791650056838989e-01</leafValues></_>
    <_>
      <internalNodes>
        0 -1 43764 -1029028903 -672536815 716912463 2009274971
        -473118981 -1144277588 1598852783 2005201193</internalNodes>
      <leafValues>
        -2.8669449687004089e-01 3.2074457406997681e-01</leafValues></_>
    <_>
      <internalNodes>
        0 -1 46539 1487598298 1235981303 636027393 1034014475 1490866931
        -1264565977 1647247507 1183412664</internalNodes>
      <leafValues>
        -3.8261359930038452e-01 2.3876029253005981e-01</leafValues></_>
    <_>
      <internalNodes>
        0 -1 62676 -1917297425 36569374 9003407 2119311619 260825342
        714969099 -1701436444 -1893013538</internalNodes>
      <leafValues>
        -3.0387902259826660e-01 2.9198876023292542e-01</leafValues></_>
    <_>
      <internalNodes>
        0 -1 40819 1145071485 -1223625963 1343176755 1835355040
        -935306792 -1097465853 -1471313592 210333315</internalNodes>
      <leafValues>
        -3.6543029546737671e-01 2.3937408626079559e-01</leafValues></_>
    <_>
      <internalNodes>
        0 -1 33387 -67676924 -589783367 2080276228 1362165754
        -1076035712 -1667219495 -1083245846 -540142629</internalNodes>
      <leafValues>
        -2.7136588096618652e-01 3.4660881757736206e-01</leafValues></_>
    <_>
      <internalNodes>
        0 -1 48326 -16783926 1115906398 -217506421 -536809122 1149382912
        -819749759 1217001885 553571294</internalNodes>
      <leafValues>
        -3.6193108558654785e-01 2.6250955462455750e-01</leafValues></_>
    <_>
      <internalNodes>
        0 -1 62691 -2147420613 -2046331769 1762095583 -572538113
        -1702781025 963228655 107233376 108087760</internalNodes>
      <leafValues>
        -4.3719270825386047e-01 2.1252320706844330e-01</leafValues></_>
    <_>
      <internalNodes>
        0 -1 39217 1733742449 -1068495127 498527473 -575537427
        -1824139856 1856569180 -1305096303 -50496118</internalNodes>
      <leafValues>
        -2.3837134242057800e-01 3.8069877028465271e-01</leafValues></_>
    <_>
      <internalNodes>
        0 -1 65102 1240163724 172654738 1099775030 -1420191117
        -867967811 261685467 -2111753950 1075568318</internalNodes>
      <leafValues>
        -4.4123190641403198e-01 2.1821673214435577e-01</leafValues></_>
    <_>
      <internalNodes>
        0 -1 23844 -549409806 -639024550 1935230888 -2085964809
        -1450594157 -339079989 584409688 1124352070</internalNodes>
      <leafValues>
        -4.1728967428207397e-01 2.2990107536315918e-01</leafValues></_>
    <_>
      <internalNodes>
        0 -1 59348 -853381891 -1938088732 -2011833505 -599046910
        537442804 -1162213238 1665380177 -1688681536</internalNodes>
      <leafValues>
        -3.3675375580787659e-01 2.7270960807800293e-01</leafValues></_>
    <_>
      <internalNodes>
        0 -1 38607 46164806 1437258422 408912206 -1880241245 748886323
        833167536 310577881 1682471041</internalNodes>
      <leafValues>
        -4.5776653289794922e-01 2.1139924228191376e-01</leafValues></_>
    <_>
      <internalNodes>
        0 -1 53296 -20986897 -1888950699 2129444563 -558713102
        -285907465 -1627626125 -118045444 1833172606</internalNodes>
      <leafValues>
        -2.7331805229187012e-01 3.5033071041107178e-01</leafValues></_>
    <_>
      <internalNodes>
        0 -1 40324 1374550318 1892627374 -673844486 -1324224125
        293688962 -199491550 -657453621 477989555</internalNodes>
      <leafValues>
        -3.3420994877815247e-01 2.7582010626792908e-01</leafValues></_>
    <_>
      <internalNodes>
        0 -1 44348 -859102848 1663042176 -153897851 1617481347 911607335
        -1398144926 1217928489 785241071</internalNodes>
      <leafValues>
        -4.3588536977767944e-01 2.1313537657260895e-01</leafValues></_></weakClassifiers></stage16>
</opencv_storage>
