<?xml version="1.0"?>
<opencv_storage>
<stage17>
  <maxWeakCount>22</maxWeakCount>
  <stageThreshold>-1.1517393589019775e+00</stageThreshold>
  <weakClassifiers>
    <_>
      <internalNodes>
        0 -1 44350 -553664320 1962156036 500106476 -857914164 1373557968
        -278937352 1609833612 -856913720</internalNodes>
      <leafValues>
        -2.1370309591293335e-01 4.7381651401519775e-01</leafValues></_>
    <_>
      <internalNodes>
        0 -1 55261 -553657089 1728052213 -49869 -1138065871 -16797743
        -51150977 -562610372 -51331816</internalNodes>
      <leafValues>
        -2.3198848962783813e-01 4.0068081021308899e-01</leafValues></_>
    <_>
      <internalNodes>
        0 -1 53982 -582282761 663195761 -2008382226 577537667 -576798710
        51611052 -10551517 54710515</internalNodes>
      <leafValues>
        -3.2652878761291504e-01 2.5386625528335571e-01</leafValues></_>
    <_>
      <internalNodes>
        0 -1 29160 1400337279 458592055 -266465 -273928473 539316623
        -13224649 207385851 -319327177</internalNodes>
      <leafValues>
        -2.1111594140529633e-01 4.1126304864883423e-01</leafValues></_>
    <_>
      <internalNodes>
        0 -1 32542 6472189 -1223146579 558420927 -1090022178 240419749
        -1096799743 1104360953 17973280</internalNodes>
      <leafValues>
        -3.9896780252456665e-01 2.1608525514602661e-01</leafValues></_>
    <_>
      <internalNodes>
        0 -1 67537 -288370053 1616331206 -921695401 1650885246 997386613
        176435464 1285674804 -470046241</internalNodes>
      <leafValues>
        -3.2468003034591675e-01 2.6157009601593018e-01</leafValues></_>
    <_>
      <internalNodes>
        0 -1 23380 2051288576 1003344671 1830093973 -1407783795
        1112297976 113682910 -469629701 -274999121</internalNodes>
      <leafValues>
        -3.4248453378677368e-01 2.4614697694778442e-01</leafValues></_>
    <_>
      <internalNodes>
        0 -1 63500 660655580 949637914 -1069439729 -1291593454 168367103
        -634673711 307497215 -1171599858</internalNodes>
      <leafValues>
        -3.5616233944892883e-01 2.4076043069362640e-01</leafValues></_>
    <_>
      <internalNodes>
        0 -1 54932 1781454331 -4554757 -357045008 -706064772 -563087493
        -815370387 1148440061 -1753031106</internalNodes>
      <leafValues>
        -2.5635498762130737e-01 3.4173473715782166e-01</leafValues></_>
    <_>
      <internalNodes>
        0 -1 56194 2138109249 -168176159 1869642827 -394291072
        1685708639 -184583046 -330047491 -109581941</internalNodes>
      <leafValues>
        -2.7073082327842712e-01 3.3961915969848633e-01</leafValues></_>
    <_>
      <internalNodes>
        0 -1 15579 84607819 2050675330 667029538 654391300 415301707
        820027649 717890120 2072770106</internalNodes>
      <leafValues>
        -3.6144092679023743e-01 2.5970789790153503e-01</leafValues></_>
    <_>
      <internalNodes>
        0 -1 43023 1715897471 1576157470 1396790544 -821739256
        1080688786 -1173331673 -1447486978 688636454</internalNodes>
      <leafValues>
        -3.0340653657913208e-01 2.9419776797294617e-01</leafValues></_>
    <_>
      <internalNodes>
        0 -1 32112 -387476833 993701423 637177781 -1076654081
        -1520922415 -50406243 2003877804 -327749</internalNodes>
      <leafValues>
        -1.9399774074554443e-01 4.7760021686553955e-01</leafValues></_>
    <_>
      <internalNodes>
        0 -1 1994 -616171845 1133575080 548829723 1503127100 1379126743
        826140305 643087426 -1051199841</internalNodes>
      <leafValues>
        -2.1511454880237579e-01 4.0454375743865967e-01</leafValues></_>
    <_>
      <internalNodes>
        0 -1 60427 -1504590371 -1902624504 -602966521 -268825215
        1351030463 315230375 -838385035 84551392</internalNodes>
      <leafValues>
        -4.2873829603195190e-01 2.1590489149093628e-01</leafValues></_>
    <_>
      <internalNodes>
        0 -1 38056 1297569060 1085050704 -1073709987 1082692636
        -1977324779 1142100112 -2004707140 3359312</internalNodes>
      <leafValues>
        -5.1266610622406006e-01 1.8755178153514862e-01</leafValues></_>
    <_>
      <internalNodes>
        0 -1 12323 1929370575 1930896671 1928969083 845298977 -9793472
        -1187743146 -491903464 -314604281</internalNodes>
      <leafValues>
        -2.7081775665283203e-01 3.6441364884376526e-01</leafValues></_>
    <_>
      <internalNodes>
        0 -1 58360 -1483035869 1925743312 -72946818 860732096 121634292
        380022642 889008635 -1244295177</internalNodes>
      <leafValues>
        -2.9654407501220703e-01 3.4744960069656372e-01</leafValues></_>
    <_>
      <internalNodes>
        0 -1 59336 -1542845047 -648466947 -78084 -1847809 1457491621
        -1342268035 219491586 -763394261</internalNodes>
      <leafValues>
        -2.6865917444229126e-01 3.5364460945129395e-01</leafValues></_>
    <_>
      <internalNodes>
        0 -1 54736 -165269781 -1213566996 -269566109 1830894192
        -559241220 -1219756052 -454703646 -1034760549</internalNodes>
      <leafValues>
        -2.8327324986457825e-01 3.4434846043586731e-01</leafValues></_>
    <_>
      <internalNodes>
        0 -1 53492 -887953526 -757688946 -1472082863 831704312 -54378943
        1115818265 -2067380203 930794136</internalNodes>
      <leafValues>
        -4.3378934264183044e-01 2.4333798885345459e-01</leafValues></_>
    <_>
      <internalNodes>
        0 -1 46230 -86282848 -1188663513 1909493818 -892256654 718019043
        545532032 312990905 -1043910976</internalNodes>
      <leafValues>
        -3.6904793977737427e-01 2.6222652196884155e-01</leafValues></_></weakClassifiers></stage17>
</opencv_storage>
