<?xml version="1.0"?>
<opencv_storage>
<stage10>
  <maxWeakCount>21</maxWeakCount>
  <stageThreshold>-9.6770429611206055e-01</stageThreshold>
  <weakClassifiers>
    <_>
      <internalNodes>
        0 -1 56535 -1366306821 -827654160 -16913133 -1124293396
        1995798774 -622601 1593773173 -529336940</internalNodes>
      <leafValues>
        -9.6342094242572784e-02 5.3880268335342407e-01</leafValues></_>
    <_>
      <internalNodes>
        0 -1 55121 -597440551 -29364598 -1091875071 -73983 1694156235
        -302063727 -1351129653 -746684557</internalNodes>
      <leafValues>
        -2.4941983819007874e-01 4.0788495540618896e-01</leafValues></_>
    <_>
      <internalNodes>
        0 -1 60499 -269563395 -136625779 2074467627 -529178 -1920210177
        580552539 -519121110 -955809782</internalNodes>
      <leafValues>
        -2.7459388971328735e-01 3.8122734427452087e-01</leafValues></_>
    <_>
      <internalNodes>
        0 -1 14902 -71699037 -251339862 1508118335 -777387506 -608456773
        -131009553 -369888470 -538199510</internalNodes>
      <leafValues>
        -2.5468447804450989e-01 3.8649341464042664e-01</leafValues></_>
    <_>
      <internalNodes>
        0 -1 46436 -86025210 38031638 1367739237 -923486634 691706640
        1243193403 -1794679684 -1028935622</internalNodes>
      <leafValues>
        -4.3054604530334473e-01 2.1623513102531433e-01</leafValues></_>
    <_>
      <internalNodes>
        0 -1 52978 -542487821 1574911777 504569161 1341122487 98441021
        -1880211525 1067697595 256470459</internalNodes>
      <leafValues>
        -2.7795490622520447e-01 3.6748486757278442e-01</leafValues></_>
    <_>
      <internalNodes>
        0 -1 67270 -466637513 -361795921 1660567094 -228438786 -50415857
        -989954470 -738216604 -84165894</internalNodes>
      <leafValues>
        -3.0552616715431213e-01 3.4221306443214417e-01</leafValues></_>
    <_>
      <internalNodes>
        0 -1 32307 -261623297 972431922 1051986303 1071754040 684415467
        -1112215919 207962330 -67506456</internalNodes>
      <leafValues>
        -2.1048256754875183e-01 4.7774517536163330e-01</leafValues></_>
    <_>
      <internalNodes>
        0 -1 3513 -1602811223 -1722307433 34992629 -280603568 1414602891
        -1200676694 -947882790 1095966784</internalNodes>
      <leafValues>
        -3.6919155716896057e-01 2.8528618812561035e-01</leafValues></_>
    <_>
      <internalNodes>
        0 -1 29351 -1695039091 1563640897 -1073276641 532410733
        537897633 -288160316 814563461 -84914112</internalNodes>
      <leafValues>
        -3.2184246182441711e-01 3.3954137563705444e-01</leafValues></_>
    <_>
      <internalNodes>
        0 -1 40164 16904878 -267271953 633851635 -150879103 1498452941
        -1744239448 -658273173 -605339415</internalNodes>
      <leafValues>
        -3.2673838734626770e-01 3.2456636428833008e-01</leafValues></_>
    <_>
      <internalNodes>
        0 -1 56386 -835257345 -2046234047 -905382413 429325278
        -1264129173 -969363437 -2080197840 -466434826</internalNodes>
      <leafValues>
        -3.4216096997261047e-01 3.2929605245590210e-01</leafValues></_>
    <_>
      <internalNodes>
        0 -1 59430 1623223805 209756557 1497466779 -1934163631
        -1143410730 -1170699665 -1693516806 21977820</internalNodes>
      <leafValues>
        -3.6397218704223633e-01 3.3640661835670471e-01</leafValues></_>
    <_>
      <internalNodes>
        0 -1 62548 -144730659 -1844115299 969103768 -774258481
        -534804901 -1448435301 683876864 1081584539</internalNodes>
      <leafValues>
        -3.2951149344444275e-01 3.3399164676666260e-01</leafValues></_>
    <_>
      <internalNodes>
        0 -1 61562 -2035507816 818995263 1610838279 -1257017055
        265232090 1817418270 268960163 -2045081598</internalNodes>
      <leafValues>
        -4.3548035621643066e-01 2.5858563184738159e-01</leafValues></_>
    <_>
      <internalNodes>
        0 -1 31369 1920466424 910942940 2115188155 386764301 1373992421
        -1161607040 -1543321349 2142073883</internalNodes>
      <leafValues>
        -3.2691079378128052e-01 3.3662292361259460e-01</leafValues></_>
    <_>
      <internalNodes>
        0 -1 30915 617492354 1317837550 -2065250205 1675487225 298417532
        730571002 730113576 1088139385</internalNodes>
      <leafValues>
        -4.6539524197578430e-01 2.3683740198612213e-01</leafValues></_>
    <_>
      <internalNodes>
        0 -1 52198 -87927076 -195301283 1678009377 -1908744135
        1944553519 1621854771 848169855 -2114845182</internalNodes>
      <leafValues>
        -3.8861936330795288e-01 2.9317992925643921e-01</leafValues></_>
    <_>
      <internalNodes>
        0 -1 55217 -1801730341 -587882244 -934028176 -1541750120
        -1073671488 1636163779 -750184172 1632814760</internalNodes>
      <leafValues>
        -4.4625544548034668e-01 2.5879535079002380e-01</leafValues></_>
    <_>
      <internalNodes>
        0 -1 60731 -2067616841 -1076395899 223957979 -686498159 5356170
        -7487179 167986886 -1747458515</internalNodes>
      <leafValues>
        -3.3473590016365051e-01 3.4932723641395569e-01</leafValues></_>
    <_>
      <internalNodes>
        0 -1 61211 -191405925 1423909330 2014840114 475006317 1649521483
        -300709536 -2122232866 1417077354</internalNodes>
      <leafValues>
        -3.8244593143463135e-01 3.0303850769996643e-01</leafValues></_></weakClassifiers></stage10>
</opencv_storage>
