<?xml version="1.0"?>
<opencv_storage>
<stage21>
  <maxWeakCount>26</maxWeakCount>
  <stageThreshold>-9.0253102779388428e-01</stageThreshold>
  <weakClassifiers>
    <_>
      <internalNodes>
        0 -1 29338 -276838065 2145469075 536296959 -202748553 -831115915
        -16914435 -581442579 -92614504</internalNodes>
      <leafValues>
        7.6824583113193512e-02 6.1196106672286987e-01</leafValues></_>
    <_>
      <internalNodes>
        0 -1 64237 -1885788707 1588518718 -5374339 -1179980102
        -1798572833 1066114485 -278724945 -284537090</internalNodes>
      <leafValues>
        -2.4257008731365204e-01 3.3227589726448059e-01</leafValues></_>
    <_>
      <internalNodes>
        0 -1 46618 -508829953 1908330111 782221091 -1242432765
        -1006170394 -571568195 2008960770 -39913709</internalNodes>
      <leafValues>
        -2.2070695459842682e-01 3.4481248259544373e-01</leafValues></_>
    <_>
      <internalNodes>
        0 -1 60027 -1095273485 2056769731 23380176 -703401097
        -1878569656 -57098168 -1650557698 -1405704185</internalNodes>
      <leafValues>
        -3.4331828355789185e-01 2.1423792839050293e-01</leafValues></_>
    <_>
      <internalNodes>
        0 -1 42859 285905790 1977874666 463472332 -1918508763 698589739
        2025564858 835649807 541903362</internalNodes>
      <leafValues>
        -3.8477867841720581e-01 2.1084819734096527e-01</leafValues></_>
    <_>
      <internalNodes>
        0 -1 45865 -2071457408 -244166351 352817050 2144339413 176779505
        1822113833 1003764990 150996012</internalNodes>
      <leafValues>
        -4.3556278944015503e-01 1.7140562832355499e-01</leafValues></_>
    <_>
      <internalNodes>
        0 -1 56717 42073049 -327303015 -1055075312 -29130688 2041086900
        834831544 -889040312 -2057543240</internalNodes>
      <leafValues>
        -3.2229351997375488e-01 2.4634540081024170e-01</leafValues></_>
    <_>
      <internalNodes>
        0 -1 58297 1709885119 2003970978 801077975 -546049 168487566
        1332923452 1744093890 -1611929089</internalNodes>
      <leafValues>
        -2.2470246255397797e-01 3.5835584998130798e-01</leafValues></_>
    <_>
      <internalNodes>
        0 -1 38089 -201419850 -257183201 -1328201509 549560329 300553659
        -1198075848 328401051 -2135997343</internalNodes>
      <leafValues>
        -2.9245787858963013e-01 2.7499559521675110e-01</leafValues></_>
    <_>
      <internalNodes>
        0 -1 63417 -559174983 534654753 -1342723668 1069330429
        -1375801601 -87699971 829378026 -848433266</internalNodes>
      <leafValues>
        -2.1314193308353424e-01 3.7774470448493958e-01</leafValues></_>
    <_>
      <internalNodes>
        0 -1 1996 1431809919 1781640909 -529527042 277085814 925650383
        285169005 1683191131 -79169985</internalNodes>
      <leafValues>
        -1.8303620815277100e-01 4.1757962107658386e-01</leafValues></_>
    <_>
      <internalNodes>
        0 -1 65606 -311221763 1721435536 -754445431 -1450637094
        -1339774518 -1474768561 -1771986765 455714682</internalNodes>
      <leafValues>
        -2.8688910603523254e-01 2.9024657607078552e-01</leafValues></_>
    <_>
      <internalNodes>
        0 -1 8939 -64556911 -400423166 -168224889 -31048314 -148115457
        -259260424 -235241606 -235022505</internalNodes>
      <leafValues>
        -2.6394933462142944e-01 3.1654405593872070e-01</leafValues></_>
    <_>
      <internalNodes>
        0 -1 53623 -661953328 -1514151736 681545249 -1879381431
        142861783 680427914 1598508897 1164199204</internalNodes>
      <leafValues>
        -5.0609320402145386e-01 1.5838819742202759e-01</leafValues></_>
    <_>
      <internalNodes>
        0 -1 52495 -1229196373 132103607 1056892662 1581032442
        -295958842 67605638 1875773423 -2130202121</internalNodes>
      <leafValues>
        -2.7674722671508789e-01 3.1156715750694275e-01</leafValues></_>
    <_>
      <internalNodes>
        0 -1 16333 449838767 -117792849 2134305727 -1858130255
        -696506370 -75682588 -259751937 -113559307</internalNodes>
      <leafValues>
        -2.0921643078327179e-01 4.0177497267723083e-01</leafValues></_>
    <_>
      <internalNodes>
        0 -1 61615 -956212836 1322044166 -1920777828 107405721
        -1043611049 925077531 271610498 1225455137</internalNodes>
      <leafValues>
        -4.1892689466476440e-01 2.1140617132186890e-01</leafValues></_>
    <_>
      <internalNodes>
        0 -1 58959 1444807529 2088285417 905602529 -449516687 1848876063
        1131869499 -42760584 -1692423685</internalNodes>
      <leafValues>
        -2.6248711347579956e-01 3.3876404166221619e-01</leafValues></_>
    <_>
      <internalNodes>
        0 -1 28749 1405050431 -195070892 2126238585 943750651 -6824623
        -16984610 998493054 -14477622</internalNodes>
      <leafValues>
        -2.3434528708457947e-01 3.7028020620346069e-01</leafValues></_>
    <_>
      <internalNodes>
        0 -1 67240 -525456835 919567606 1861204524 1605224 1315438302
        -320406403 -1788871208 -895240566</internalNodes>
      <leafValues>
        -2.7274751663208008e-01 3.2338249683380127e-01</leafValues></_>
    <_>
      <internalNodes>
        0 -1 37774 -1149274971 -772866521 -638583368 420494888
        -827859011 -446841133 -494993672 -1400906817</internalNodes>
      <leafValues>
        -2.3257264494895935e-01 3.7230977416038513e-01</leafValues></_>
    <_>
      <internalNodes>
        0 -1 45623 -1890449103 1978405024 -1926076916 420428370
        582688983 -2001205154 1226056017 1558499773</internalNodes>
      <leafValues>
        -3.4333792328834534e-01 2.5601130723953247e-01</leafValues></_>
    <_>
      <internalNodes>
        0 -1 30737 1192104204 -434503040 -780615123 2022527116 170352722
        -1852927984 -941189667 1512894184</internalNodes>
      <leafValues>
        -4.8601236939430237e-01 1.6668938100337982e-01</leafValues></_>
    <_>
      <internalNodes>
        0 -1 63506 -1404729987 177078814 184883217 2031440030 1615206937
        -1152808704 -419329845 -485808110</internalNodes>
      <leafValues>
        -3.1127208471298218e-01 2.9896748065948486e-01</leafValues></_>
    <_>
      <internalNodes>
        0 -1 23731 1527642507 -1766359277 -36864137 -1618117077
        -981904147 -1361718041 1212544383 -1145868577</internalNodes>
      <leafValues>
        -1.6439540684223175e-01 5.6311309337615967e-01</leafValues></_>
    <_>
      <internalNodes>
        0 -1 40228 2022529798 -1314336473 -1316949411 -1532325549
        1510097125 2014315033 -91846112 893229931</internalNodes>
      <leafValues>
        -3.5342827439308167e-01 2.5905969738960266e-01</leafValues></_></weakClassifiers></stage21>
</opencv_storage>
