<?xml version="1.0"?>
<opencv_storage>
<stage6>
  <maxWeakCount>15</maxWeakCount>
  <stageThreshold>-2.1680228710174561e+00</stageThreshold>
  <weakClassifiers>
    <_>
      <internalNodes>
        0 -1 193948 -2.0637623965740204e-02</internalNodes>
      <leafValues>
        5.1279789209365845e-01 -5.3030616044998169e-01</leafValues></_>
    <_>
      <internalNodes>
        0 -1 107377 1.7054658383131027e-03</internalNodes>
      <leafValues>
        -6.9344878196716309e-01 2.4225471913814545e-01</leafValues></_>
    <_>
      <internalNodes>
        0 -1 1068981 1.2514785339590162e-05</internalNodes>
      <leafValues>
        -6.5693664550781250e-01 2.6634699106216431e-01</leafValues></_>
    <_>
      <internalNodes>
        0 -1 171409 -3.1839363276958466e-02</internalNodes>
      <leafValues>
        3.8385561108589172e-01 -4.5279607176780701e-01</leafValues></_>
    <_>
      <internalNodes>
        0 -1 1078513 6.0907264014531393e-06</internalNodes>
      <leafValues>
        -6.3970386981964111e-01 2.6532036066055298e-01</leafValues></_>
    <_>
      <internalNodes>
        0 -1 35839 2.8321141144260764e-04</internalNodes>
      <leafValues>
        1.8524211645126343e-01 -7.9186427593231201e-01</leafValues></_>
    <_>
      <internalNodes>
        0 -1 1079122 6.4849241425690707e-06</internalNodes>
      <leafValues>
        -6.3574045896530151e-01 2.3582746088504791e-01</leafValues></_>
    <_>
      <internalNodes>
        0 -1 485411 2.8516735881567001e-02</internalNodes>
      <leafValues>
        -2.8805950284004211e-01 7.7244949340820312e-01</leafValues></_>
    <_>
      <internalNodes>
        0 -1 1078540 4.8965937457978725e-04</internalNodes>
      <leafValues>
        3.0515229701995850e-01 -6.6264510154724121e-01</leafValues></_>
    <_>
      <internalNodes>
        0 -1 71446 6.2815443016006611e-06</internalNodes>
      <leafValues>
        -5.7753497362136841e-01 2.4286940693855286e-01</leafValues></_>
    <_>
      <internalNodes>
        0 -1 142266 6.7217784817330539e-05</internalNodes>
      <leafValues>
        1.6278883814811707e-01 -6.6985714435577393e-01</leafValues></_>
    <_>
      <internalNodes>
        0 -1 24743 -3.5456296056509018e-02</internalNodes>
      <leafValues>
        3.2723024487495422e-01 -3.7561577558517456e-01</leafValues></_>
    <_>
      <internalNodes>
        0 -1 406344 -1.1250331997871399e-01</internalNodes>
      <leafValues>
        7.0351040363311768e-01 -1.9890789687633514e-01</leafValues></_>
    <_>
      <internalNodes>
        0 -1 36685 6.1873300001025200e-03</internalNodes>
      <leafValues>
        -3.6746528744697571e-01 4.8356252908706665e-01</leafValues></_>
    <_>
      <internalNodes>
        0 -1 36193 -1.7884607950691134e-04</internalNodes>
      <leafValues>
        -6.7768102884292603e-01 2.0478364825248718e-01</leafValues></_></weakClassifiers></stage6>
</opencv_storage>
