<?xml version="1.0"?>
<opencv_storage>
<cascade>
  <stageType>BOOST</stageType>
  <featureType>LBP</featureType>
  <height>28</height>
  <width>60</width>
  <stageParams>
    <boostType>GAB</boostType>
    <minHitRate>9.9900001287460327e-001</minHitRate>
    <maxFalseAlarm>4.0000000596046448e-001</maxFalseAlarm>
    <weightTrimRate>9.4999999999999996e-001</weightTrimRate>
    <maxDepth>1</maxDepth>
    <maxWeakCount>100</maxWeakCount></stageParams>
  <featureParams>
    <maxCatCount>256</maxCatCount>
    <featSize>1</featSize></featureParams>
  <stageNum>10</stageNum>
  <stages>
    <!-- stage 0 -->
    <_>
      <maxWeakCount>5</maxWeakCount>
      <stageThreshold>-2.4099647998809814e+000</stageThreshold>
      <weakClassifiers>
        <_>
          <internalNodes>
            0 -1 56 1073692671 -52737 2136997887 -35329 -1074004993
            -1793 -1078198273 -1</internalNodes>
          <leafValues>
            -8.8068753480911255e-001 7.1193414926528931e-001</leafValues></_>
        <_>
          <internalNodes>
            0 -1 72 -1073741825 -1073741825 -2359297 -1073742849 -1
            -1140851729 -541065217 -4195393</internalNodes>
          <leafValues>
            -7.4758785963058472e-001 7.4873292446136475e-001</leafValues></_>
        <_>
          <internalNodes>
            0 -1 1 -1 -67504135 -33686020 -42928131 -66310 -303016528
            -69402626 1343289329</internalNodes>
          <leafValues>
            -8.6672902107238770e-001 5.4945719242095947e-001</leafValues></_>
        <_>
          <internalNodes>
            0 -1 19 -42113 -10369 -33948801 -2097281 -281844907 -8431813
            -6587393 -8388609</internalNodes>
          <leafValues>
            -6.9464772939682007e-001 6.9802433252334595e-001</leafValues></_>
        <_>
          <internalNodes>
            0 -1 58 -573571597 100169727 697933053 996002014 -1145064515
            234526943 -19923201 -1426063361</internalNodes>
          <leafValues>
            -6.3649874925613403e-001 6.0599595308303833e-001</leafValues></_></weakClassifiers></_>
    <!-- stage 1 -->
    <_>
      <maxWeakCount>7</maxWeakCount>
      <stageThreshold>-2.5509407520294189e+000</stageThreshold>
      <weakClassifiers>
        <_>
          <internalNodes>
            0 -1 60 -536870913 805253599 -1713381889 1004533727 -4456449
            -1074025793 -71303169 -1</internalNodes>
          <leafValues>
            -8.4655278921127319e-001 6.2550854682922363e-001</leafValues></_>
        <_>
          <internalNodes>
            0 -1 21 -2049 -1569 1977291775 -2138753 2124248959 -372229
            1941927935 -1</internalNodes>
          <leafValues>
            -7.2893834114074707e-001 7.0796823501586914e-001</leafValues></_>
        <_>
          <internalNodes>
            0 -1 80 -1073807365 -1077944837 -741346313 -1610615841
            -1077936149 -1177566482 -69206017 -1073741825</internalNodes>
          <leafValues>
            -7.4966239929199219e-001 5.9328109025955200e-001</leafValues></_>
        <_>
          <internalNodes>
            0 -1 42 -2065 -64 -3145905 1944049655 -357768022 -2138375478
            -290455889 136052623</internalNodes>
          <leafValues>
            -7.0747178792953491e-001 5.4671978950500488e-001</leafValues></_>
        <_>
          <internalNodes>
            0 -1 18 -67283073 -9 -67108869 -16513 -172419 -9470017
            -32773 -8388609</internalNodes>
          <leafValues>
            -5.8162742853164673e-001 6.8169170618057251e-001</leafValues></_>
        <_>
          <internalNodes>
            0 -1 35 -2162691 -2042624 -580919971 894459252 -34799619
            -1141063428 2110583548 1065318383</internalNodes>
          <leafValues>
            -6.7275691032409668e-001 5.6865334510803223e-001</leafValues></_>
        <_>
          <internalNodes>
            0 -1 53 2147483647 536870399 -6299651 536719340 -1363226626
            -1342187012 -285283076 32560376</internalNodes>
          <leafValues>
            -7.9261493682861328e-001 3.9312550425529480e-001</leafValues></_></weakClassifiers></_>
    <!-- stage 2 -->
    <_>
      <maxWeakCount>7</maxWeakCount>
      <stageThreshold>-2.4039030075073242e+000</stageThreshold>
      <weakClassifiers>
        <_>
          <internalNodes>
            0 -1 51 1073692671 -2123809 -547356673 -32801 -1145307137
            -3333 -69206017 -1</internalNodes>
          <leafValues>
            -8.6291217803955078e-001 4.4625350832939148e-001</leafValues></_>
        <_>
          <internalNodes>
            0 -1 70 -1342177281 -1342177281 -171180033 -513 -138412033
            -1883244289 -135530497 -268435457</internalNodes>
          <leafValues>
            -7.3172897100448608e-001 5.5878645181655884e-001</leafValues></_>
        <_>
          <internalNodes>
            0 -1 15 -257 -1 -83886081 -2049 -25723023 2139058047
            -1073811457 -8388737</internalNodes>
          <leafValues>
            -6.1811774969100952e-001 6.7313259840011597e-001</leafValues></_>
        <_>
          <internalNodes>
            0 -1 27 -4202501 -786701 -84478477 -80251983 -545276486
            -4247757 -151064581 2134078451</internalNodes>
          <leafValues>
            -5.6575053930282593e-001 6.1617445945739746e-001</leafValues></_>
        <_>
          <internalNodes>
            0 -1 43 -2097155 -197124 -8389124 -1846218508 -2294020
            -1610753540 -66055 1004263929</internalNodes>
          <leafValues>
            -6.7442607879638672e-001 4.7136551141738892e-001</leafValues></_>
        <_>
          <internalNodes>
            0 -1 23 -2099201 -603991555 -644097669 -1074547745
            1471044458 2078009593 2005693887 -12618785</internalNodes>
          <leafValues>
            -5.7802939414978027e-001 5.1555007696151733e-001</leafValues></_>
        <_>
          <internalNodes>
            0 -1 39 -2581 1945850843 -6357237 1398240254 -290458930
            -2008101240 -340787921 1145044287</internalNodes>
          <leafValues>
            -6.6742330789566040e-001 4.4513699412345886e-001</leafValues></_></weakClassifiers></_>
    <!-- stage 3 -->
    <_>
      <maxWeakCount>7</maxWeakCount>
      <stageThreshold>-2.3507666587829590e+000</stageThreshold>
      <weakClassifiers>
        <_>
          <internalNodes>
            0 -1 29 -32769 -2132773 -106956289 -10241 -71336961
            -70580033 -5505025 -263173</internalNodes>
          <leafValues>
            -7.7460598945617676e-001 5.5031108856201172e-001</leafValues></_>
        <_>
          <internalNodes>
            0 -1 79 -1 -1713382169 -549194753 -1610614817 -70254849
            -343684657 -201326593 -1342177281</internalNodes>
          <leafValues>
            -6.6470927000045776e-001 6.5323191881179810e-001</leafValues></_>
        <_>
          <internalNodes>
            0 -1 69 -1346438145 -1074003969 -1 -4325377 -1073750785
            -1342177281 -1610612737 -1140851969</internalNodes>
          <leafValues>
            -5.7180911302566528e-001 6.0357898473739624e-001</leafValues></_>
        <_>
          <internalNodes>
            0 -1 7 -32769 -33 -4194305 -2228230 2138521401 -106530
            2139062207 2100328306</internalNodes>
          <leafValues>
            -7.6041197776794434e-001 4.2834579944610596e-001</leafValues></_>
        <_>
          <internalNodes>
            0 -1 26 -8450 -606865216 -218959374 -202114573 -666182424
            -801091584 -639110657 -582746117</internalNodes>
          <leafValues>
            -5.4933470487594604e-001 5.7764607667922974e-001</leafValues></_>
        <_>
          <internalNodes>
            0 -1 12 -42659 -2628993 -2637825 -179110945 -213681283
            -68458445 -337814533 -12846310</internalNodes>
          <leafValues>
            -5.4444038867950439e-001 5.4553461074829102e-001</leafValues></_>
        <_>
          <internalNodes>
            0 -1 47 -2 -721618980 -46735364 -587399426 -71368708
            -654772072 -67436548 150789631</internalNodes>
          <leafValues>
            -8.4960114955902100e-001 3.3647364377975464e-001</leafValues></_></weakClassifiers></_>
    <!-- stage 4 -->
    <_>
      <maxWeakCount>8</maxWeakCount>
      <stageThreshold>-2.5366339683532715e+000</stageThreshold>
      <weakClassifiers>
        <_>
          <internalNodes>
            0 -1 75 -1073741825 -1342180385 -645139493 -1344283681
            -7603521 -1344552805 -72352769 -268435457</internalNodes>
          <leafValues>
            -7.8751355409622192e-001 4.6473887562751770e-001</leafValues></_>
        <_>
          <internalNodes>
            0 -1 20 -1 -270853 -36052993 -2895393 -23167617 -9216897
            -1344513 -12616833</internalNodes>
          <leafValues>
            -6.7182815074920654e-001 5.8949941396713257e-001</leafValues></_>
        <_>
          <internalNodes>
            0 -1 61 1073430527 -35704193 2103181311 2147424767
            -1342461217 -4232785 -1342193665 -24577</internalNodes>
          <leafValues>
            -7.2016167640686035e-001 5.4823750257492065e-001</leafValues></_>
        <_>
          <internalNodes>
            0 -1 64 -301998081 -1375806338 -1168377601 970973151
            -1148519745 -1880098053 -357827585 -1073742337</internalNodes>
          <leafValues>
            -5.5897510051727295e-001 5.5543798208236694e-001</leafValues></_>
        <_>
          <internalNodes>
            0 -1 4 -83887886 -109840193 -67740432 -218898445 -66787096
            -79626936 -598347528 -11012141</internalNodes>
          <leafValues>
            -6.0624521970748901e-001 5.1596659421920776e-001</leafValues></_>
        <_>
          <internalNodes>
            0 -1 6 -36 -9117700 -585900553 -34472165 -67305476 -86451760
            -274071553 1945892351</internalNodes>
          <leafValues>
            -6.1620658636093140e-001 4.7998696565628052e-001</leafValues></_>
        <_>
          <internalNodes>
            0 -1 77 -139 -92277809 -746331681 -4533889 -1232090195
            -1283327289 -263751 -1493893185</internalNodes>
          <leafValues>
            -6.6536194086074829e-001 4.1911366581916809e-001</leafValues></_>
        <_>
          <internalNodes>
            0 -1 14 -41976581 -1 2147483647 -67108869 -50374017 -8421379
            -786690 -262277</internalNodes>
          <leafValues>
            -4.4006839394569397e-001 6.5018969774246216e-001</leafValues></_></weakClassifiers></_>
    <!-- stage 5 -->
    <_>
      <maxWeakCount>8</maxWeakCount>
      <stageThreshold>-1.9281564950942993e+000</stageThreshold>
      <weakClassifiers>
        <_>
          <internalNodes>
            0 -1 16 -2097153 -8233 -749873153 -35655213 2075883519
            -1318228 2072672255 -35853</internalNodes>
          <leafValues>
            -7.3412758111953735e-001 4.5847141742706299e-001</leafValues></_>
        <_>
          <internalNodes>
            0 -1 74 -1344274433 -1344274497 -614475777 -2097217
            -340001793 -805309441 -271057921 -6145</internalNodes>
          <leafValues>
            -7.0790064334869385e-001 4.4186478853225708e-001</leafValues></_>
        <_>
          <internalNodes>
            0 -1 41 -14684577 -4224717 -20062603 -872451277 -21103906
            -352723201 -904924498 168773431</internalNodes>
          <leafValues>
            -6.9925606250762939e-001 4.3754091858863831e-001</leafValues></_>
        <_>
          <internalNodes>
            0 -1 11 -37793 -265793 -36275233 -25494785 -235182475
            -12379311 -1275069569 -264409</internalNodes>
          <leafValues>
            -5.4485851526260376e-001 5.4293560981750488e-001</leafValues></_>
        <_>
          <internalNodes>
            0 -1 67 -1080229892 -1610692610 -1378223394 -1613056106
            1073478653 -1198538080 1003421437 -1075119393</internalNodes>
          <leafValues>
            -6.2439793348312378e-001 4.4954103231430054e-001</leafValues></_>
        <_>
          <internalNodes>
            0 -1 32 -537075747 -608120476 -3612675 -685933092 -619129604
            -873406488 -278267915 -12880523</internalNodes>
          <leafValues>
            -6.3074207305908203e-001 3.8671714067459106e-001</leafValues></_>
        <_>
          <internalNodes>
            0 -1 38 -9175258 -1061377 -108536378 841678587 -38836393
            -932558722 -406847489 1080555007</internalNodes>
          <leafValues>
            -6.7556446790695190e-001 4.0438207983970642e-001</leafValues></_>
        <_>
          <internalNodes>
            0 -1 30 -142649603 -67154561 2129918971 -80584721 -164643
            -1086357633 -537002497 -2</internalNodes>
          <leafValues>
            -4.2987900972366333e-001 5.8343750238418579e-001</leafValues></_></weakClassifiers></_>
    <!-- stage 6 -->
    <_>
      <maxWeakCount>9</maxWeakCount>
      <stageThreshold>-2.4578378200531006e+000</stageThreshold>
      <weakClassifiers>
        <_>
          <internalNodes>
            0 -1 22 -2049 -2108961 1461450751 -10496545 2079162365
            -4503301 2140894207 -2049</internalNodes>
          <leafValues>
            -7.1972125768661499e-001 3.7079563736915588e-001</leafValues></_>
        <_>
          <internalNodes>
            0 -1 71 -1073807361 -1912605221 -618660865 -1881147425
            -17894405 -1962938113 -100927233 -922747937</internalNodes>
          <leafValues>
            -6.6376417875289917e-001 4.2264452576637268e-001</leafValues></_>
        <_>
          <internalNodes>
            0 -1 45 -1090461736 404248808 -27426851 161316860 1040252664
            -1107362820 2147287003 -65539</internalNodes>
          <leafValues>
            -6.0890126228332520e-001 4.4656327366828918e-001</leafValues></_>
        <_>
          <internalNodes>
            0 -1 55 1073627135 -43043 1502281695 -51747 -1074021633
            -71610725 -1413809237 -1073791493</internalNodes>
          <leafValues>
            -7.0160841941833496e-001 3.6484420299530029e-001</leafValues></_>
        <_>
          <internalNodes>
            0 -1 13 -134226185 -69206305 -786695169 -69797889
            -1681962379 -76813221 -28083333 -201598081</internalNodes>
          <leafValues>
            -5.3589683771133423e-001 5.3624379634857178e-001</leafValues></_>
        <_>
          <internalNodes>
            0 -1 63 -18874371 -1946165763 -552337923 603979773 -67568130
            -1929384449 -35858220 -1998784260</internalNodes>
          <leafValues>
            -6.6084414720535278e-001 3.9758738875389099e-001</leafValues></_>
        <_>
          <internalNodes>
            0 -1 46 -1048626 -104607276 -574947618 1358810621 -779104883
            -627914261 -2059608628 1495260671</internalNodes>
          <leafValues>
            -5.9254890680313110e-001 4.2005166411399841e-001</leafValues></_>
        <_>
          <internalNodes>
            0 -1 65 -12543 -4194369 -177 2054749011 -134217834
            -543170913 -66602 -937361646</internalNodes>
          <leafValues>
            -6.1163645982742310e-001 3.9756894111633301e-001</leafValues></_>
        <_>
          <internalNodes>
            0 -1 3 -285487189 -149690614 -33591681 -47751406 1900273648
            -44828464 -114013081 1433621815</internalNodes>
          <leafValues>
            -5.7989734411239624e-001 3.9664745330810547e-001</leafValues></_></weakClassifiers></_>
    <!-- stage 7 -->
    <_>
      <maxWeakCount>10</maxWeakCount>
      <stageThreshold>-2.0190384387969971e+000</stageThreshold>
      <weakClassifiers>
        <_>
          <internalNodes>
            0 -1 25 -32769 -48769 -141033505 -2133057 -68452353
            -74747733 -263169 -4457537</internalNodes>
          <leafValues>
            -7.1988356113433838e-001 3.2676935195922852e-001</leafValues></_>
        <_>
          <internalNodes>
            0 -1 81 -1073741825 -1476398113 -35914785 -1025 -100926465
            -1141124689 -67372033 -2049</internalNodes>
          <leafValues>
            -5.8439189195632935e-001 5.2146387100219727e-001</leafValues></_>
        <_>
          <internalNodes>
            0 -1 24 -4 -163876 -340788228 -65540 -771817768 -33793200
            -545325068 -44992687</internalNodes>
          <leafValues>
            -7.1331250667572021e-001 3.6518406867980957e-001</leafValues></_>
        <_>
          <internalNodes>
            0 -1 66 -1073742849 -1076364835 1528822014 1004149759
            -1886651969 -1414559345 529241599 -1613783297</internalNodes>
          <leafValues>
            -5.5219143629074097e-001 4.6090984344482422e-001</leafValues></_>
        <_>
          <internalNodes>
            0 -1 49 -318771201 31441407 -551813153 301727739 -572850721
            -1128531521 -1311236 1095625980</internalNodes>
          <leafValues>
            -6.2648606300354004e-001 3.9337077736854553e-001</leafValues></_>
        <_>
          <internalNodes>
            0 -1 8 -40961 -36001 -77603233 -335950 -69242657 -33075695
            2133808511 -12878046</internalNodes>
          <leafValues>
            -5.4769873619079590e-001 4.6117898821830750e-001</leafValues></_>
        <_>
          <internalNodes>
            0 -1 52 -541067525 1336901051 -278921221 2147440501
            -2001023334 -1933910145 -1967484741 454778747</internalNodes>
          <leafValues>
            -5.4961502552032471e-001 4.4761449098587036e-001</leafValues></_>
        <_>
          <internalNodes>
            0 -1 5 -73730 -136381332 -721166370 -42795137 1575288808
            74211360 -370903564 1060845363</internalNodes>
          <leafValues>
            -8.1630074977874756e-001 2.4920067191123962e-001</leafValues></_>
        <_>
          <internalNodes>
            0 -1 62 -588300219 -146825409 -67764353 -605611137 -73434785
            -75572898 -4260257 -1306329589</internalNodes>
          <leafValues>
            -4.8304647207260132e-001 4.5044258236885071e-001</leafValues></_>
        <_>
          <internalNodes>
            0 -1 33 -2667809 -8421380 1803485182 2067411578 -9077766
            -12632193 1073545464 -9700613</internalNodes>
          <leafValues>
            -4.4683063030242920e-001 4.9130019545555115e-001</leafValues></_></weakClassifiers></_>
    <!-- stage 8 -->
    <_>
      <maxWeakCount>11</maxWeakCount>
      <stageThreshold>-2.4549870491027832e+000</stageThreshold>
      <weakClassifiers>
        <_>
          <internalNodes>
            0 -1 54 -572523009 803150335 -1290167841 1004524959
            -40174849 -1073764182 -611648769 -70260037</internalNodes>
          <leafValues>
            -7.8111326694488525e-001 1.8046611547470093e-001</leafValues></_>
        <_>
          <internalNodes>
            0 -1 31 -2129921 -10519301 -237046529 -16036641 -4293633
            -137674357 -69534977 -4457473</internalNodes>
          <leafValues>
            -5.6217712163925171e-001 4.7112131118774414e-001</leafValues></_>
        <_>
          <internalNodes>
            0 -1 78 -2049 -570426115 -1 -570556931 -131585 -8196 -65539
            -1929379841</internalNodes>
          <leafValues>
            -4.9873149394989014e-001 5.2278053760528564e-001</leafValues></_>
        <_>
          <internalNodes>
            0 -1 50 1065107453 -35842051 -35651585 -43047 -1144340481
            -1082279713 -1140933637 1069160952</internalNodes>
          <leafValues>
            -5.5727094411849976e-001 4.5130699872970581e-001</leafValues></_>
        <_>
          <internalNodes>
            0 -1 0 -16779538 -8245 12212350 -1140852777 -264197
            -1626387697 1889366267 1328019279</internalNodes>
          <leafValues>
            -4.9825537204742432e-001 4.8369991779327393e-001</leafValues></_>
        <_>
          <internalNodes>
            0 -1 37 -5382 -4777872 -1367982509 -295463 -1187860
            -1343655298 840333271 712926271</internalNodes>
          <leafValues>
            -6.3600140810012817e-001 3.3474558591842651e-001</leafValues></_>
        <_>
          <internalNodes>
            0 -1 9 -35206 -6315617 -792587842 -421346054 -139234283
            -496955359 2049462595 -9177225</internalNodes>
          <leafValues>
            -5.4114884138107300e-001 4.4532218575477600e-001</leafValues></_>
        <_>
          <internalNodes>
            0 -1 28 -427825397 -1602224833 -585368081 -71311905
            -81209461 -520268984 -718188283 -788039929</internalNodes>
          <leafValues>
            -6.0132861137390137e-001 3.5674884915351868e-001</leafValues></_>
        <_>
          <internalNodes>
            0 -1 40 -541335558 -709500968 -618930338 2134245370 -4391268
            -1136985384 -49619042 -133105669</internalNodes>
          <leafValues>
            -5.8869135379791260e-001 3.8642081618309021e-001</leafValues></_>
        <_>
          <internalNodes>
            0 -1 76 1072693215 -1079529217 -78068241 -1073903137
            -1173820469 -1088702325 -661915143 -1073759269</internalNodes>
          <leafValues>
            -5.6044006347656250e-001 3.6288598179817200e-001</leafValues></_>
        <_>
          <internalNodes>
            0 -1 57 -270532630 1431919628 -476325892 1156404637
            -1718879297 1556009392 -1212973088 146796459</internalNodes>
          <leafValues>
            -5.7915508747100830e-001 3.5932460427284241e-001</leafValues></_></weakClassifiers></_>
    <!-- stage 9 -->
    <_>
      <maxWeakCount>11</maxWeakCount>
      <stageThreshold>-2.3529973030090332e+000</stageThreshold>
      <weakClassifiers>
        <_>
          <internalNodes>
            0 -1 48 419978716 -40300392 1058648573 503125497 143149310
            -446211 -1145242625 -67449379</internalNodes>
          <leafValues>
            -6.8956744670867920e-001 2.7130722999572754e-001</leafValues></_>
        <_>
          <internalNodes>
            0 -1 73 -1409810433 -1342178853 -146410529 -267269
            -1857293841 -1902394749 -710151695 -7489</internalNodes>
          <leafValues>
            -6.2126702070236206e-001 3.8483285903930664e-001</leafValues></_>
        <_>
          <internalNodes>
            0 -1 34 -69240323 -10524297 1973367546 2136676859 1002007039
            -4505367 703267000 -294977</internalNodes>
          <leafValues>
            -5.0582802295684814e-001 4.7283652424812317e-001</leafValues></_>
        <_>
          <internalNodes>
            0 -1 17 -827521 -203466309 -465843001 -82873377 2011127677
            -632537045 -218469377 -10519617</internalNodes>
          <leafValues>
            -5.2039027214050293e-001 4.2103195190429688e-001</leafValues></_>
        <_>
          <internalNodes>
            0 -1 44 -262701 -673899183 -571539617 -706945968 -1886147935
            -1691282428 -923809617 -581042705</internalNodes>
          <leafValues>
            -3.9171919226646423e-001 5.6993860006332397e-001</leafValues></_>
        <_>
          <internalNodes>
            0 -1 68 -11 -134218791 -217579651 -1059070499 -14876748
            -10753045 -19075316 -2010054659</internalNodes>
          <leafValues>
            -6.5837842226028442e-001 3.3650630712509155e-001</leafValues></_>
        <_>
          <internalNodes>
            0 -1 36 -70255617 -136709156 -544022531 2010510204
            -305201154 -1077088292 -475862532 687660220</internalNodes>
          <leafValues>
            -6.7613071203231812e-001 3.2588586211204529e-001</leafValues></_>
        <_>
          <internalNodes>
            0 -1 2 -1363415413 -30476305 1640969471 -133412 -872351862
            -613717829 1795448159 1869043025</internalNodes>
          <leafValues>
            -5.2230137586593628e-001 3.7492388486862183e-001</leafValues></_>
        <_>
          <internalNodes>
            0 -1 82 -1075970309 -1109403681 -78686013 -1073753121
            -1161049861 -1836416886 -1164193093 -1568736306</internalNodes>
          <leafValues>
            -5.5173146724700928e-001 3.7690636515617371e-001</leafValues></_>
        <_>
          <internalNodes>
            0 -1 59 -1314995 -648982820 2108939735 823854671 364623316
            -37893393 -570700715 278917087</internalNodes>
          <leafValues>
            -5.2432674169540405e-001 3.6271840333938599e-001</leafValues></_>
        <_>
          <internalNodes>
            0 -1 10 -10126853 -15348236 -631578786 -546058305 656764455
            2132764467 1948611964 -75497637</internalNodes>
          <leafValues>
            -5.0802421569824219e-001 4.0786078572273254e-001</leafValues></_></weakClassifiers></_></stages>
  <features>
    <_>
      <rect>
        0 0 20 3</rect></_>
    <_>
      <rect>
        0 1 20 9</rect></_>
    <_>
      <rect>
        0 2 4 4</rect></_>
    <_>
      <rect>
        0 2 6 5</rect></_>
    <_>
      <rect>
        0 4 16 3</rect></_>
    <_>
      <rect>
        0 10 15 6</rect></_>
    <_>
      <rect>
        0 12 20 4</rect></_>
    <_>
      <rect>
        0 16 9 4</rect></_>
    <_>
      <rect>
        0 17 2 3</rect></_>
    <_>
      <rect>
        0 19 1 1</rect></_>
    <_>
      <rect>
        0 20 4 2</rect></_>
    <_>
      <rect>
        0 21 1 1</rect></_>
    <_>
      <rect>
        0 23 1 1</rect></_>
    <_>
      <rect>
        0 23 2 1</rect></_>
    <_>
      <rect>
        0 24 1 1</rect></_>
    <_>
      <rect>
        0 24 3 1</rect></_>
    <_>
      <rect>
        0 24 10 1</rect></_>
    <_>
      <rect>
        0 25 1 1</rect></_>
    <_>
      <rect>
        0 25 2 1</rect></_>
    <_>
      <rect>
        0 25 3 1</rect></_>
    <_>
      <rect>
        0 25 4 1</rect></_>
    <_>
      <rect>
        0 25 8 1</rect></_>
    <_>
      <rect>
        0 25 9 1</rect></_>
    <_>
      <rect>
        0 25 10 1</rect></_>
    <_>
      <rect>
        1 4 7 8</rect></_>
    <_>
      <rect>
        1 25 1 1</rect></_>
    <_>
      <rect>
        2 2 19 4</rect></_>
    <_>
      <rect>
        2 6 13 4</rect></_>
    <_>
      <rect>
        3 0 11 2</rect></_>
    <_>
      <rect>
        3 25 1 1</rect></_>
    <_>
      <rect>
        4 24 1 1</rect></_>
    <_>
      <rect>
        4 25 1 1</rect></_>
    <_>
      <rect>
        6 11 11 4</rect></_>
    <_>
      <rect>
        6 25 2 1</rect></_>
    <_>
      <rect>
        7 25 3 1</rect></_>
    <_>
      <rect>
        8 10 14 6</rect></_>
    <_>
      <rect>
        9 13 17 5</rect></_>
    <_>
      <rect>
        10 8 12 3</rect></_>
    <_>
      <rect>
        15 0 15 3</rect></_>
    <_>
      <rect>
        15 5 15 4</rect></_>
    <_>
      <rect>
        18 5 14 6</rect></_>
    <_>
      <rect>
        18 7 10 3</rect></_>
    <_>
      <rect>
        18 7 14 3</rect></_>
    <_>
      <rect>
        18 10 14 6</rect></_>
    <_>
      <rect>
        20 1 11 5</rect></_>
    <_>
      <rect>
        20 12 9 2</rect></_>
    <_>
      <rect>
        21 0 13 5</rect></_>
    <_>
      <rect>
        24 3 12 8</rect></_>
    <_>
      <rect>
        24 14 4 1</rect></_>
    <_>
      <rect>
        24 17 12 3</rect></_>
    <_>
      <rect>
        24 23 3 1</rect></_>
    <_>
      <rect>
        24 25 3 1</rect></_>
    <_>
      <rect>
        25 7 8 3</rect></_>
    <_>
      <rect>
        27 15 11 4</rect></_>
    <_>
      <rect>
        27 25 11 1</rect></_>
    <_>
      <rect>
        29 25 2 1</rect></_>
    <_>
      <rect>
        29 25 3 1</rect></_>
    <_>
      <rect>
        30 2 10 6</rect></_>
    <_>
      <rect>
        30 25 10 1</rect></_>
    <_>
      <rect>
        31 1 9 4</rect></_>
    <_>
      <rect>
        33 25 9 1</rect></_>
    <_>
      <rect>
        35 25 2 1</rect></_>
    <_>
      <rect>
        38 0 5 3</rect></_>
    <_>
      <rect>
        39 15 7 3</rect></_>
    <_>
      <rect>
        42 25 6 1</rect></_>
    <_>
      <rect>
        48 0 4 6</rect></_>
    <_>
      <rect>
        48 25 2 1</rect></_>
    <_>
      <rect>
        49 22 2 2</rect></_>
    <_>
      <rect>
        51 1 3 9</rect></_>
    <_>
      <rect>
        51 25 2 1</rect></_>
    <_>
      <rect>
        52 23 2 1</rect></_>
    <_>
      <rect>
        54 18 2 2</rect></_>
    <_>
      <rect>
        54 22 2 2</rect></_>
    <_>
      <rect>
        54 23 1 1</rect></_>
    <_>
      <rect>
        54 24 2 1</rect></_>
    <_>
      <rect>
        56 19 1 2</rect></_>
    <_>
      <rect>
        56 25 1 1</rect></_>
    <_>
      <rect>
        57 3 1 7</rect></_>
    <_>
      <rect>
        57 7 1 7</rect></_>
    <_>
      <rect>
        57 10 1 6</rect></_>
    <_>
      <rect>
        57 19 1 3</rect></_>
    <_>
      <rect>
        57 22 1 1</rect></_>
    <_>
      <rect>
        57 22 1 2</rect></_></features></cascade>
</opencv_storage>
