<?xml version="1.0"?>
<opencv_storage>
<cascade>
  <stageType>BOOST</stageType>
  <featureType>LBP</featureType>
  <height>40</height>
  <width>40</width>
  <stageParams>
    <boostType>GAB</boostType>
    <minHitRate>9.9900001287460327e-01</minHitRate>
    <maxFalseAlarm>5.0000000000000000e-01</maxFalseAlarm>
    <weightTrimRate>9.4999999999999996e-01</weightTrimRate>
    <maxDepth>1</maxDepth>
    <maxWeakCount>100</maxWeakCount></stageParams>
  <featureParams>
    <maxCatCount>256</maxCatCount>
    <featSize>1</featSize></featureParams>
  <stageNum>25</stageNum>
  <stages>
    <!-- stage 0 -->
    <_>
      <maxWeakCount>8</maxWeakCount>
      <stageThreshold>-1.3101466894149780e+00</stageThreshold>
      <weakClassifiers>
        <_>
          <internalNodes>
            0 -1 154 -78982976 -76770688 -8910720 -642971412 -587409176
            -536946460 -54473480 -36123428</internalNodes>
          <leafValues>
            -5.4876118898391724e-01 7.4116498231887817e-01</leafValues></_>
        <_>
          <internalNodes>
            0 -1 163 -654246150 956927588 -1184231868 1001205257
            -1121911670 2089585748 -5328929 -1081213219</internalNodes>
          <leafValues>
            -4.4517034292221069e-01 5.5952495336532593e-01</leafValues></_>
        <_>
          <internalNodes>
            0 -1 255 -2927168 -539504000 -234852080 -720177391
            -907693937 -1526996757 1603946523 71450647</internalNodes>
          <leafValues>
            -5.8197945356369019e-01 3.5644564032554626e-01</leafValues></_>
        <_>
          <internalNodes>
            0 -1 381 -2009461519 2140803409 -1274885257 529557361
            -132391756 -1413693404 -1731014988 -1140832192</internalNodes>
          <leafValues>
            -5.8260047435760498e-01 3.3864805102348328e-01</leafValues></_>
        <_>
          <internalNodes>
            0 -1 73 1359007796 1560363908 294164794 889377336 1237635518
            277495938 1090550699 -1179387457</internalNodes>
          <leafValues>
            -4.8706656694412231e-01 4.0331304073333740e-01</leafValues></_>
        <_>
          <internalNodes>
            0 -1 171 -44372258 2110521262 -1079097719 -1113462775
            -603004981 1822445128 -942733681 -982683901</internalNodes>
          <leafValues>
            -4.4023150205612183e-01 4.6095439791679382e-01</leafValues></_>
        <_>
          <internalNodes>
            0 -1 421 -1956983652 790245498 -1853662895 -1187970550
            34251481 -1974853270 -1004904262 -1892433782</internalNodes>
          <leafValues>
            -4.5166167616844177e-01 4.2230415344238281e-01</leafValues></_>
        <_>
          <internalNodes>
            0 -1 115 1432502468 1359030302 1292177477 -175270753
            -1694464853 998410883 -1140323445 167953026</internalNodes>
          <leafValues>
            -4.7544604539871216e-01 3.9016935229301453e-01</leafValues></_></weakClassifiers></_>
    <!-- stage 1 -->
    <_>
      <maxWeakCount>10</maxWeakCount>
      <stageThreshold>-1.6212459802627563e+00</stageThreshold>
      <weakClassifiers>
        <_>
          <internalNodes>
            0 -1 39 -574424560 1346404512 1529399344 -2138389764
            -570252640 -611798496 -8144150 -74452758</internalNodes>
          <leafValues>
            -3.6803364753723145e-01 6.5885800123214722e-01</leafValues></_>
        <_>
          <internalNodes>
            0 -1 188 -200745222 -584978707 520621056 -1616853496
            -454275158 -307466548 2007961257 -3192949</internalNodes>
          <leafValues>
            -3.7724626064300537e-01 5.5601739883422852e-01</leafValues></_>
        <_>
          <internalNodes>
            0 -1 367 -1934887689 -288305711 -942880269 -1095972192
            -1345267019 -104263629 -68257935 -1934570444</internalNodes>
          <leafValues>
            -4.8039689660072327e-01 4.3565019965171814e-01</leafValues></_>
        <_>
          <internalNodes>
            0 -1 172 -108339286 1968161866 1050872332 -1645362675
            -194323734 -257379634 -116926321 -170569715</internalNodes>
          <leafValues>
            -5.2218818664550781e-01 3.9783048629760742e-01</leafValues></_>
        <_>
          <internalNodes>
            0 -1 74 1359370146 1560890257 -2067389351 194871297 75514103
            503976088 178520287 682617019</internalNodes>
          <leafValues>
            -5.0784283876419067e-01 3.4860223531723022e-01</leafValues></_>
        <_>
          <internalNodes>
            0 -1 298 -1367084167 -1964867254 -780017197 -1972080420
            -1316335152 -274484319 -1135661003 -22224008</internalNodes>
          <leafValues>
            -5.1290023326873779e-01 3.7327593564987183e-01</leafValues></_>
        <_>
          <internalNodes>
            0 -1 430 -2102678991 -1900017533 756139412 -2008898203
            -2141827799 -671083129 -778888789 -926155525</internalNodes>
          <leafValues>
            -4.4944748282432556e-01 4.3523079156875610e-01</leafValues></_>
        <_>
          <internalNodes>
            0 -1 168 -536878638 -27082640 -100760124 -153104306
            -572785410 -822624034 1332368351 -610414898</internalNodes>
          <leafValues>
            -3.9531213045120239e-01 4.6961659193038940e-01</leafValues></_>
        <_>
          <internalNodes>
            0 -1 420 -1053833987 8300590 -704644655 -1142237156
            -2069749268 514582442 -1283330069 -1892955126</internalNodes>
          <leafValues>
            -3.7896922230720520e-01 4.7240665555000305e-01</leafValues></_>
        <_>
          <internalNodes>
            0 -1 136 -745615890 1433104335 -1753346614 2006040083
            84745725 887709541 -1896936245 -189280445</internalNodes>
          <leafValues>
            -3.9185473322868347e-01 4.7265601158142090e-01</leafValues></_></weakClassifiers></_>
    <!-- stage 2 -->
    <_>
      <maxWeakCount>14</maxWeakCount>
      <stageThreshold>-1.4706065654754639e+00</stageThreshold>
      <weakClassifiers>
        <_>
          <internalNodes>
            0 -1 326 -1903431941 -1360081170 -16781679 -1428099468
            -1073804041 -1074634897 -285253803 -231545424</internalNodes>
          <leafValues>
            -2.1253012120723724e-01 6.2191081047058105e-01</leafValues></_>
        <_>
          <internalNodes>
            0 -1 221 -173355830 -106179128 1025402373 -1115579647
            -593295505 -123032631 -308040545 -61473021</internalNodes>
          <leafValues>
            -4.1328048706054688e-01 4.4077798724174500e-01</leafValues></_>
        <_>
          <internalNodes>
            0 -1 162 -1045504514 352548573 -772284250 788749977
            184879612 551112395 -1983182625 765669043</internalNodes>
          <leafValues>
            -4.9259501695632935e-01 3.3227223157882690e-01</leafValues></_>
        <_>
          <internalNodes>
            0 -1 446 -1915794051 773893390 -271083073 -1381845138
            -2099586851 -1886788301 -591732737 -1456813974</internalNodes>
          <leafValues>
            -3.9062446355819702e-01 4.1328129172325134e-01</leafValues></_>
        <_>
          <internalNodes>
            0 -1 233 -35393296 -246214560 -671394492 -589443006
            -722417508 1214800008 1276187976 -775043937</internalNodes>
          <leafValues>
            -5.0294226408004761e-01 3.5613623261451721e-01</leafValues></_>
        <_>
          <internalNodes>
            0 -1 417 436911997 -128134632 -568996171 -53716268
            -350495491 -1281664872 -1097795148 -2004826080</internalNodes>
          <leafValues>
            -4.4503414630889893e-01 3.7911307811737061e-01</leafValues></_>
        <_>
          <internalNodes>
            0 -1 362 -164106533 -143193097 -1225009166 -2141183789
            -1753868673 -414744705 1878489838 -464060693</internalNodes>
          <leafValues>
            -3.8152584433555603e-01 4.5356690883636475e-01</leafValues></_>
        <_>
          <internalNodes>
            0 -1 110 1346397438 369714072 399114974 790583181 1420822680
            -1711771486 -321355601 733968059</internalNodes>
          <leafValues>
            -4.9643847346305847e-01 3.1904396414756775e-01</leafValues></_>
        <_>
          <internalNodes>
            0 -1 218 -723781649 -1605740081 2014444698 820703386
            1355018247 279552299 -509455840 -696325512</internalNodes>
          <leafValues>
            -4.6392560005187988e-01 3.5758468508720398e-01</leafValues></_>
        <_>
          <internalNodes>
            0 -1 314 -85401759 -1171648928 -1145447088 -201680639
            -1385230680 -302368824 217535849 -545302557</internalNodes>
          <leafValues>
            -3.7021175026893616e-01 4.3672993779182434e-01</leafValues></_>
        <_>
          <internalNodes>
            0 -1 85 -208545649 -67684869 -940070193 1068703485
            -298477664 -304406605 -311318596 -113577032</internalNodes>
          <leafValues>
            -3.1965869665145874e-01 5.1179450750350952e-01</leafValues></_>
        <_>
          <internalNodes>
            0 -1 471 260496637 -1344880487 419475615 -1344634472
            -1233104241 -1163732885 -896917850 -1126998699</internalNodes>
          <leafValues>
            -4.0989029407501221e-01 4.0460976958274841e-01</leafValues></_>
        <_>
          <internalNodes>
            0 -1 342 -1499267077 392056884 -108866255 -1747161851
            -1298990593 -1710550472 146817253 -1665997840</internalNodes>
          <leafValues>
            -4.0731272101402283e-01 3.9784225821495056e-01</leafValues></_>
        <_>
          <internalNodes>
            0 -1 346 -344144387 -537863731 -73785 -536243 -94630593
            2086416472 1181897995 -209742373</internalNodes>
          <leafValues>
            -3.0798590183258057e-01 5.0842422246932983e-01</leafValues></_></weakClassifiers></_>
    <!-- stage 3 -->
    <_>
      <maxWeakCount>13</maxWeakCount>
      <stageThreshold>-1.4498009681701660e+00</stageThreshold>
      <weakClassifiers>
        <_>
          <internalNodes>
            0 -1 155 -11731454 1510993614 1072187540 -1079181627
            -65120776 -36901812 -983557 -1194525476</internalNodes>
          <leafValues>
            -3.2667997479438782e-01 5.5392485857009888e-01</leafValues></_>
        <_>
          <internalNodes>
            0 -1 216 -727191554 -171970813 765792003 -1381958910
            1952284138 -1112120116 1983842051 -34748670</internalNodes>
          <leafValues>
            -3.5005223751068115e-01 4.3604320287704468e-01</leafValues></_>
        <_>
          <internalNodes>
            0 -1 396 -22075461 -537123013 2053947188 -1942444109
            -176351476 -1126416564 -597299748 -464650709</internalNodes>
          <leafValues>
            -3.8264670968055725e-01 3.9406254887580872e-01</leafValues></_>
        <_>
          <internalNodes>
            0 -1 167 1604842311 1355411791 -850899843 270538680
            2144811073 1883267851 1333663848 -834935158</internalNodes>
          <leafValues>
            -3.7640279531478882e-01 3.9858546853065491e-01</leafValues></_>
        <_>
          <internalNodes>
            0 -1 143 1348653021 1477982038 252206044 -821413874
            1078417628 -1102182398 -934065078 -853312893</internalNodes>
          <leafValues>
            -4.1147398948669434e-01 3.5457232594490051e-01</leafValues></_>
        <_>
          <internalNodes>
            0 -1 371 -369304099 -1155990651 -4720321 -142148232
            1845222622 1321760528 -483533377 -1962434550</internalNodes>
          <leafValues>
            -2.9609954357147217e-01 4.7933813929557800e-01</leafValues></_>
        <_>
          <internalNodes>
            0 -1 222 -779405986 -644886302 -1623306547 -1254776063
            -908600561 1627124927 -103007477 1397847811</internalNodes>
          <leafValues>
            -3.9953559637069702e-01 3.6877664923667908e-01</leafValues></_>
        <_>
          <internalNodes>
            0 -1 9 -2140148489 312282671 630841851 -2052079783
            1223025597 -903372763 1087729080 606404885</internalNodes>
          <leafValues>
            -4.3634948134422302e-01 3.2513639330863953e-01</leafValues></_>
        <_>
          <internalNodes>
            0 -1 152 -221380629 -779227377 -1157722445 85085787
            1901024765 -253175956 -86177784 -511705165</internalNodes>
          <leafValues>
            -3.0070120096206665e-01 4.9120238423347473e-01</leafValues></_>
        <_>
          <internalNodes>
            0 -1 81 -460980265 487005440 2147467263 -68033022 -462366723
            -122227549 -529213444 -131601370</internalNodes>
          <leafValues>
            -3.0335119366645813e-01 4.7931712865829468e-01</leafValues></_>
        <_>
          <internalNodes>
            0 -1 338 1597114099 2108910627 1072938737 -1783886159
            -20992801 -42590209 -1617743879 -1434405150</internalNodes>
          <leafValues>
            -3.4528663754463196e-01 4.1234982013702393e-01</leafValues></_>
        <_>
          <internalNodes>
            0 -1 54 -18361538 -83938570 1273498927 -218365969 -776474438
            -34123557 -1360712679 -1410336162</internalNodes>
          <leafValues>
            -3.2602432370185852e-01 4.7378522157669067e-01</leafValues></_>
        <_>
          <internalNodes>
            0 -1 333 -1983445672 -787246116 -582809159 -566067087
            -641146406 -443543309 -1596450816 -266954288</internalNodes>
          <leafValues>
            -4.1185986995697021e-01 3.3723640441894531e-01</leafValues></_></weakClassifiers></_>
    <!-- stage 4 -->
    <_>
      <maxWeakCount>16</maxWeakCount>
      <stageThreshold>-1.3199409246444702e+00</stageThreshold>
      <weakClassifiers>
        <_>
          <internalNodes>
            0 -1 137 1410207486 909109772 -1146221370 755084833
            494948351 1552690476 2127432843 753782273</internalNodes>
          <leafValues>
            -2.9893994331359863e-01 5.2846235036849976e-01</leafValues></_>
        <_>
          <internalNodes>
            0 -1 400 -1440551173 -1252321251 -1538471689 -1090982156
            -74269959 -1967412843 975240148 -1393549132</internalNodes>
          <leafValues>
            -3.9279508590698242e-01 3.6218565702438354e-01</leafValues></_>
        <_>
          <internalNodes>
            0 -1 264 -826277893 1756336367 -84298863 -1293222401
            -420014638 1979381401 -553758123 -25171044</internalNodes>
          <leafValues>
            -3.2274591922760010e-01 4.0010553598403931e-01</leafValues></_>
        <_>
          <internalNodes>
            0 -1 21 -705251917 -805266798 -1116126345 -81741812 -16653
            -253750813 -67806401 -95438262</internalNodes>
          <leafValues>
            -3.0392107367515564e-01 4.1969835758209229e-01</leafValues></_>
        <_>
          <internalNodes>
            0 -1 312 1538741235 1569725827 1367645439 -1123759769
            -793611265 -618486645 -71946022 -1417486453</internalNodes>
          <leafValues>
            -3.3108469843864441e-01 4.0379047393798828e-01</leafValues></_>
        <_>
          <internalNodes>
            0 -1 161 1359828718 1363802073 -906279742 620823082
            1214005720 814350668 -226164349 964258315</internalNodes>
          <leafValues>
            -4.2483672499656677e-01 3.0838176608085632e-01</leafValues></_>
        <_>
          <internalNodes>
            0 -1 464 -1103879 1568803084 -2063405921 -1407187334
            -666887912 -121438167 -301066056 -1471548790</internalNodes>
          <leafValues>
            -3.7645047903060913e-01 3.4639984369277954e-01</leafValues></_>
        <_>
          <internalNodes>
            0 -1 281 -57416200 -34096999 -1417573039 -1210254495
            764140029 -1408546052 103104568 -546343166</internalNodes>
          <leafValues>
            -3.5297077894210815e-01 3.8903748989105225e-01</leafValues></_>
        <_>
          <internalNodes>
            0 -1 336 193593907 -2004742025 -788478977 914766012
            679688353 -1528622853 -8275424 -353498427</internalNodes>
          <leafValues>
            -4.3925336003303528e-01 3.0044555664062500e-01</leafValues></_>
        <_>
          <internalNodes>
            0 -1 201 -785981502 -41049400 -1992187575 -1082031871
            1505759723 948633835 2020046601 1478525763</internalNodes>
          <leafValues>
            -4.8829251527786255e-01 2.7151703834533691e-01</leafValues></_>
        <_>
          <internalNodes>
            0 -1 435 -808849924 44760624 -268435467 -819794275
            -1899799057 -273772609 -2057654562 -1911877653</internalNodes>
          <leafValues>
            -3.1323230266571045e-01 4.2947342991828918e-01</leafValues></_>
        <_>
          <internalNodes>
            0 -1 62 1365602550 2032380896 229177723 -1074987268
            1970298367 -59540226 -156910433 -1110463233</internalNodes>
          <leafValues>
            -3.1657132506370544e-01 4.3490374088287354e-01</leafValues></_>
        <_>
          <internalNodes>
            0 -1 276 -62198279 -72290240 -67217595 -101076607 -721433115
            998210856 -864979570 -648035893</internalNodes>
          <leafValues>
            -3.1220743060112000e-01 4.5092573761940002e-01</leafValues></_>
        <_>
          <internalNodes>
            0 -1 387 -1500388111 -65538872 -1719412751 -992161496
            -483661393 -1464039248 -24383631 -925866812</internalNodes>
          <leafValues>
            -3.7997475266456604e-01 3.6980488896369934e-01</leafValues></_>
        <_>
          <internalNodes>
            0 -1 196 1353074426 -1867470676 -228797928 755321247
            -2136730396 -1130363413 1140918351 234948755</internalNodes>
          <leafValues>
            -5.5361610651016235e-01 2.4707977473735809e-01</leafValues></_>
        <_>
          <internalNodes>
            0 -1 229 -83951633 1538435683 -1510478096 -201619598
            1585436661 -1058605468 -864559924 -478942205</internalNodes>
          <leafValues>
            -2.8635695576667786e-01 5.0636845827102661e-01</leafValues></_></weakClassifiers></_>
    <!-- stage 5 -->
    <_>
      <maxWeakCount>17</maxWeakCount>
      <stageThreshold>-1.1477433443069458e+00</stageThreshold>
      <weakClassifiers>
        <_>
          <internalNodes>
            0 -1 47 -622865902 -690020254 952168688 -256182076
            -117477144 -740613904 -1074790916 -68235080</internalNodes>
          <leafValues>
            -2.1315325796604156e-01 5.4991853237152100e-01</leafValues></_>
        <_>
          <internalNodes>
            0 -1 321 -829689862 -292621684 -2146906512 -1478704386
            -1024530179 -1119796688 109169904 368495344</internalNodes>
          <leafValues>
            -4.4864749908447266e-01 3.2333883643150330e-01</leafValues></_>
        <_>
          <internalNodes>
            0 -1 434 -846230051 1254764102 -1142280391 -283340
            -846482945 1525640878 -2145150550 -919869430</internalNodes>
          <leafValues>
            -3.0901601910591125e-01 4.0949735045433044e-01</leafValues></_>
        <_>
          <internalNodes>
            0 -1 170 -267456770 331080671 1794993365 755097605
            1143554492 1889106108 -725022513 1832241987</internalNodes>
          <leafValues>
            -4.2684838175773621e-01 3.0139538645744324e-01</leafValues></_>
        <_>
          <internalNodes>
            0 -1 355 254197651 -1185242526 -1021257415 -786970591
            67234488 -62145274 176179438 -1652167516</internalNodes>
          <leafValues>
            -3.6422598361968994e-01 3.4853732585906982e-01</leafValues></_>
        <_>
          <internalNodes>
            0 -1 160 2015352814 1372256070 -574537651 1360188570
            2118602933 1079546811 -57734600 -302253190</internalNodes>
          <leafValues>
            -3.5993316769599915e-01 3.7044450640678406e-01</leafValues></_>
        <_>
          <internalNodes>
            0 -1 149 -1626864382 2081436674 2057651628 -48146331
            -68261469 -1279314418 -731446835 -271893041</internalNodes>
          <leafValues>
            -4.4379898905754089e-01 2.9163125157356262e-01</leafValues></_>
        <_>
          <internalNodes>
            0 -1 473 -98946051 1422262902 268861688 1183480794
            1523710074 -1153581053 -105321590 1242492570</internalNodes>
          <leafValues>
            -4.0036746859550476e-01 3.2401666045188904e-01</leafValues></_>
        <_>
          <internalNodes>
            0 -1 469 -917535091 44862662 -2146434832 1791883318
            1359855359 1237484192 -1029119354 -790105665</internalNodes>
          <leafValues>
            -3.6006739735603333e-01 3.5000541806221008e-01</leafValues></_>
        <_>
          <internalNodes>
            0 -1 259 -1025576222 1980129507 -805036141 -539863202
            -840309006 -1971011576 -788282700 -949820829</internalNodes>
          <leafValues>
            -3.6347228288650513e-01 3.5481667518615723e-01</leafValues></_>
        <_>
          <internalNodes>
            0 -1 251 -728502538 -1241783347 622926637 1033945859
            -1521784356 -708673378 1397557619 -570801917</internalNodes>
          <leafValues>
            -3.5871315002441406e-01 3.5987988114356995e-01</leafValues></_>
        <_>
          <internalNodes>
            0 -1 36 1167570099 1431558134 -85655560 -1385979918
            -1732139777 888913850 2017589115 -1373127734</internalNodes>
          <leafValues>
            -2.9428061842918396e-01 4.4043639302253723e-01</leafValues></_>
        <_>
          <internalNodes>
            0 -1 17 -2005406113 -1921012051 485404141 -1718145343
            -1041241505 -1685215383 -1443618967 -631827163</internalNodes>
          <leafValues>
            -3.3641237020492554e-01 3.9681506156921387e-01</leafValues></_>
        <_>
          <internalNodes>
            0 -1 425 -1442853041 -1343066260 285156599 -302303195
            1190524118 265260973 -1191435164 -1757957505</internalNodes>
          <leafValues>
            -3.3182778954505920e-01 4.0108850598335266e-01</leafValues></_>
        <_>
          <internalNodes>
            0 -1 0 -413735169 1088840610 83518221 -137658706 46313711
            234190620 91510243 1382535635</internalNodes>
          <leafValues>
            -3.5322907567024231e-01 3.7899824976921082e-01</leafValues></_>
        <_>
          <internalNodes>
            0 -1 266 -124786438 1356304398 219240560 -1451047549
            1347351543 586814201 17129752 -715787464</internalNodes>
          <leafValues>
            -4.1024091839790344e-01 3.3515202999114990e-01</leafValues></_>
        <_>
          <internalNodes>
            0 -1 241 -204241792 -87083800 437935193 -23403007 1494205963
            -253033797 -19465569 340125507</internalNodes>
          <leafValues>
            -4.9075084924697876e-01 2.7204534411430359e-01</leafValues></_></weakClassifiers></_>
    <!-- stage 6 -->
    <_>
      <maxWeakCount>18</maxWeakCount>
      <stageThreshold>-9.2527467012405396e-01</stageThreshold>
      <weakClassifiers>
        <_>
          <internalNodes>
            0 -1 76 1594547040 1594605198 2072138329 -1079315459
            -354945552 -540029729 -1163658823 -6497828</internalNodes>
          <leafValues>
            -1.1902438849210739e-01 5.6810128688812256e-01</leafValues></_>
        <_>
          <internalNodes>
            0 -1 403 -1366569475 -1364787223 -268701699 -1074086403
            -318779393 -1275400193 -382091797 -1056422803</internalNodes>
          <leafValues>
            -2.8826442360877991e-01 4.2317456007003784e-01</leafValues></_>
        <_>
          <internalNodes>
            0 -1 265 -1363410949 -184553475 -4336 -1280119110 82675383
            1895774079 -571891 -134508632</internalNodes>
          <leafValues>
            -2.8948870301246643e-01 3.9793178439140320e-01</leafValues></_>
        <_>
          <internalNodes>
            0 -1 91 -143518380 1595889501 -777117637 203237401
            1345083839 747843995 -1381463813 687861179</internalNodes>
          <leafValues>
            -3.9788383245468140e-01 2.9177886247634888e-01</leafValues></_>
        <_>
          <internalNodes>
            0 -1 254 -589832228 -645429474 -643020663 -846359147
            139463416 146670011 142756248 173014922</internalNodes>
          <leafValues>
            -4.5884332060813904e-01 2.4801784753799438e-01</leafValues></_>
        <_>
          <internalNodes>
            0 -1 159 1881754794 1436735776 -1705688824 1038168107
            2027880797 1038237736 -1024521589 2009814811</internalNodes>
          <leafValues>
            -4.1944405436515808e-01 2.8286862373352051e-01</leafValues></_>
        <_>
          <internalNodes>
            0 -1 38 -897335137 -153883877 946677621 -233785358
            -621020418 -738490776 1322907113 -76358469</internalNodes>
          <leafValues>
            -2.6870509982109070e-01 4.5606851577758789e-01</leafValues></_>
        <_>
          <internalNodes>
            0 -1 337 217000991 224673390 805223154 -1153615238 502096831
            1012825974 -1746971401 -226507399</internalNodes>
          <leafValues>
            -3.2303610444068909e-01 3.6680853366851807e-01</leafValues></_>
        <_>
          <internalNodes>
            0 -1 433 -857503331 1849828168 -2128879503 -1080391528
            -1878799889 -1461614403 -1459517128 -833892214</internalNodes>
          <leafValues>
            -3.3453324437141418e-01 3.7347924709320068e-01</leafValues></_>
        <_>
          <internalNodes>
            0 -1 373 156940958 1943187751 -670183285 -841999846
            793816206 2098757963 134377499 -1576860030</internalNodes>
          <leafValues>
            -3.8645482063293457e-01 2.9952198266983032e-01</leafValues></_>
        <_>
          <internalNodes>
            0 -1 140 1950779388 1041426908 1124221393 795291662
            1095058024 -1193801303 -1332115269 750729227</internalNodes>
          <leafValues>
            -4.1402408480644226e-01 3.0709594488143921e-01</leafValues></_>
        <_>
          <internalNodes>
            0 -1 116 2061329704 285472055 2015033940 1100019280
            -1148493728 1511830011 -74192856 -1159993013</internalNodes>
          <leafValues>
            -3.9281579852104187e-01 3.2238030433654785e-01</leafValues></_>
        <_>
          <internalNodes>
            0 -1 341 -965743125 -68966419 -320178453 1652021883
            -948566419 -268994561 -268435874 -785908865</internalNodes>
          <leafValues>
            -3.3716475963592529e-01 3.7159210443496704e-01</leafValues></_>
        <_>
          <internalNodes>
            0 -1 410 -1466892551 229160129 -2147317420 -1086439228
            54715080 -1460993920 573192433 214220356</internalNodes>
          <leafValues>
            -4.7724595665931702e-01 2.7452319860458374e-01</leafValues></_>
        <_>
          <internalNodes>
            0 -1 87 1594795520 647798920 128663597 -281198227 1791998507
            -1918658173 -1982678421 474516526</internalNodes>
          <leafValues>
            -5.0742220878601074e-01 2.3553654551506042e-01</leafValues></_>
        <_>
          <internalNodes>
            0 -1 69 -687361677 -617508848 -98555878 -1761401072
            1879314897 -1815803677 -97236296 -1048452220</internalNodes>
          <leafValues>
            -3.4304460883140564e-01 3.6489415168762207e-01</leafValues></_>
        <_>
          <internalNodes>
            0 -1 368 -1365227820 1650060817 -754873481 -1975859166
            -1744088479 -1366323068 -1696646309 -2126614152</internalNodes>
          <leafValues>
            -4.6979019045829773e-01 2.8078058362007141e-01</leafValues></_>
        <_>
          <internalNodes>
            0 -1 23 -50344161 657149943 788442932 980972200 -673245569
            493834103 -476408832 -224940397</internalNodes>
          <leafValues>
            -3.5488045215606689e-01 3.7073945999145508e-01</leafValues></_></weakClassifiers></_>
    <!-- stage 7 -->
    <_>
      <maxWeakCount>18</maxWeakCount>
      <stageThreshold>-1.0047167539596558e+00</stageThreshold>
      <weakClassifiers>
        <_>
          <internalNodes>
            0 -1 299 -1465135142 -18088450 -1912606864 -1359048776
            -405885699 -810911881 70604592 85380496</internalNodes>
          <leafValues>
            -2.8172042965888977e-01 5.1965254545211792e-01</leafValues></_>
        <_>
          <internalNodes>
            0 -1 322 -90384907 -184623919 -2828857 -8989371 2131987709
            1870270696 -279589473 -11611570</internalNodes>
          <leafValues>
            -3.1214800477027893e-01 4.0463733673095703e-01</leafValues></_>
        <_>
          <internalNodes>
            0 -1 101 -266090927 -5168483 -1145295425 1601916479
            -189295632 -117446667 -23814724 -629638662</internalNodes>
          <leafValues>
            -2.6045903563499451e-01 4.3136990070343018e-01</leafValues></_>
        <_>
          <internalNodes>
            0 -1 331 -2136384039 -572682128 -778860237 -57486992
            -542199818 -102004566 -1722254544 -1721610128</internalNodes>
          <leafValues>
            -3.7292569875717163e-01 2.9813891649246216e-01</leafValues></_>
        <_>
          <internalNodes>
            0 -1 386 167494861 1232570463 -335642789 -572795667
            -1943292673 2108359882 -1492914685 -1356881910</internalNodes>
          <leafValues>
            -3.1502023339271545e-01 3.8988205790519714e-01</leafValues></_>
        <_>
          <internalNodes>
            0 -1 182 -1907862489 -1336245133 -1178503841 400299311
            512649916 -1663550336 445693882 -1950824448</internalNodes>
          <leafValues>
            -3.2465931773185730e-01 3.5158360004425049e-01</leafValues></_>
        <_>
          <internalNodes>
            0 -1 413 -875811331 -354909732 -1585435183 -1980592767
            -203240965 -91725365 1023732698 1091235530</internalNodes>
          <leafValues>
            -3.7799197435379028e-01 3.1361991167068481e-01</leafValues></_>
        <_>
          <internalNodes>
            0 -1 121 -223459642 -1213258622 528892332 -574671419
            -1156884998 -483585830 1235966745 1871473112</internalNodes>
          <leafValues>
            -4.3447789549827576e-01 2.9888731241226196e-01</leafValues></_>
        <_>
          <internalNodes>
            0 -1 252 -1416634933 -362502659 -1182657678 1914229066
            449531906 1837287438 1978210501 -689245444</internalNodes>
          <leafValues>
            -4.1654726862907410e-01 2.7136558294296265e-01</leafValues></_>
        <_>
          <internalNodes>
            0 -1 448 1274013563 -1370993540 -1790895791 -1525311630
            1390580216 975935099 44528275 -1019480877</internalNodes>
          <leafValues>
            -3.4990671277046204e-01 3.3820521831512451e-01</leafValues></_>
        <_>
          <internalNodes>
            0 -1 34 -1861869040 1373560830 -1386117668 701156590
            419963041 1084198670 1801492739 1502600890</internalNodes>
          <leafValues>
            -4.5472529530525208e-01 2.7879467606544495e-01</leafValues></_>
        <_>
          <internalNodes>
            0 -1 6 -41252974 1078995364 -1114783342 1267467266 243273136
            -1682308532 780184482 1900347922</internalNodes>
          <leafValues>
            -4.6880903840065002e-01 2.5748476386070251e-01</leafValues></_>
        <_>
          <internalNodes>
            0 -1 335 607290559 534016838 285623006 501090480 173128110
            -1714186074 1514279344 -1915374267</internalNodes>
          <leafValues>
            -3.9752432703971863e-01 3.0542564392089844e-01</leafValues></_>
        <_>
          <internalNodes>
            0 -1 428 -191147565 -1110128397 -1825533423 482000921
            -658085265 956461172 -850937621 -1471502221</internalNodes>
          <leafValues>
            -3.4629318118095398e-01 3.5390636324882507e-01</leafValues></_>
        <_>
          <internalNodes>
            0 -1 195 2013925370 -1111718571 222791536 666958087
            -334359671 -107325953 -2074607224 1977339395</internalNodes>
          <leafValues>
            -3.7751233577728271e-01 3.2107007503509521e-01</leafValues></_>
        <_>
          <internalNodes>
            0 -1 96 1173926325 815009812 562680599 -1946998638 939585726
            503325334 957387083 169601570</internalNodes>
          <leafValues>
            -4.1263070702552795e-01 2.8665074706077576e-01</leafValues></_>
        <_>
          <internalNodes>
            0 -1 315 -996160526 -845135241 -1579354381 -134818062
            -208674699 -1836040174 -863851660 -911058762</internalNodes>
          <leafValues>
            -3.5939794778823853e-01 3.4222355484962463e-01</leafValues></_>
        <_>
          <internalNodes>
            0 -1 139 2018671069 -785086850 -1726908134 1875352967
            -936623696 -1449639232 -262629196 793716827</internalNodes>
          <leafValues>
            -3.4326541423797607e-01 3.5339048504829407e-01</leafValues></_></weakClassifiers></_>
    <!-- stage 8 -->
    <_>
      <maxWeakCount>20</maxWeakCount>
      <stageThreshold>-1.5895241498947144e+00</stageThreshold>
      <weakClassifiers>
        <_>
          <internalNodes>
            0 -1 308 -1229896256 -1124073504 -1350963445 1449047809
            -1079047081 -1629585557 214656943 1161974608</internalNodes>
          <leafValues>
            -2.3788546025753021e-01 5.0107806921005249e-01</leafValues></_>
        <_>
          <internalNodes>
            0 -1 164 -779355393 -143040513 256890567 1039248939
            1430832895 -1667482386 -287373693 -12549</internalNodes>
          <leafValues>
            -1.8144854903221130e-01 5.2127790451049805e-01</leafValues></_>
        <_>
          <internalNodes>
            0 -1 444 -417726979 78529804 -1928638371 -1081418285
            82440411 715080162 -228399638 -1423813574</internalNodes>
          <leafValues>
            -3.3124271035194397e-01 3.3090245723724365e-01</leafValues></_>
        <_>
          <internalNodes>
            0 -1 185 -22080 1933660576 -1876045719 -245796667 1397872782
            -349261301 -1064334195 735002861</internalNodes>
          <leafValues>
            -3.5637629032135010e-01 3.1086334586143494e-01</leafValues></_>
        <_>
          <internalNodes>
            0 -1 320 -884999237 -1357974269 -665268045 -980758420
            -123733161 -1790386102 1955252981 -776807948</internalNodes>
          <leafValues>
            -3.4624373912811279e-01 3.1715860962867737e-01</leafValues></_>
        <_>
          <internalNodes>
            0 -1 439 -1882724373 788568210 -2137681226 433558200
            177661082 170633243 1099686134 301463287</internalNodes>
          <leafValues>
            -3.8448530435562134e-01 2.9850515723228455e-01</leafValues></_>
        <_>
          <internalNodes>
            0 -1 32 82821371 -578861249 234830781 1609268708 1758793182
            -1376103081 -914571815 -1990897391</internalNodes>
          <leafValues>
            -3.0737960338592529e-01 3.7076660990715027e-01</leafValues></_>
        <_>
          <internalNodes>
            0 -1 8 -514716898 1494298881 1602245058 805476434 550045988
            171966491 1628124507 -765198473</internalNodes>
          <leafValues>
            -3.6465254426002502e-01 3.1736412644386292e-01</leafValues></_>
        <_>
          <internalNodes>
            0 -1 378 1580621555 1502762199 285294935 -1330225613
            -250084980 1238616072 -1414412034 136346339</internalNodes>
          <leafValues>
            -4.2489144206047058e-01 2.5412985682487488e-01</leafValues></_>
        <_>
          <internalNodes>
            0 -1 99 -668384228 -593785717 -1054678370 -1086601105
            597285537 -1178941 -1666989368 -1090351364</internalNodes>
          <leafValues>
            -3.5626605153083801e-01 3.2119467854499817e-01</leafValues></_>
        <_>
          <internalNodes>
            0 -1 424 -1531000229 639938074 -268571913 -1818170726
            266135676 -813766849 1568040174 -1355142177</internalNodes>
          <leafValues>
            -3.2702505588531494e-01 3.5631039738655090e-01</leafValues></_>
        <_>
          <internalNodes>
            0 -1 301 -576728852 -1659525831 1243841971 1952444611
            1248111389 171481472 -385858813 -681634802</internalNodes>
          <leafValues>
            -3.5284501314163208e-01 3.3991470932960510e-01</leafValues></_>
        <_>
          <internalNodes>
            0 -1 240 -22402338 1399759190 1396889109 1360146741
            1535182861 933740719 1317210206 724639763</internalNodes>
          <leafValues>
            -4.2467451095581055e-01 2.7732014656066895e-01</leafValues></_>
        <_>
          <internalNodes>
            0 -1 283 -1532241670 545445067 1375990259 817034722
            -1198050603 1655374279 1113655605 -763452640</internalNodes>
          <leafValues>
            -4.9022206664085388e-01 2.4603369832038879e-01</leafValues></_>
        <_>
          <internalNodes>
            0 -1 141 -247201814 -731718846 -1451089691 864237043
            1092468873 -116815566 -359544281 1124816110</internalNodes>
          <leafValues>
            -3.3855903148651123e-01 3.6878728866577148e-01</leafValues></_>
        <_>
          <internalNodes>
            0 -1 440 -771333557 -109066109 -2028883498 575586903
            2086764335 -95283158 -805135361 1887141231</internalNodes>
          <leafValues>
            -3.7849900126457214e-01 3.2817620038986206e-01</leafValues></_>
        <_>
          <internalNodes>
            0 -1 194 464442862 1924002254 543278193 -1290604389
            1497959328 898643976 1891631134 124727859</internalNodes>
          <leafValues>
            -4.2731967568397522e-01 3.0062672495841980e-01</leafValues></_>
        <_>
          <internalNodes>
            0 -1 90 1448590404 403200392 1015132409 168301569 964710560
            -1945956692 240197850 149119131</internalNodes>
          <leafValues>
            -5.5395656824111938e-01 2.0609278976917267e-01</leafValues></_>
        <_>
          <internalNodes>
            0 -1 35 -183296 -787083231 -829325278 -1862069673
            -1714833272 -1928820493 -108517027 1215765823</internalNodes>
          <leafValues>
            -3.6088168621063232e-01 3.3899071812629700e-01</leafValues></_>
        <_>
          <internalNodes>
            0 -1 450 -2061845477 106582311 306237837 2141180880
            -1985107750 -724522480 46356483 -2004936291</internalNodes>
          <leafValues>
            -3.4481948614120483e-01 3.7362971901893616e-01</leafValues></_></weakClassifiers></_>
    <!-- stage 9 -->
    <_>
      <maxWeakCount>20</maxWeakCount>
      <stageThreshold>-1.0943788290023804e+00</stageThreshold>
      <weakClassifiers>
        <_>
          <internalNodes>
            0 -1 187 965553842 709488359 1034437720 774475725 -38207590
            1022119006 1975930843 -1077019139</internalNodes>
          <leafValues>
            -1.3312034308910370e-01 5.4585152864456177e-01</leafValues></_>
        <_>
          <internalNodes>
            0 -1 454 -578818760 1558086767 -897632216 -1985115969
            -622775806 -1059015109 -646511488 -908332518</internalNodes>
          <leafValues>
            -3.0268970131874084e-01 3.8597506284713745e-01</leafValues></_>
        <_>
          <internalNodes>
            0 -1 349 -1903431941 -825842481 -1207844431 -1126774608
            1592238247 -7708565 -373134795 -1338841872</internalNodes>
          <leafValues>
            -4.1269445419311523e-01 2.9111498594284058e-01</leafValues></_>
        <_>
          <internalNodes>
            0 -1 384 -63181125 1606053823 -1422937417 766492655
            -688067349 -215811980 -51393048 -780152965</internalNodes>
          <leafValues>
            -2.3602665960788727e-01 4.4800958037376404e-01</leafValues></_>
        <_>
          <internalNodes>
            0 -1 70 1568139796 -40531777 1011374555 2108846015
            -473595696 -7716200 -1546415380 -97334598</internalNodes>
          <leafValues>
            -3.2109746336936951e-01 3.3654034137725830e-01</leafValues></_>
        <_>
          <internalNodes>
            0 -1 135 2143770434 735171 -1168487396 1345480794 1905602820
            407977000 1507985432 1210821562</internalNodes>
          <leafValues>
            -5.2557253837585449e-01 2.0841902494430542e-01</leafValues></_>
        <_>
          <internalNodes>
            0 -1 237 -1767158570 -235671348 227231489 -1256069855
            -1789949235 -252509809 1698695979 2113786635</internalNodes>
          <leafValues>
            -3.8439497351646423e-01 2.9371470212936401e-01</leafValues></_>
        <_>
          <internalNodes>
            0 -1 419 -416332291 1254795882 -16884103 -1453085656
            -285243153 -877680833 -985099653 -280762102</internalNodes>
          <leafValues>
            -2.9630193114280701e-01 3.6603996157646179e-01</leafValues></_>
        <_>
          <internalNodes>
            0 -1 18 71666318 -153026375 -2083805347 730419772 1949378600
            -1316648694 -1692953254 1074129160</internalNodes>
          <leafValues>
            -4.3527099490165710e-01 2.7619957923889160e-01</leafValues></_>
        <_>
          <internalNodes>
            0 -1 236 1574813547 678719794 1921089990 -1472804498
            -360240377 -884801445 -489097631 -365102256</internalNodes>
          <leafValues>
            -4.0502005815505981e-01 2.6245760917663574e-01</leafValues></_>
        <_>
          <internalNodes>
            0 -1 347 -270084767 -56102663 -1122361 -67790517 -1036555061
            217533682 689138947 -282684790</internalNodes>
          <leafValues>
            -3.1062203645706177e-01 3.5202267765998840e-01</leafValues></_>
        <_>
          <internalNodes>
            0 -1 449 -2054164581 -1441863594 269572402 -825086 247056568
            148035744 -2000058762 -951854089</internalNodes>
          <leafValues>
            -3.5299843549728394e-01 3.0988010764122009e-01</leafValues></_>
        <_>
          <internalNodes>
            0 -1 4 -158173389 -188178306 458428675 94379324 -1317013581
            -177171453 2063641395 554508635</internalNodes>
          <leafValues>
            -3.7013542652130127e-01 3.1165826320648193e-01</leafValues></_>
        <_>
          <internalNodes>
            0 -1 365 -122706183 -537280517 -201460048 -2005946633
            -1810418615 -330963679 -1266811667 -1415053705</internalNodes>
          <leafValues>
            -2.5623336434364319e-01 4.3402376770973206e-01</leafValues></_>
        <_>
          <internalNodes>
            0 -1 147 -1051003261 -1987704639 -921599846 417685195
            1939580039 536912849 1222989043 940672999</internalNodes>
          <leafValues>
            -4.1045659780502319e-01 2.6431080698966980e-01</leafValues></_>
        <_>
          <internalNodes>
            0 -1 447 -1398653475 673843204 554029903 -1223585406
            182061243 -611713009 -1573723033 -1154784678</internalNodes>
          <leafValues>
            -3.4138679504394531e-01 3.2707265019416809e-01</leafValues></_>
        <_>
          <internalNodes>
            0 -1 109 1360479828 990910797 -754673132 1027117321
            -1446039481 -113241970 -1387284340 674987679</internalNodes>
          <leafValues>
            -4.0337762236595154e-01 2.9985117912292480e-01</leafValues></_>
        <_>
          <internalNodes>
            0 -1 117 -1000431536 -268234018 2139412990 -924877218
            -49024776 211746992 -1696556979 1654916104</internalNodes>
          <leafValues>
            -5.5506211519241333e-01 2.1035572886466980e-01</leafValues></_>
        <_>
          <internalNodes>
            0 -1 50 178310672 2048909724 727983825 -1362583143
            -830289569 2067341503 -1319624087 919592987</internalNodes>
          <leafValues>
            -4.7694739699363708e-01 2.3332050442695618e-01</leafValues></_>
        <_>
          <internalNodes>
            0 -1 261 -157286749 1781255171 -237972157 -1329317128
            1085168247 1532074088 1889253937 -329813188</internalNodes>
          <leafValues>
            -3.5943064093589783e-01 3.2792845368385315e-01</leafValues></_></weakClassifiers></_>
    <!-- stage 10 -->
    <_>
      <maxWeakCount>21</maxWeakCount>
      <stageThreshold>-9.6770429611206055e-01</stageThreshold>
      <weakClassifiers>
        <_>
          <internalNodes>
            0 -1 323 -1366306821 -827654160 -16913133 -1124293396
            1995798774 -622601 1593773173 -529336940</internalNodes>
          <leafValues>
            -9.6342094242572784e-02 5.3880268335342407e-01</leafValues></_>
        <_>
          <internalNodes>
            0 -1 300 -597440551 -29364598 -1091875071 -73983 1694156235
            -302063727 -1351129653 -746684557</internalNodes>
          <leafValues>
            -2.4941983819007874e-01 4.0788495540618896e-01</leafValues></_>
        <_>
          <internalNodes>
            0 -1 388 -269563395 -136625779 2074467627 -529178
            -1920210177 580552539 -519121110 -955809782</internalNodes>
          <leafValues>
            -2.7459388971328735e-01 3.8122734427452087e-01</leafValues></_>
        <_>
          <internalNodes>
            0 -1 27 -71699037 -251339862 1508118335 -777387506
            -608456773 -131009553 -369888470 -538199510</internalNodes>
          <leafValues>
            -2.5468447804450989e-01 3.8649341464042664e-01</leafValues></_>
        <_>
          <internalNodes>
            0 -1 213 -86025210 38031638 1367739237 -923486634 691706640
            1243193403 -1794679684 -1028935622</internalNodes>
          <leafValues>
            -4.3054604530334473e-01 2.1623513102531433e-01</leafValues></_>
        <_>
          <internalNodes>
            0 -1 273 -542487821 1574911777 504569161 1341122487 98441021
            -1880211525 1067697595 256470459</internalNodes>
          <leafValues>
            -2.7795490622520447e-01 3.6748486757278442e-01</leafValues></_>
        <_>
          <internalNodes>
            0 -1 476 -466637513 -361795921 1660567094 -228438786
            -50415857 -989954470 -738216604 -84165894</internalNodes>
          <leafValues>
            -3.0552616715431213e-01 3.4221306443214417e-01</leafValues></_>
        <_>
          <internalNodes>
            0 -1 103 -261623297 972431922 1051986303 1071754040
            684415467 -1112215919 207962330 -67506456</internalNodes>
          <leafValues>
            -2.1048256754875183e-01 4.7774517536163330e-01</leafValues></_>
        <_>
          <internalNodes>
            0 -1 5 -1602811223 -1722307433 34992629 -280603568
            1414602891 -1200676694 -947882790 1095966784</internalNodes>
          <leafValues>
            -3.6919155716896057e-01 2.8528618812561035e-01</leafValues></_>
        <_>
          <internalNodes>
            0 -1 84 -1695039091 1563640897 -1073276641 532410733
            537897633 -288160316 814563461 -84914112</internalNodes>
          <leafValues>
            -3.2184246182441711e-01 3.3954137563705444e-01</leafValues></_>
        <_>
          <internalNodes>
            0 -1 150 16904878 -267271953 633851635 -150879103 1498452941
            -1744239448 -658273173 -605339415</internalNodes>
          <leafValues>
            -3.2673838734626770e-01 3.2456636428833008e-01</leafValues></_>
        <_>
          <internalNodes>
            0 -1 316 -835257345 -2046234047 -905382413 429325278
            -1264129173 -969363437 -2080197840 -466434826</internalNodes>
          <leafValues>
            -3.4216096997261047e-01 3.2929605245590210e-01</leafValues></_>
        <_>
          <internalNodes>
            0 -1 372 1623223805 209756557 1497466779 -1934163631
            -1143410730 -1170699665 -1693516806 21977820</internalNodes>
          <leafValues>
            -3.6397218704223633e-01 3.3640661835670471e-01</leafValues></_>
        <_>
          <internalNodes>
            0 -1 416 -144730659 -1844115299 969103768 -774258481
            -534804901 -1448435301 683876864 1081584539</internalNodes>
          <leafValues>
            -3.2951149344444275e-01 3.3399164676666260e-01</leafValues></_>
        <_>
          <internalNodes>
            0 -1 405 -2035507816 818995263 1610838279 -1257017055
            265232090 1817418270 268960163 -2045081598</internalNodes>
          <leafValues>
            -4.3548035621643066e-01 2.5858563184738159e-01</leafValues></_>
        <_>
          <internalNodes>
            0 -1 95 1920466424 910942940 2115188155 386764301 1373992421
            -1161607040 -1543321349 2142073883</internalNodes>
          <leafValues>
            -3.2691079378128052e-01 3.3662292361259460e-01</leafValues></_>
        <_>
          <internalNodes>
            0 -1 89 617492354 1317837550 -2065250205 1675487225
            298417532 730571002 730113576 1088139385</internalNodes>
          <leafValues>
            -4.6539524197578430e-01 2.3683740198612213e-01</leafValues></_>
        <_>
          <internalNodes>
            0 -1 269 -87927076 -195301283 1678009377 -1908744135
            1944553519 1621854771 848169855 -2114845182</internalNodes>
          <leafValues>
            -3.8861936330795288e-01 2.9317992925643921e-01</leafValues></_>
        <_>
          <internalNodes>
            0 -1 304 -1801730341 -587882244 -934028176 -1541750120
            -1073671488 1636163779 -750184172 1632814760</internalNodes>
          <leafValues>
            -4.4625544548034668e-01 2.5879535079002380e-01</leafValues></_>
        <_>
          <internalNodes>
            0 -1 391 -2067616841 -1076395899 223957979 -686498159
            5356170 -7487179 167986886 -1747458515</internalNodes>
          <leafValues>
            -3.3473590016365051e-01 3.4932723641395569e-01</leafValues></_>
        <_>
          <internalNodes>
            0 -1 393 -191405925 1423909330 2014840114 475006317
            1649521483 -300709536 -2122232866 1417077354</internalNodes>
          <leafValues>
            -3.8244593143463135e-01 3.0303850769996643e-01</leafValues></_></weakClassifiers></_>
    <!-- stage 11 -->
    <_>
      <maxWeakCount>20</maxWeakCount>
      <stageThreshold>-1.2378734350204468e+00</stageThreshold>
      <weakClassifiers>
        <_>
          <internalNodes>
            0 -1 334 -16951860 1861730293 2146434847 1451160947
            -403776690 -717295626 -4296875 302149680</internalNodes>
          <leafValues>
            -2.2700296342372894e-01 4.9570077657699585e-01</leafValues></_>
        <_>
          <internalNodes>
            0 -1 166 1352659967 -1142161667 -1364756509 -1846280629
            882339326 -793219322 -174125176 -135307293</internalNodes>
          <leafValues>
            -2.0794448256492615e-01 4.8772430419921875e-01</leafValues></_>
        <_>
          <internalNodes>
            0 -1 156 304229870 816157133 -1323415846 553771529 284711806
            274204825 -865399618 758770195</internalNodes>
          <leafValues>
            -4.9257427453994751e-01 2.0228873193264008e-01</leafValues></_>
        <_>
          <internalNodes>
            0 -1 453 -386203591 2096376637 -1978225316 -2070923705
            -534042343 -289115879 -911239139 -865285492</internalNodes>
          <leafValues>
            -4.0879121422767639e-01 2.4066458642482758e-01</leafValues></_>
        <_>
          <internalNodes>
            0 -1 248 -255920646 -225473178 -1384517872 -642650897
            2004077823 230719485 299358156 -143130647</internalNodes>
          <leafValues>
            -2.8004604578018188e-01 3.4191527962684631e-01</leafValues></_>
        <_>
          <internalNodes>
            0 -1 212 135063042 621400669 -1843367612 1051558749
            1555300722 743115250 1947862173 -1832045611</internalNodes>
          <leafValues>
            -5.2612149715423584e-01 1.7719697952270508e-01</leafValues></_>
        <_>
          <internalNodes>
            0 -1 180 -374027473 -1233069506 -1631710254 -1789984517
            -247944033 -1821068281 452741119 -1727183399</internalNodes>
          <leafValues>
            -2.6218605041503906e-01 3.6315333843231201e-01</leafValues></_>
        <_>
          <internalNodes>
            0 -1 173 -1699844498 296672479 -1966094480 -1511992832
            952206332 1354261025 1392706824 1969742354</internalNodes>
          <leafValues>
            -5.0355112552642822e-01 1.7422296106815338e-01</leafValues></_>
        <_>
          <internalNodes>
            0 -1 317 -13448735 2046189025 -50372617 -69943037 538954993
            771649761 1618816975 -44119346</internalNodes>
          <leafValues>
            -3.0655241012573242e-01 3.1068411469459534e-01</leafValues></_>
        <_>
          <internalNodes>
            0 -1 458 -823753716 1256194196 787816202 126604306
            1078037898 716728559 -384298238 -881067337</internalNodes>
          <leafValues>
            -3.3338010311126709e-01 3.0373561382293701e-01</leafValues></_>
        <_>
          <internalNodes>
            0 -1 353 8173494 2060501938 -2079873117 -292437248 171486942
            -574396607 197600250 -1491107200</internalNodes>
          <leafValues>
            -3.7661045789718628e-01 2.6345312595367432e-01</leafValues></_>
        <_>
          <internalNodes>
            0 -1 228 -5245041 632274935 -419549654 1977923063 742677696
            250943334 -25362697 -951848233</internalNodes>
          <leafValues>
            -3.1300178170204163e-01 3.5003331303596497e-01</leafValues></_>
        <_>
          <internalNodes>
            0 -1 190 -96477781 1397395814 -1877084848 57858672
            2020279985 -1809954281 1918105336 -145530159</internalNodes>
          <leafValues>
            -3.2666888833045959e-01 3.4254622459411621e-01</leafValues></_>
        <_>
          <internalNodes>
            0 -1 41 -754958117 2078240726 687538109 -1129171275
            -212141008 -92490124 -1814546644 -1153835502</internalNodes>
          <leafValues>
            -2.7398520708084106e-01 3.7381795048713684e-01</leafValues></_>
        <_>
          <internalNodes>
            0 -1 467 128128092 642311448 289430013 -1996092620 424476865
            -8470106 -242301974 -1694484428</internalNodes>
          <leafValues>
            -4.8412701487541199e-01 2.2902275621891022e-01</leafValues></_>
        <_>
          <internalNodes>
            0 -1 279 210489322 -796506920 -796409728 -1145904999
            -909418393 1808860002 -1031665239 1397969560</internalNodes>
          <leafValues>
            -4.4367077946662903e-01 2.2633667290210724e-01</leafValues></_>
        <_>
          <internalNodes>
            0 -1 327 -1365522024 -1064320071 791512849 116310403
            1509994695 479961612 1275292281 224154180</internalNodes>
          <leafValues>
            -4.5571795105934143e-01 2.3938682675361633e-01</leafValues></_>
        <_>
          <internalNodes>
            0 -1 455 -269547019 -915525957 2046246844 -1092166092
            -49619589 1046576530 -1942760221 -821297273</internalNodes>
          <leafValues>
            -2.6732867956161499e-01 4.0364193916320801e-01</leafValues></_>
        <_>
          <internalNodes>
            0 -1 394 -1533349159 -1634712907 294244533 1476158357
            -1328769392 -1896150888 -1735988432 -1397487372</internalNodes>
          <leafValues>
            -4.6353626251220703e-01 2.6509281992912292e-01</leafValues></_>
        <_>
          <internalNodes>
            0 -1 37 457602946 914012078 18883213 668906509 1336048446
            1220452971 293903032 -1953535086</internalNodes>
          <leafValues>
            -4.4290181994438171e-01 2.4434208869934082e-01</leafValues></_></weakClassifiers></_>
    <!-- stage 12 -->
    <_>
      <maxWeakCount>18</maxWeakCount>
      <stageThreshold>-1.2686494588851929e+00</stageThreshold>
      <weakClassifiers>
        <_>
          <internalNodes>
            0 -1 330 -835625536 -1090519103 2147421775 -729876655
            2147144031 -1224769921 -1140899995 684336</internalNodes>
          <leafValues>
            -3.1016507744789124e-01 4.8607960343360901e-01</leafValues></_>
        <_>
          <internalNodes>
            0 -1 383 -1936986373 -1164193087 -1672291081 -1260771611
            -1669166273 -1161262959 1786178293 -865056876</internalNodes>
          <leafValues>
            -3.6021587252616882e-01 3.1657305359840393e-01</leafValues></_>
        <_>
          <internalNodes>
            0 -1 60 -298856785 -82211073 662618107 -1775054026 737659456
            -268522280 -59232395 -85807110</internalNodes>
          <leafValues>
            -2.9893454909324646e-01 3.5907331109046936e-01</leafValues></_>
        <_>
          <internalNodes>
            0 -1 297 -1397755013 -2037931549 -686254589 -1160243209
            -1090368732 -1475366717 -140487344 -235866288</internalNodes>
          <leafValues>
            -3.7036126852035522e-01 2.6832038164138794e-01</leafValues></_>
        <_>
          <internalNodes>
            0 -1 274 -900044864 -274632475 -1597106996 -67313271
            -351154808 564887578 1100542157 -18165766</internalNodes>
          <leafValues>
            -3.4511786699295044e-01 2.9482591152191162e-01</leafValues></_>
        <_>
          <internalNodes>
            0 -1 208 -799582853 1370095475 -145008513 -1813365891
            -739397393 -20252082 -91570213 -1060476465</internalNodes>
          <leafValues>
            -2.6576888561248779e-01 4.1848078370094299e-01</leafValues></_>
        <_>
          <internalNodes>
            0 -1 432 734881789 1154391551 -1090568363 -1350905889
            -241436945 -1124350473 -1134305793 -869634865</internalNodes>
          <leafValues>
            -2.9810398817062378e-01 3.4774643182754517e-01</leafValues></_>
        <_>
          <internalNodes>
            0 -1 125 -1997908561 820028319 1123687865 -1088170518
            -998463749 -1092841715 -906887270 -1726829560</internalNodes>
          <leafValues>
            -2.9013237357139587e-01 3.6014619469642639e-01</leafValues></_>
        <_>
          <internalNodes>
            0 -1 472 -705959819 -1025045761 784311858 674090926
            -1126171368 -696914933 -893995664 -1939865697</internalNodes>
          <leafValues>
            -3.2040289044380188e-01 3.3271551132202148e-01</leafValues></_>
        <_>
          <internalNodes>
            0 -1 29 1920197259 -33559029 1005938996 807545714 1316981744
            1601974133 1236661176 -147672570</internalNodes>
          <leafValues>
            -3.1472095847129822e-01 3.2674813270568848e-01</leafValues></_>
        <_>
          <internalNodes>
            0 -1 198 -754798882 608956522 -1255657716 1026799145
            25584511 963608698 -1911682881 1077551763</internalNodes>
          <leafValues>
            -4.3932574987411499e-01 2.6141825318336487e-01</leafValues></_>
        <_>
          <internalNodes>
            0 -1 226 -741281664 -1550118734 -682295733 -1104948398
            2048983118 78159958 -35726846 1146347269</internalNodes>
          <leafValues>
            -4.5811137557029724e-01 2.2307699918746948e-01</leafValues></_>
        <_>
          <internalNodes>
            0 -1 205 1076376243 -1643179854 -1667751800 425527471
            169620911 -1794960633 1328562621 972900861</internalNodes>
          <leafValues>
            -3.6833062767982483e-01 2.8472152352333069e-01</leafValues></_>
        <_>
          <internalNodes>
            0 -1 49 1243016994 1299878863 953239192 177333905 1516774204
            532656193 -380491611 651674682</internalNodes>
          <leafValues>
            -4.6587967872619629e-01 2.3486974835395813e-01</leafValues></_>
        <_>
          <internalNodes>
            0 -1 210 -394594875 -51888363 -463069322 494458428
            2063498488 -21701948 1793363887 -60047509</internalNodes>
          <leafValues>
            -2.4026986956596375e-01 4.3604230880737305e-01</leafValues></_>
        <_>
          <internalNodes>
            0 -1 399 -728258917 -555825681 -2079732079 720054004
            2034869023 -195559414 -783639822 -143132157</internalNodes>
          <leafValues>
            -3.1408193707466125e-01 3.3201062679290771e-01</leafValues></_>
        <_>
          <internalNodes>
            0 -1 412 -1371861071 -843843 1056914352 -1616199701
            -169622021 -193745123 -1119668824 -179507858</internalNodes>
          <leafValues>
            -2.8625372052192688e-01 3.7985688447952271e-01</leafValues></_>
        <_>
          <internalNodes>
            0 -1 462 -1948722339 1869108566 -347281057 -195844784
            685922495 -303103510 18330098 -1341032221</internalNodes>
          <leafValues>
            -3.4164890646934509e-01 3.2851129770278931e-01</leafValues></_></weakClassifiers></_>
    <!-- stage 13 -->
    <_>
      <maxWeakCount>19</maxWeakCount>
      <stageThreshold>-1.1866456270217896e+00</stageThreshold>
      <weakClassifiers>
        <_>
          <internalNodes>
            0 -1 80 -1934778 -93859098 -1117640545 -85024577 1566955727
            -50340385 1861206024 -343914292</internalNodes>
          <leafValues>
            -6.2004663050174713e-02 5.5330741405487061e-01</leafValues></_>
        <_>
          <internalNodes>
            0 -1 134 -539003481 1355545423 -10585034 277932282
            -1115924155 1477752602 -1074393992 -394270726</internalNodes>
          <leafValues>
            -2.9590615630149841e-01 3.4689223766326904e-01</leafValues></_>
        <_>
          <internalNodes>
            0 -1 122 1432745751 -80660703 1022492671 532521510
            -857366595 -1128534224 -1204420609 -1100520306</internalNodes>
          <leafValues>
            -2.3819485306739807e-01 3.8978049159049988e-01</leafValues></_>
        <_>
          <internalNodes>
            0 -1 318 -1901373645 -1398290984 -1793132173 -290662260
            -191995627 -389701627 2077975060 -1268497808</internalNodes>
          <leafValues>
            -4.3999096751213074e-01 2.1618238091468811e-01</leafValues></_>
        <_>
          <internalNodes>
            0 -1 206 2077701107 1212371423 -737458082 1365212831
            421111799 944767363 -494280303 -34216985</internalNodes>
          <leafValues>
            -2.9236936569213867e-01 3.1365841627120972e-01</leafValues></_>
        <_>
          <internalNodes>
            0 -1 71 1443627532 -732146682 881856253 378341229 -18699446
            -97451499 825572351 2111793164</internalNodes>
          <leafValues>
            -4.2051053047180176e-01 2.2637636959552765e-01</leafValues></_>
        <_>
          <internalNodes>
            0 -1 411 -68179063 -1503297 -1594425420 683520432 -597836775
            -1306678216 -538579832 -175376881</internalNodes>
          <leafValues>
            -2.7689456939697266e-01 3.3464428782463074e-01</leafValues></_>
        <_>
          <internalNodes>
            0 -1 418 -340096931 1760194714 -1877663462 -1368157637
            243974395 245893672 588171851 -1960147958</internalNodes>
          <leafValues>
            -3.3962860703468323e-01 2.8129985928535461e-01</leafValues></_>
        <_>
          <internalNodes>
            0 -1 235 -8419952 -1075080987 57398597 -765487933 1342702042
            579584526 1290422550 -6732117</internalNodes>
          <leafValues>
            -3.1590569019317627e-01 3.0438858270645142e-01</leafValues></_>
        <_>
          <internalNodes>
            0 -1 351 -203202565 1861222253 -546308665 -1569521668
            -276854851 -285233155 -1090765060 -670236752</internalNodes>
          <leafValues>
            -3.0851921439170837e-01 3.2417431473731995e-01</leafValues></_>
        <_>
          <internalNodes>
            0 -1 176 -1905328422 1994372847 -736217608 286515247
            218114875 -189030216 123865613 1080689442</internalNodes>
          <leafValues>
            -3.7546354532241821e-01 2.8970369696617126e-01</leafValues></_>
        <_>
          <internalNodes>
            0 -1 339 1949724627 835734195 -1111404209 344207594
            1328837943 1264820503 -1983415938 -1499401550</internalNodes>
          <leafValues>
            -4.0224516391754150e-01 2.6351234316825867e-01</leafValues></_>
        <_>
          <internalNodes>
            0 -1 63 1376000290 1041062340 -1487663597 705806593
            1275922098 486426680 1966345404 79358619</internalNodes>
          <leafValues>
            -5.5094945430755615e-01 1.8643625080585480e-01</leafValues></_>
        <_>
          <internalNodes>
            0 -1 397 -1450673411 -2147431984 -1206987299 -69963560
            -1856998668 -360011132 -1835075083 -1381760716</internalNodes>
          <leafValues>
            -4.6185830235481262e-01 2.1722839772701263e-01</leafValues></_>
        <_>
          <internalNodes>
            0 -1 61 97112758 1888694949 1074598735 466845967 19109869
            676002189 1224251593 226042688</internalNodes>
          <leafValues>
            -4.0694326162338257e-01 2.5829261541366577e-01</leafValues></_>
        <_>
          <internalNodes>
            0 -1 377 -1043459809 1970972822 -1861185225 -208494026
            1197652062 1866472510 1275615018 -1907637342</internalNodes>
          <leafValues>
            -3.1682038307189941e-01 3.2833468914031982e-01</leafValues></_>
        <_>
          <internalNodes>
            0 -1 189 -16788191 1254291728 2118102751 -794807201
            1968493833 -850461356 -1451966856 -1013732610</internalNodes>
          <leafValues>
            -2.7044275403022766e-01 3.7994655966758728e-01</leafValues></_>
        <_>
          <internalNodes>
            0 -1 225 -134233362 -536871185 2044518204 -142633067
            -2097575428 1854222334 -886234369 -1345388277</internalNodes>
          <leafValues>
            -2.5001284480094910e-01 4.1352090239524841e-01</leafValues></_>
        <_>
          <internalNodes>
            0 -1 114 705669 -1299000485 290510265 466163932 635293
            346958361 1435179225 956307564</internalNodes>
          <leafValues>
            -4.3378257751464844e-01 2.4171943962574005e-01</leafValues></_></weakClassifiers></_>
    <!-- stage 14 -->
    <_>
      <maxWeakCount>22</maxWeakCount>
      <stageThreshold>-1.0334415435791016e+00</stageThreshold>
      <weakClassifiers>
        <_>
          <internalNodes>
            0 -1 256 -25273780 -11014591 -50561331 1014199569 -17113202
            -436207642 -285701045 1949321738</internalNodes>
          <leafValues>
            -6.4000003039836884e-02 5.3200000524520874e-01</leafValues></_>
        <_>
          <internalNodes>
            0 -1 343 -56741893 -38098945 1035439808 637167609
            -1264578783 -722536663 -721975396 -1248722953</internalNodes>
          <leafValues>
            -2.7914220094680786e-01 3.3954763412475586e-01</leafValues></_>
        <_>
          <internalNodes>
            0 -1 295 -134746431 1926988965 -23005798 -538913941
            -302043736 -54536848 -1500556881 -34416673</internalNodes>
          <leafValues>
            -2.4015568196773529e-01 3.7706589698791504e-01</leafValues></_>
        <_>
          <internalNodes>
            0 -1 48 1439036789 16891874 -109182981 800258362 -178940417
            -136495118 1230862299 -1997826946</internalNodes>
          <leafValues>
            -2.7978363633155823e-01 3.3141109347343445e-01</leafValues></_>
        <_>
          <internalNodes>
            0 -1 214 1344993278 1519051087 -1600269084 437383355
            269291326 -532647221 -528480109 1030464419</internalNodes>
          <leafValues>
            -3.9863026142120361e-01 2.1185056865215302e-01</leafValues></_>
        <_>
          <internalNodes>
            0 -1 268 -1752433669 -1427374231 -2091667021 -1337812494
            -1173206923 1085819051 688072753 -420322392</internalNodes>
          <leafValues>
            -3.4087732434272766e-01 2.7061370015144348e-01</leafValues></_>
        <_>
          <internalNodes>
            0 -1 258 1863230999 522715257 1073778358 2047152023
            -1680936481 584745969 75957751 -1612332571</internalNodes>
          <leafValues>
            -3.0604001879692078e-01 3.1921803951263428e-01</leafValues></_>
        <_>
          <internalNodes>
            0 -1 426 -1598658357 2123849819 -1837084330 406737651
            -351491809 -95608799 -1400198902 135455331</internalNodes>
          <leafValues>
            -3.8071197271347046e-01 2.7037072181701660e-01</leafValues></_>
        <_>
          <internalNodes>
            0 -1 238 -1263973264 -5518865 708022017 -308157527
            -730844165 569303430 1175916834 2099369985</internalNodes>
          <leafValues>
            -4.4175249338150024e-01 2.0796047151088715e-01</leafValues></_>
        <_>
          <internalNodes>
            0 -1 457 753443321 1311408536 1366495533 495489164
            -1410663973 -1287107837 218147066 -1372928214</internalNodes>
          <leafValues>
            -3.6781394481658936e-01 2.4890887737274170e-01</leafValues></_>
        <_>
          <internalNodes>
            0 -1 26 -897536110 583452638 -481605871 -1496141090
            -1421963359 1560774824 -1605883317 1373354750</internalNodes>
          <leafValues>
            -4.1857621073722839e-01 2.3040045797824860e-01</leafValues></_>
        <_>
          <internalNodes>
            0 -1 120 2004352981 928374484 -33752141 -1087685361
            2035291469 -121096485 -185263501 779859643</internalNodes>
          <leafValues>
            -2.3263108730316162e-01 4.2622554302215576e-01</leafValues></_>
        <_>
          <internalNodes>
            0 -1 357 583996775 1171008966 170887900 -532901808 9375430
            1263044640 2113943 869333247</internalNodes>
          <leafValues>
            -4.4367998838424683e-01 2.1237395703792572e-01</leafValues></_>
        <_>
          <internalNodes>
            0 -1 124 2005737749 410267909 1041505886 -1122607187
            1539844591 -94758243 2074090239 -1475319512</internalNodes>
          <leafValues>
            -3.1168216466903687e-01 3.1293308734893799e-01</leafValues></_>
        <_>
          <internalNodes>
            0 -1 128 -1139649268 -199329245 335477439 -142873741
            2129667210 -923548120 -2145159274 -711772131</internalNodes>
          <leafValues>
            -2.8048491477966309e-01 3.4867912530899048e-01</leafValues></_>
        <_>
          <internalNodes>
            0 -1 306 -1769220391 1699562375 -662449869 -362113198
            -332877343 25266713 1417678704 -260265708</internalNodes>
          <leafValues>
            -4.0179046988487244e-01 2.4232853949069977e-01</leafValues></_>
        <_>
          <internalNodes>
            0 -1 45 285401856 -1706915724 12863640 600655592 391036528
            805450784 470470152 -519147278</internalNodes>
          <leafValues>
            -5.7390761375427246e-01 1.8740150332450867e-01</leafValues></_>
        <_>
          <internalNodes>
            0 -1 184 1937669479 317605376 1548111238 -786533102
            1392150644 268632066 1744959116 1076083575</internalNodes>
          <leafValues>
            -4.0184184908866882e-01 2.4644185602664948e-01</leafValues></_>
        <_>
          <internalNodes>
            0 -1 127 2146238636 -467431676 1032439085 -1595649528
            -1534600465 -1455423296 -742480600 1289752495</internalNodes>
          <leafValues>
            -4.3072202801704407e-01 2.4628983438014984e-01</leafValues></_>
        <_>
          <internalNodes>
            0 -1 247 -383204293 -1616320127 -1348149307 2112121603
            1960017034 -788306876 1466254605 -279978037</internalNodes>
          <leafValues>
            -2.7953162789344788e-01 3.8190910220146179e-01</leafValues></_>
        <_>
          <internalNodes>
            0 -1 14 -46661941 -1951794988 1742895734 -966273477
            1286786779 1660190658 205309155 -721435213</internalNodes>
          <leafValues>
            -1.9412331283092499e-01 4.7946491837501526e-01</leafValues></_>
        <_>
          <internalNodes>
            0 -1 179 1890047613 2130708272 -1962968027 -1618651923
            -1873201560 953426240 1014404782 1327223175</internalNodes>
          <leafValues>
            -2.4823841452598572e-01 3.9579430222511292e-01</leafValues></_></weakClassifiers></_>
    <!-- stage 15 -->
    <_>
      <maxWeakCount>21</maxWeakCount>
      <stageThreshold>-9.1820806264877319e-01</stageThreshold>
      <weakClassifiers>
        <_>
          <internalNodes>
            0 -1 352 -261007907 581695457 2130599739 -688764955
            -336032182 -450105477 -881148033 1091174624</internalNodes>
          <leafValues>
            -6.1657033860683441e-02 5.4230380058288574e-01</leafValues></_>
        <_>
          <internalNodes>
            0 -1 53 200216403 -1149504077 905920237 -1162676045
            -537412751 -1382318338 2020601073 -69072006</internalNodes>
          <leafValues>
            -2.3764702677726746e-01 3.6569315195083618e-01</leafValues></_>
        <_>
          <internalNodes>
            0 -1 296 679671802 -266668035 -1567628768 -1074083685
            -2100942723 -631619512 1213418541 1164865816</internalNodes>
          <leafValues>
            -4.4605991244316101e-01 1.9926296174526215e-01</leafValues></_>
        <_>
          <internalNodes>
            0 -1 332 -2002695719 -59015043 -1993349805 -1601252415
            -2104826154 -1448373729 -1576990680 1430540608</internalNodes>
          <leafValues>
            -3.9314952492713928e-01 2.1268858015537262e-01</leafValues></_>
        <_>
          <internalNodes>
            0 -1 287 -672673400 -1146638160 -181422202 -176708346
            -2077249602 686678201 -1040021225 -1076980970</internalNodes>
          <leafValues>
            -2.9208537936210632e-01 3.2150018215179443e-01</leafValues></_>
        <_>
          <internalNodes>
            0 -1 249 -46969349 1493429695 -1385189527 -312906157
            -949531155 1149532140 -445425272 -740689142</internalNodes>
          <leafValues>
            -2.5058934092521667e-01 3.8543450832366943e-01</leafValues></_>
        <_>
          <internalNodes>
            0 -1 398 1914433275 -593042433 -289472783 145747574
            -1630208903 1601993821 -1260929845 -2027423945</internalNodes>
          <leafValues>
            -2.6906818151473999e-01 3.3760303258895874e-01</leafValues></_>
        <_>
          <internalNodes>
            0 -1 220 -1314180514 1922167016 688341569 1038210089
            1267908477 816994944 -754775521 1074379011</internalNodes>
          <leafValues>
            -3.8145637512207031e-01 2.5580790638923645e-01</leafValues></_>
        <_>
          <internalNodes>
            0 -1 66 -17321217 -1849081158 -1732941483 167274153
            -1208376911 -5177346 -227195913 -309483926</internalNodes>
          <leafValues>
            -2.6271173357963562e-01 3.6424532532691956e-01</leafValues></_>
        <_>
          <internalNodes>
            0 -1 463 -1409287245 697710270 971472319 -738198608
            654167727 -1899108492 737877642 -2109241427</internalNodes>
          <leafValues>
            -2.8187334537506104e-01 3.3870193362236023e-01</leafValues></_>
        <_>
          <internalNodes>
            0 -1 310 -402673857 1593729718 -84643996 1171925438
            -900875250 1478778884 2087614463 -73927737</internalNodes>
          <leafValues>
            -2.0049324631690979e-01 4.3984118103981018e-01</leafValues></_>
        <_>
          <internalNodes>
            0 -1 282 -2032208030 114577895 2030145667 -1365454546
            -1421688761 -509441893 -1098769916 -565950368</internalNodes>
          <leafValues>
            -5.0099563598632813e-01 1.8795986473560333e-01</leafValues></_>
        <_>
          <internalNodes>
            0 -1 291 -10528512 -116169848 9245266 -522076144 -1441332885
            -1458109910 -354217172 285074155</internalNodes>
          <leafValues>
            -3.9161121845245361e-01 2.6044231653213501e-01</leafValues></_>
        <_>
          <internalNodes>
            0 -1 202 1324261982 -182566514 -601452483 1696579884
            -937317416 -190726123 -819256114 1693802511</internalNodes>
          <leafValues>
            -3.4201365709304810e-01 2.9270175099372864e-01</leafValues></_>
        <_>
          <internalNodes>
            0 -1 474 -957715733 -234401237 1074180551 1610760302
            -497513621 -1157627847 1672210955 201783962</internalNodes>
          <leafValues>
            -3.4418177604675293e-01 2.8267645835876465e-01</leafValues></_>
        <_>
          <internalNodes>
            0 -1 193 1353135064 1043051087 -502203002 2063851866
            1140920605 -201190776 1660487696 -1431065693</internalNodes>
          <leafValues>
            -3.2262188196182251e-01 3.1053933501243591e-01</leafValues></_>
        <_>
          <internalNodes>
            0 -1 415 -1391210503 -87125767 -1902961987 -2978659
            -402548485 2059379097 -1187654901 118069420</internalNodes>
          <leafValues>
            -3.1538957357406616e-01 3.1482329964637756e-01</leafValues></_>
        <_>
          <internalNodes>
            0 -1 112 1920335813 978108316 1979671875 1831746615
            366416318 -1077119236 -1392816773 1802555547</internalNodes>
          <leafValues>
            -2.9255291819572449e-01 3.4427258372306824e-01</leafValues></_>
        <_>
          <internalNodes>
            0 -1 19 -769398350 1221493327 892307657 -644040862
            -1558206048 1247331482 -91776240 416438307</internalNodes>
          <leafValues>
            -3.6530032753944397e-01 2.8221973776817322e-01</leafValues></_>
        <_>
          <internalNodes>
            0 -1 246 884170602 -846498818 -1387167727 529155665
            -891185295 677532873 1950436309 -402933341</internalNodes>
          <leafValues>
            -3.1871008872985840e-01 3.2655394077301025e-01</leafValues></_>
        <_>
          <internalNodes>
            0 -1 118 2000148365 -1705026849 2013092053 1109983198
            -545999616 -601877418 1045858408 -1187279462</internalNodes>
          <leafValues>
            -2.9058092832565308e-01 3.6105147004127502e-01</leafValues></_></weakClassifiers></_>
    <!-- stage 16 -->
    <_>
      <maxWeakCount>23</maxWeakCount>
      <stageThreshold>-8.1191599369049072e-01</stageThreshold>
      <weakClassifiers>
        <_>
          <internalNodes>
            0 -1 309 -17608228 2126771777 2147397213 -755698685 -75554
            -1419771913 -100732081 -1494059422</internalNodes>
          <leafValues>
            -3.1208790838718414e-02 5.5597317218780518e-01</leafValues></_>
        <_>
          <internalNodes>
            0 -1 42 -839988387 -22571 -1409656740 -94220461 -1123071419
            -1075981219 1834983416 -16057446</internalNodes>
          <leafValues>
            -2.3348718881607056e-01 3.8402152061462402e-01</leafValues></_>
        <_>
          <internalNodes>
            0 -1 344 -1364471813 -21005592 -1074073872 -205124
            -814813511 -847382915 79048377 -2013856521</internalNodes>
          <leafValues>
            -2.7653560042381287e-01 3.3707505464553833e-01</leafValues></_>
        <_>
          <internalNodes>
            0 -1 441 -625244935 -1870886721 918470300 229484393
            -59007635 -304341636 -1460404292 -589451649</internalNodes>
          <leafValues>
            -2.3874145746231079e-01 3.4703189134597778e-01</leafValues></_>
        <_>
          <internalNodes>
            0 -1 92 1292642978 1918207164 -1794986407 713894033
            1895853979 1232743354 -466876327 66846233</internalNodes>
          <leafValues>
            -4.4825738668441772e-01 1.7143529653549194e-01</leafValues></_>
        <_>
          <internalNodes>
            0 -1 305 -1366734340 -1260527401 -1752135373 -602815432
            -1018756299 -377036593 -1365681596 1095680304</internalNodes>
          <leafValues>
            -4.0384909510612488e-01 2.1533194184303284e-01</leafValues></_>
        <_>
          <internalNodes>
            0 -1 324 -85219859 -39069449 -17367577 -144841660 -432101743
            754207227 -2014738878 -8413558</internalNodes>
          <leafValues>
            -2.6069286465644836e-01 3.5258692502975464e-01</leafValues></_>
        <_>
          <internalNodes>
            0 -1 20 -1548628797 -1996308366 -805206603 -808647211
            1771303073 1222314126 1414537381 1430733505</internalNodes>
          <leafValues>
            -3.4275349974632263e-01 2.6791650056838989e-01</leafValues></_>
        <_>
          <internalNodes>
            0 -1 181 -1029028903 -672536815 716912463 2009274971
            -473118981 -1144277588 1598852783 2005201193</internalNodes>
          <leafValues>
            -2.8669449687004089e-01 3.2074457406997681e-01</leafValues></_>
        <_>
          <internalNodes>
            0 -1 215 1487598298 1235981303 636027393 1034014475
            1490866931 -1264565977 1647247507 1183412664</internalNodes>
          <leafValues>
            -3.8261359930038452e-01 2.3876029253005981e-01</leafValues></_>
        <_>
          <internalNodes>
            0 -1 422 -1917297425 36569374 9003407 2119311619 260825342
            714969099 -1701436444 -1893013538</internalNodes>
          <leafValues>
            -3.0387902259826660e-01 2.9198876023292542e-01</leafValues></_>
        <_>
          <internalNodes>
            0 -1 157 1145071485 -1223625963 1343176755 1835355040
            -935306792 -1097465853 -1471313592 210333315</internalNodes>
          <leafValues>
            -3.6543029546737671e-01 2.3937408626079559e-01</leafValues></_>
        <_>
          <internalNodes>
            0 -1 107 -67676924 -589783367 2080276228 1362165754
            -1076035712 -1667219495 -1083245846 -540142629</internalNodes>
          <leafValues>
            -2.7136588096618652e-01 3.4660881757736206e-01</leafValues></_>
        <_>
          <internalNodes>
            0 -1 234 -16783926 1115906398 -217506421 -536809122
            1149382912 -819749759 1217001885 553571294</internalNodes>
          <leafValues>
            -3.6193108558654785e-01 2.6250955462455750e-01</leafValues></_>
        <_>
          <internalNodes>
            0 -1 423 -2147420613 -2046331769 1762095583 -572538113
            -1702781025 963228655 107233376 108087760</internalNodes>
          <leafValues>
            -4.3719270825386047e-01 2.1252320706844330e-01</leafValues></_>
        <_>
          <internalNodes>
            0 -1 146 1733742449 -1068495127 498527473 -575537427
            -1824139856 1856569180 -1305096303 -50496118</internalNodes>
          <leafValues>
            -2.3837134242057800e-01 3.8069877028465271e-01</leafValues></_>
        <_>
          <internalNodes>
            0 -1 461 1240163724 172654738 1099775030 -1420191117
            -867967811 261685467 -2111753950 1075568318</internalNodes>
          <leafValues>
            -4.4123190641403198e-01 2.1821673214435577e-01</leafValues></_>
        <_>
          <internalNodes>
            0 -1 57 -549409806 -639024550 1935230888 -2085964809
            -1450594157 -339079989 584409688 1124352070</internalNodes>
          <leafValues>
            -4.1728967428207397e-01 2.2990107536315918e-01</leafValues></_>
        <_>
          <internalNodes>
            0 -1 370 -853381891 -1938088732 -2011833505 -599046910
            537442804 -1162213238 1665380177 -1688681536</internalNodes>
          <leafValues>
            -3.3675375580787659e-01 2.7270960807800293e-01</leafValues></_>
        <_>
          <internalNodes>
            0 -1 142 46164806 1437258422 408912206 -1880241245 748886323
            833167536 310577881 1682471041</internalNodes>
          <leafValues>
            -4.5776653289794922e-01 2.1139924228191376e-01</leafValues></_>
        <_>
          <internalNodes>
            0 -1 275 -20986897 -1888950699 2129444563 -558713102
            -285907465 -1627626125 -118045444 1833172606</internalNodes>
          <leafValues>
            -2.7331805229187012e-01 3.5033071041107178e-01</leafValues></_>
        <_>
          <internalNodes>
            0 -1 153 1374550318 1892627374 -673844486 -1324224125
            293688962 -199491550 -657453621 477989555</internalNodes>
          <leafValues>
            -3.3420994877815247e-01 2.7582010626792908e-01</leafValues></_>
        <_>
          <internalNodes>
            0 -1 185 -859102848 1663042176 -153897851 1617481347
            911607335 -1398144926 1217928489 785241071</internalNodes>
          <leafValues>
            -4.3588536977767944e-01 2.1313537657260895e-01</leafValues></_></weakClassifiers></_>
    <!-- stage 17 -->
    <_>
      <maxWeakCount>22</maxWeakCount>
      <stageThreshold>-1.1517393589019775e+00</stageThreshold>
      <weakClassifiers>
        <_>
          <internalNodes>
            0 -1 186 -553664320 1962156036 500106476 -857914164
            1373557968 -278937352 1609833612 -856913720</internalNodes>
          <leafValues>
            -2.1370309591293335e-01 4.7381651401519775e-01</leafValues></_>
        <_>
          <internalNodes>
            0 -1 307 -553657089 1728052213 -49869 -1138065871 -16797743
            -51150977 -562610372 -51331816</internalNodes>
          <leafValues>
            -2.3198848962783813e-01 4.0068081021308899e-01</leafValues></_>
        <_>
          <internalNodes>
            0 -1 288 -582282761 663195761 -2008382226 577537667
            -576798710 51611052 -10551517 54710515</internalNodes>
          <leafValues>
            -3.2652878761291504e-01 2.5386625528335571e-01</leafValues></_>
        <_>
          <internalNodes>
            0 -1 82 1400337279 458592055 -266465 -273928473 539316623
            -13224649 207385851 -319327177</internalNodes>
          <leafValues>
            -2.1111594140529633e-01 4.1126304864883423e-01</leafValues></_>
        <_>
          <internalNodes>
            0 -1 104 6472189 -1223146579 558420927 -1090022178 240419749
            -1096799743 1104360953 17973280</internalNodes>
          <leafValues>
            -3.9896780252456665e-01 2.1608525514602661e-01</leafValues></_>
        <_>
          <internalNodes>
            0 -1 477 -288370053 1616331206 -921695401 1650885246
            997386613 176435464 1285674804 -470046241</internalNodes>
          <leafValues>
            -3.2468003034591675e-01 2.6157009601593018e-01</leafValues></_>
        <_>
          <internalNodes>
            0 -1 52 2051288576 1003344671 1830093973 -1407783795
            1112297976 113682910 -469629701 -274999121</internalNodes>
          <leafValues>
            -3.4248453378677368e-01 2.4614697694778442e-01</leafValues></_>
        <_>
          <internalNodes>
            0 -1 436 660655580 949637914 -1069439729 -1291593454
            168367103 -634673711 307497215 -1171599858</internalNodes>
          <leafValues>
            -3.5616233944892883e-01 2.4076043069362640e-01</leafValues></_>
        <_>
          <internalNodes>
            0 -1 294 1781454331 -4554757 -357045008 -706064772
            -563087493 -815370387 1148440061 -1753031106</internalNodes>
          <leafValues>
            -2.5635498762130737e-01 3.4173473715782166e-01</leafValues></_>
        <_>
          <internalNodes>
            0 -1 313 2138109249 -168176159 1869642827 -394291072
            1685708639 -184583046 -330047491 -109581941</internalNodes>
          <leafValues>
            -2.7073082327842712e-01 3.3961915969848633e-01</leafValues></_>
        <_>
          <internalNodes>
            0 -1 31 84607819 2050675330 667029538 654391300 415301707
            820027649 717890120 2072770106</internalNodes>
          <leafValues>
            -3.6144092679023743e-01 2.5970789790153503e-01</leafValues></_>
        <_>
          <internalNodes>
            0 -1 177 1715897471 1576157470 1396790544 -821739256
            1080688786 -1173331673 -1447486978 688636454</internalNodes>
          <leafValues>
            -3.0340653657913208e-01 2.9419776797294617e-01</leafValues></_>
        <_>
          <internalNodes>
            0 -1 100 -387476833 993701423 637177781 -1076654081
            -1520922415 -50406243 2003877804 -327749</internalNodes>
          <leafValues>
            -1.9399774074554443e-01 4.7760021686553955e-01</leafValues></_>
        <_>
          <internalNodes>
            0 -1 2 -616171845 1133575080 548829723 1503127100 1379126743
            826140305 643087426 -1051199841</internalNodes>
          <leafValues>
            -2.1511454880237579e-01 4.0454375743865967e-01</leafValues></_>
        <_>
          <internalNodes>
            0 -1 385 -1504590371 -1902624504 -602966521 -268825215
            1351030463 315230375 -838385035 84551392</internalNodes>
          <leafValues>
            -4.2873829603195190e-01 2.1590489149093628e-01</leafValues></_>
        <_>
          <internalNodes>
            0 -1 132 1297569060 1085050704 -1073709987 1082692636
            -1977324779 1142100112 -2004707140 3359312</internalNodes>
          <leafValues>
            -5.1266610622406006e-01 1.8755178153514862e-01</leafValues></_>
        <_>
          <internalNodes>
            0 -1 22 1929370575 1930896671 1928969083 845298977 -9793472
            -1187743146 -491903464 -314604281</internalNodes>
          <leafValues>
            -2.7081775665283203e-01 3.6441364884376526e-01</leafValues></_>
        <_>
          <internalNodes>
            0 -1 356 -1483035869 1925743312 -72946818 860732096
            121634292 380022642 889008635 -1244295177</internalNodes>
          <leafValues>
            -2.9654407501220703e-01 3.4744960069656372e-01</leafValues></_>
        <_>
          <internalNodes>
            0 -1 369 -1542845047 -648466947 -78084 -1847809 1457491621
            -1342268035 219491586 -763394261</internalNodes>
          <leafValues>
            -2.6865917444229126e-01 3.5364460945129395e-01</leafValues></_>
        <_>
          <internalNodes>
            0 -1 292 -165269781 -1213566996 -269566109 1830894192
            -559241220 -1219756052 -454703646 -1034760549</internalNodes>
          <leafValues>
            -2.8327324986457825e-01 3.4434846043586731e-01</leafValues></_>
        <_>
          <internalNodes>
            0 -1 278 -887953526 -757688946 -1472082863 831704312
            -54378943 1115818265 -2067380203 930794136</internalNodes>
          <leafValues>
            -4.3378934264183044e-01 2.4333798885345459e-01</leafValues></_>
        <_>
          <internalNodes>
            0 -1 211 -86282848 -1188663513 1909493818 -892256654
            718019043 545532032 312990905 -1043910976</internalNodes>
          <leafValues>
            -3.6904793977737427e-01 2.6222652196884155e-01</leafValues></_></weakClassifiers></_>
    <!-- stage 18 -->
    <_>
      <maxWeakCount>23</maxWeakCount>
      <stageThreshold>-9.4391053915023804e-01</stageThreshold>
      <weakClassifiers>
        <_>
          <internalNodes>
            0 -1 350 -1970606086 783593192 -1434784028 -1930252562
            -453188353 511063103 1114885712 1347552532</internalNodes>
          <leafValues>
            -2.9019609093666077e-01 4.6104416251182556e-01</leafValues></_>
        <_>
          <internalNodes>
            0 -1 79 -177997825 1680160177 -8945693 -6637910 -48439617
            -33687105 -69468291 -352585970</internalNodes>
          <leafValues>
            -1.8820403516292572e-01 4.4247242808341980e-01</leafValues></_>
        <_>
          <internalNodes>
            0 -1 65 -35596640 -1274686838 1028663145 -1677665406
            -1693722383 -1864321637 855928324 1093057602</internalNodes>
          <leafValues>
            -4.4973391294479370e-01 1.8773552775382996e-01</leafValues></_>
        <_>
          <internalNodes>
            0 -1 253 -138412053 -473533497 1939091923 1881849242
            2038442001 932720650 2125663381 -420836552</internalNodes>
          <leafValues>
            -3.1025895476341248e-01 2.5520429015159607e-01</leafValues></_>
        <_>
          <internalNodes>
            0 -1 404 -269513235 -537121746 -1077954839 -1175722819
            -1209164645 -89419855 -299268309 -380926450</internalNodes>
          <leafValues>
            -1.9688045978546143e-01 4.2974185943603516e-01</leafValues></_>
        <_>
          <internalNodes>
            0 -1 230 -1769291712 -125718203 774440963 -1178507989
            -1604463504 281965664 -681639383 -378924249</internalNodes>
          <leafValues>
            -4.1246315836906433e-01 2.1395412087440491e-01</leafValues></_>
        <_>
          <internalNodes>
            0 -1 244 -1426426169 1592187425 -169429033 -885966537
            -122749190 -1345030412 -1560814338 -922471905</internalNodes>
          <leafValues>
            -2.7013716101646423e-01 3.1389209628105164e-01</leafValues></_>
        <_>
          <internalNodes>
            0 -1 290 -2116938477 293085036 1341091833 -1619567180
            -1073824581 -1384108308 -537829915 -741481267</internalNodes>
          <leafValues>
            -2.7831140160560608e-01 3.1926634907722473e-01</leafValues></_>
        <_>
          <internalNodes>
            0 -1 270 -543598140 1550549732 1074984287 -723775695
            -1348668982 1795377894 -406258866 577167413</internalNodes>
          <leafValues>
            -3.9386737346649170e-01 2.1513631939888000e-01</leafValues></_>
        <_>
          <internalNodes>
            0 -1 376 1294401999 1388084990 1853848505 -650118250
            1335361162 808761882 912205631 -481572646</internalNodes>
          <leafValues>
            -2.5260290503501892e-01 3.4509935975074768e-01</leafValues></_>
        <_>
          <internalNodes>
            0 -1 380 -1037693238 1936721171 -998204926 76830151
            1073819210 973736094 1648833148 1143124558</internalNodes>
          <leafValues>
            -4.9490341544151306e-01 1.8637861311435699e-01</leafValues></_>
        <_>
          <internalNodes>
            0 -1 98 -1112837133 1422976212 -1145763792 160154527
            -671741126 2045818719 -76496485 -50212789</internalNodes>
          <leafValues>
            -2.2998923063278198e-01 3.9837652444839478e-01</leafValues></_>
        <_>
          <internalNodes>
            0 -1 382 -1500054789 302400075 1746964562 525504984
            -1730244868 -662257648 -1165040908 1343678677</internalNodes>
          <leafValues>
            -3.7107613682746887e-01 2.4162124097347260e-01</leafValues></_>
        <_>
          <internalNodes>
            0 -1 1 691203135 1146399477 1052714607 -531775902 190053119
            1009893020 1609692677 -1052011909</internalNodes>
          <leafValues>
            -2.7139633893966675e-01 3.3745184540748596e-01</leafValues></_>
        <_>
          <internalNodes>
            0 -1 44 406085712 -585938920 -1860890473 -1723956976
            75926005 -4480855 2072783250 234950673</internalNodes>
          <leafValues>
            -3.6471486091613770e-01 2.5491771101951599e-01</leafValues></_>
        <_>
          <internalNodes>
            0 -1 277 -54530053 1625988011 -26411278 -102309642
            -318816105 1694062591 -319461547 -181141576</internalNodes>
          <leafValues>
            -2.7673500776290894e-01 3.2562798261642456e-01</leafValues></_>
        <_>
          <internalNodes>
            0 -1 113 -488208841 -38175003 -1898611217 997112637
            -338379080 -1074159686 -1998455572 -632291036</internalNodes>
          <leafValues>
            -2.7087560296058655e-01 3.4386232495307922e-01</leafValues></_>
        <_>
          <internalNodes>
            0 -1 197 1617752794 -1278688482 -1858649594 -1090420462
            9961688 -174726482 -1044561669 235250847</internalNodes>
          <leafValues>
            -4.0825405716896057e-01 2.3822298645973206e-01</leafValues></_>
        <_>
          <internalNodes>
            0 -1 402 -1408832805 -1240087331 71521791 482083139
            -327112513 -1467836251 -922027596 -1452752640</internalNodes>
          <leafValues>
            -3.0920332670211792e-01 3.2554009556770325e-01</leafValues></_>
        <_>
          <internalNodes>
            0 -1 451 -53577512 -118136301 -1051260874 2013843745
            1073947147 2081528659 -1156853986 1681046034</internalNodes>
          <leafValues>
            -4.0873259305953979e-01 2.3775571584701538e-01</leafValues></_>
        <_>
          <internalNodes>
            0 -1 366 -298851077 -570467457 1065316133 233679472
            -403831031 650115068 131983256 -806892573</internalNodes>
          <leafValues>
            -2.4255719780921936e-01 4.1703206300735474e-01</leafValues></_>
        <_>
          <internalNodes>
            0 -1 144 2121900959 1563463531 -1115721837 -170000856
            209025721 -1093243280 879681083 -589867445</internalNodes>
          <leafValues>
            -1.9051244854927063e-01 4.8684531450271606e-01</leafValues></_>
        <_>
          <internalNodes>
            0 -1 15 913773883 -715880200 290431048 726681616 1778400054
            1220935722 1654337647 1815820954</internalNodes>
          <leafValues>
            -3.3587765693664551e-01 2.9468405246734619e-01</leafValues></_></weakClassifiers></_>
    <!-- stage 19 -->
    <_>
      <maxWeakCount>22</maxWeakCount>
      <stageThreshold>-8.2668805122375488e-01</stageThreshold>
      <weakClassifiers>
        <_>
          <internalNodes>
            0 -1 59 466252637 -37231113 132879757 -219012514 -311528895
            -109629581 791949068 -88456120</internalNodes>
          <leafValues>
            2.2780831903219223e-02 5.6224668025970459e-01</leafValues></_>
        <_>
          <internalNodes>
            0 -1 217 -114617246 -607399102 -1444262076 -204945845
            -536039546 -1326312882 146821071 2113232349</internalNodes>
          <leafValues>
            -3.5606291890144348e-01 2.4234059453010559e-01</leafValues></_>
        <_>
          <internalNodes>
            0 -1 286 -22282245 -696262941 -205 -1246577411 -285889644
            1391706103 -134927207 -151331032</internalNodes>
          <leafValues>
            -2.2281952202320099e-01 3.7578192353248596e-01</leafValues></_>
        <_>
          <internalNodes>
            0 -1 429 -1767963909 -689306981 -1664511552 -1462785073
            -268201857 2101592601 -309593509 -977278641</internalNodes>
          <leafValues>
            -2.8032916784286499e-01 2.9280993342399597e-01</leafValues></_>
        <_>
          <internalNodes>
            0 -1 183 1705799226 1458412229 -1311137004 -1515358755
            822974930 -1586674848 730531839 434973695</internalNodes>
          <leafValues>
            -4.1257983446121216e-01 1.8827885389328003e-01</leafValues></_>
        <_>
          <internalNodes>
            0 -1 25 141656228 -1388074847 1073939240 462774088 805343447
            188858585 815227317 96535936</internalNodes>
          <leafValues>
            -4.7336143255233765e-01 1.8319925665855408e-01</leafValues></_>
        <_>
          <internalNodes>
            0 -1 28 -1624574222 -1616930642 898570089 -1289080619
            -1484129553 -1798149176 -1953030118 -942690485</internalNodes>
          <leafValues>
            -2.8780585527420044e-01 2.9390421509742737e-01</leafValues></_>
        <_>
          <internalNodes>
            0 -1 245 -21284877 -489884297 -1074004393 -643104993
            1155000021 -16957902 -126853552 -872465636</internalNodes>
          <leafValues>
            -2.2587172687053680e-01 3.7708079814910889e-01</leafValues></_>
        <_>
          <internalNodes>
