<?xml version="1.0"?>
<opencv_storage>
<cascade>
  <stageType>BOOST</stageType>
  <featureType>LBP</featureType>
  <height>19</height>
  <width>40</width>
  <stageParams>
    <boostType>GAB</boostType>
    <minHitRate>9.9900001287460327e-01</minHitRate>
    <maxFalseAlarm>5.0000000000000000e-01</maxFalseAlarm>
    <weightTrimRate>9.4999999999999996e-01</weightTrimRate>
    <maxDepth>1</maxDepth>
    <maxWeakCount>100</maxWeakCount></stageParams>
  <featureParams>
    <maxCatCount>256</maxCatCount>
    <featSize>1</featSize></featureParams>
  <stageNum>8</stageNum>
  <stages>
    <!-- stage 0 -->
    <_>
      <maxWeakCount>20</maxWeakCount>
      <stageThreshold>-2.6009452342987061e+00</stageThreshold>
      <weakClassifiers>
        <_>
          <internalNodes>
            0 -1 163 -12855041 -8847268 520114653 521207837 -1960277765
            -1078263624 185108923 453640376</internalNodes>
          <leafValues>
            -4.7286602854728699e-01 4.8442691564559937e-01</leafValues></_>
        <_>
          <internalNodes>
            0 -1 406 -9104 -1073769295 -513 -1644718851 -29560
            -1073764114 -1360032600 -1996586838</internalNodes>
          <leafValues>
            -4.8369246721267700e-01 4.1985106468200684e-01</leafValues></_>
        <_>
          <internalNodes>
            0 -1 114 -805056304 1358954496 -783034883 1392578816 32904
            -670957568 138 453705739</internalNodes>
          <leafValues>
            -5.1139360666275024e-01 3.6481124162673950e-01</leafValues></_>
        <_>
          <internalNodes>
            0 -1 228 -1078305539 -196528 524115967 1602032989
            -1431782726 -1141233480 168345599 -1615198981</internalNodes>
          <leafValues>
            -3.2081645727157593e-01 4.9453243613243103e-01</leafValues></_>
        <_>
          <internalNodes>
            0 -1 36 -890582274 -825587518 -901058561 -366837726
            -1003347457 -272495170 -979286537 -486326269</internalNodes>
          <leafValues>
            -3.2315218448638916e-01 4.4291383028030396e-01</leafValues></_>
        <_>
          <internalNodes>
            0 -1 269 -105852680 -2616100 -4456963 -2290435 -1162298888
            -1145430532 -1078281733 -1146486632</internalNodes>
          <leafValues>
            -3.4297788143157959e-01 3.5643583536148071e-01</leafValues></_>
        <_>
          <internalNodes>
            0 -1 158 -573587256 -721354752 -654294784 1426149632
            -2013233016 -2013265920 134318218 1074516107</internalNodes>
          <leafValues>
            -4.4180184602737427e-01 2.6407670974731445e-01</leafValues></_>
        <_>
          <internalNodes>
            0 -1 4 -357896454 -7559494 -1 -4194406 -262149 -852037
            2096328699 2066969395</internalNodes>
          <leafValues>
            -3.1265366077423096e-01 3.2560533285140991e-01</leafValues></_>
        <_>
          <internalNodes>
            0 -1 221 -74788616 -4652912 -549462017 -37814256 -1147619144
            -1078057988 -1431651077 -1146421112</internalNodes>
          <leafValues>
            -2.4913673102855682e-01 3.9139080047607422e-01</leafValues></_>
        <_>
          <internalNodes>
            0 -1 244 -1145430787 -189187 -49153 -57859 -1074086407 -515
            -1073823745 -1081604968</internalNodes>
          <leafValues>
            -2.9607665538787842e-01 3.1063351035118103e-01</leafValues></_>
        <_>
          <internalNodes>
            0 -1 393 -1413808707 -1912816463 -1645101639 -1342236536
            -1363492929 -1886389093 217759904 -1962948438</internalNodes>
          <leafValues>
            -2.5148692727088928e-01 3.3206149935722351e-01</leafValues></_>
        <_>
          <internalNodes>
            0 -1 75 -70262654 -216981488 -565120239 1895919921
            -2138537848 -2146959200 138461435 1347547347</internalNodes>
          <leafValues>
            -3.3060151338577271e-01 2.5163400173187256e-01</leafValues></_>
        <_>
          <internalNodes>
            0 -1 236 -38234888 -577240912 -1659893515 -1644363568
            -1146581825 -1073865219 -1346719813 -1078263622</internalNodes>
          <leafValues>
            -2.2916394472122192e-01 3.4681981801986694e-01</leafValues></_>
        <_>
          <internalNodes>
            0 -1 305 -670019368 -2155043 -2458369 -59939 -1095070210
            -82468 -1074086149 -1171649350</internalNodes>
          <leafValues>
            -2.2392548620700836e-01 3.1308600306510925e-01</leafValues></_>
        <_>
          <internalNodes>
            0 -1 288 -815802151 -2088762352 219373045 286906649
            -1937209096 -1970634624 155507928 -878978597</internalNodes>
          <leafValues>
            -1.9079729914665222e-01 3.6737343668937683e-01</leafValues></_>
        <_>
          <internalNodes>
            0 -1 364 -13068 1040135633 -4129 771694077 -1107523176
            -1080092171 -1090745156 150931644</internalNodes>
          <leafValues>
            -3.5633340477943420e-01 1.9078648090362549e-01</leafValues></_>
        <_>
          <internalNodes>
            0 -1 206 -661122824 -675802927 -1145479169 -2551299
            -1433883458 -1095087656 -1163345925 -1146486600</internalNodes>
          <leafValues>
            -2.5989887118339539e-01 2.5353074073791504e-01</leafValues></_>
        <_>
          <internalNodes>
            0 -1 85 -368850238 -13434880 639910481 1526751760
            -2147221496 -1979580416 1073758875 2064073219</internalNodes>
          <leafValues>
            -2.9010909795761108e-01 2.2269567847251892e-01</leafValues></_>
        <_>
          <internalNodes>
            0 -1 235 -601698096 -586153776 135819515 486604944
            -2013233016 -1970665336 134217866 168509579</internalNodes>
          <leafValues>
            -2.8508681058883667e-01 2.1495808660984039e-01</leafValues></_>
        <_>
          <internalNodes>
            0 -1 49 -352663298 -498178486 -85062002 -132109822
            -160432088 271846411 -485341945 -234626045</internalNodes>
          <leafValues>
            -2.4414138495922089e-01 2.4311740696430206e-01</leafValues></_></weakClassifiers></_>
    <!-- stage 1 -->
    <_>
      <maxWeakCount>33</maxWeakCount>
      <stageThreshold>-2.6214907169342041e+00</stageThreshold>
      <weakClassifiers>
        <_>
          <internalNodes>
            0 -1 216 454693245 -196528 528449535 1600066909 -1431782662
            -1073862472 178831359 -1078241025</internalNodes>
          <leafValues>
            -3.7081614136695862e-01 4.8736581206321716e-01</leafValues></_>
        <_>
          <internalNodes>
            0 -1 115 -325 -13545168 -36646415 -49196751 -2002222934
            -71794504 -2001174277 -651046405</internalNodes>
          <leafValues>
            -2.7647796273231506e-01 5.4536336660385132e-01</leafValues></_>
        <_>
          <internalNodes>
            0 -1 399 -4 -1 -1 -1073741825 -4 -1537 -2 -1358954497</internalNodes>
          <leafValues>
            -2.9512909054756165e-01 4.6791690587997437e-01</leafValues></_>
        <_>
          <internalNodes>
            0 -1 240 -671035144 -577241008 420500989 1561919577
            -1979672326 -1145438024 134256891 185204888</internalNodes>
          <leafValues>
            -4.2878597974777222e-01 2.6902532577514648e-01</leafValues></_>
        <_>
          <internalNodes>
            0 -1 41 -352653570 -269840658 -282398994 -1306525696
            -265146497 -128454 -215544865 -98352637</internalNodes>
          <leafValues>
            -3.3596464991569519e-01 3.4575858712196350e-01</leafValues></_>
        <_>
          <internalNodes>
            0 -1 155 -581436224 -581873408 -586088619 285298945
            -2147450744 -2013134848 -586167605 420201743</internalNodes>
          <leafValues>
            -3.4980043768882751e-01 3.2399851083755493e-01</leafValues></_>
        <_>
          <internalNodes>
            0 -1 170 -2011971439 -570748527 -1665212929 -539028331
            -2009421637 -52485 -1945068101 -2012545023</internalNodes>
          <leafValues>
            -2.8996783494949341e-01 3.2250347733497620e-01</leafValues></_>
        <_>
          <internalNodes>
            0 -1 299 -670023436 -62243 -393217 -44547 -88424449 -67333
            -1095057409 -1171650390</internalNodes>
          <leafValues>
            -2.4671699106693268e-01 3.4606963396072388e-01</leafValues></_>
        <_>
          <internalNodes>
            0 -1 145 -69472014 -606584584 -751242767 1527795792
            -1743216454 -1158016840 454095099 453660827</internalNodes>
          <leafValues>
            -2.7623343467712402e-01 3.0568513274192810e-01</leafValues></_>
        <_>
          <internalNodes>
            0 -1 29 -1058094854 -863075126 -571473921 -1122142
            -1057033989 -36977449 -774548239 -1070383088</internalNodes>
          <leafValues>
            -3.2776916027069092e-01 2.4442024528980255e-01</leafValues></_>
        <_>
          <internalNodes>
            0 -1 391 -1148527600 -1143340004 -1073741827 -1311564776
            -1165428752 -1147472862 -1430613840 -1464155992</internalNodes>
          <leafValues>
            -3.0426463484764099e-01 2.6170402765274048e-01</leafValues></_>
        <_>
          <internalNodes>
            0 -1 237 -653209352 -1648885616 419435007 488177885
            -1442805576 -1145569096 167779003 453705883</internalNodes>
          <leafValues>
            -2.8673681616783142e-01 2.5321623682975769e-01</leafValues></_>
        <_>
          <internalNodes>
            0 -1 59 -34817 1608319101 253300575 526194527 262933951
            513560924 252451837 1599885789</internalNodes>
          <leafValues>
            -2.5557953119277954e-01 2.7025490999221802e-01</leafValues></_>
        <_>
          <internalNodes>
            0 -1 414 -1430613840 -2133196772 -1979990083 -1896018759
            -1896090380 149849215 13730976 -2130722569</internalNodes>
          <leafValues>
            -2.8994512557983398e-01 2.3785355687141418e-01</leafValues></_>
        <_>
          <internalNodes>
            0 -1 280 -2003297104 -36042500 -1078362113 -1074064131
            -1095189574 -1078299204 -1145389121 -1078325064</internalNodes>
          <leafValues>
            -2.9725480079650879e-01 2.1474505960941315e-01</leafValues></_>
        <_>
          <internalNodes>
            0 -1 222 -587018032 -646971312 134238417 487657489
            -2013230936 -1163263816 134217914 168493059</internalNodes>
          <leafValues>
            -2.9256746172904968e-01 2.2358413040637970e-01</leafValues></_>
        <_>
          <internalNodes>
            0 -1 74 -620502398 1481785394 1399878641 1400885617
            -2138535798 -2004336632 155 1398002683</internalNodes>
          <leafValues>
            -2.6164102554321289e-01 2.3461720347404480e-01</leafValues></_>
        <_>
          <internalNodes>
            0 -1 197 -802156368 -69730056 1561596413 -2555428
            -1442804552 -1165326180 -1154961409 -1146485608</internalNodes>
          <leafValues>
            -2.5740936398506165e-01 2.3118929564952850e-01</leafValues></_>
        <_>
          <internalNodes>
            0 -1 91 -25214339 -228692904 -558609153 940599904 -30535884
            -8442571 -1442304258 -29656453</internalNodes>
          <leafValues>
            -2.0394365489482880e-01 2.8768810629844666e-01</leafValues></_>
        <_>
          <internalNodes>
            0 -1 216 -320516462 340942777 -980935299 -1120057217
            427449789 -857090713 -1660796744 1246668552</internalNodes>
          <leafValues>
            -2.5376501679420471e-01 2.3220853507518768e-01</leafValues></_>
        <_>
          <internalNodes>
            0 -1 384 -1078272624 -1109670660 -1112736291 -1946670852
            -1229396816 -1275397893 469767600 -1431642966</internalNodes>
          <leafValues>
            -2.4553644657135010e-01 2.3126132786273956e-01</leafValues></_>
        <_>
          <internalNodes>
            0 -1 220 -183508992 1359282176 823742504 354810895 565416
            134217728 67170480 651419</internalNodes>
          <leafValues>
            -3.7269324064254761e-01 1.4715647697448730e-01</leafValues></_>
        <_>
          <internalNodes>
            0 -1 398 -15469488 -2185 -65 -131097 -2081 -1 -5 -1609502704</internalNodes>
          <leafValues>
            -2.6068270206451416e-01 2.0570001006126404e-01</leafValues></_>
        <_>
          <internalNodes>
            0 -1 289 -1162176328 -4323847 -1077993989 -1079310855
            -1432307526 -1078290984 -1156400197 -1145429830</internalNodes>
          <leafValues>
            -2.1591326594352722e-01 2.5003334879875183e-01</leafValues></_>
        <_>
          <internalNodes>
            0 -1 115 -1060904074 -773872095 -1556254858 1465315392
            1616832733 72842499 1113652156 1724808725</internalNodes>
          <leafValues>
            -2.4928189814090729e-01 2.1128267049789429e-01</leafValues></_>
        <_>
          <internalNodes>
            0 -1 225 -1618420488 -6417256 -1074241537 -193291
            -1162310408 -1074918728 -1097294657 -1146486614</internalNodes>
          <leafValues>
            -2.0591309666633606e-01 2.5524184107780457e-01</leafValues></_>
        <_>
          <internalNodes>
            0 -1 4 -299177282 -13096392 -54530049 -543446778 -268443649
            -1074791493 469467135 2071161651</internalNodes>
          <leafValues>
            -2.2961968183517456e-01 2.2650144994258881e-01</leafValues></_>
        <_>
          <internalNodes>
            0 -1 323 -625344296 -58883 2142887935 -4255393 -1081558277
            -4309505 -1095057665 -1440087878</internalNodes>
          <leafValues>
            -2.0214055478572845e-01 2.5177946686744690e-01</leafValues></_>
        <_>
          <internalNodes>
            0 -1 73 -1962688376 -79969744 -636433569 -541394720 32938
            -616955904 182971 1528021329</internalNodes>
          <leafValues>
            -2.4886970221996307e-01 1.9718070328235626e-01</leafValues></_>
        <_>
          <internalNodes>
            0 -1 382 -1095084943 -1080355564 -9 -1321509387 -1430586960
            -1078308299 989396917 -365764877</internalNodes>
          <leafValues>
            -2.0236191153526306e-01 2.3936511576175690e-01</leafValues></_>
        <_>
          <internalNodes>
            0 -1 340 -88421353 -12624123 -270849 -98853601 -4208560
            -71565773 -298147654 -536688613</internalNodes>
          <leafValues>
            -1.7302508652210236e-01 2.6480367779731750e-01</leafValues></_>
        <_>
          <internalNodes>
            0 -1 199 -542506768 -4451244 -1141481507 -2286220
            -1164923912 -1079050755 -1145520145 -1147534200</internalNodes>
          <leafValues>
            -2.2025826573371887e-01 2.0454949140548706e-01</leafValues></_>
        <_>
          <internalNodes>
            0 -1 394 -1883570241 -1881232705 2113924919 -805357123
            -1427456513 -2001817665 144806064 -822084422</internalNodes>
          <leafValues>
            -1.5380118787288666e-01 2.8900894522666931e-01</leafValues></_></weakClassifiers></_>
    <!-- stage 2 -->
    <_>
      <maxWeakCount>43</maxWeakCount>
      <stageThreshold>-2.5909450054168701e+00</stageThreshold>
      <weakClassifiers>
        <_>
          <internalNodes>
            0 -1 243 -1145414401 -61315 528449535 2138922333 -1431651650
            -1078281478 523960319 -12887553</internalNodes>
          <leafValues>
            -2.7515637874603271e-01 5.3276079893112183e-01</leafValues></_>
        <_>
          <internalNodes>
            0 -1 124 -538968065 -15663104 -552476911 1594971393
            -2004318070 -16252928 134269099 -551560549</internalNodes>
          <leafValues>
            -2.2409974038600922e-01 5.3231096267700195e-01</leafValues></_>
        <_>
          <internalNodes>
            0 -1 407 -652 -1073758731 -513 -1107837441 -4215544
            -1073759041 -16798552 -2135242578</internalNodes>
          <leafValues>
            -3.4170478582382202e-01 3.3402743935585022e-01</leafValues></_>
        <_>
          <internalNodes>
            0 -1 23 -84213761 -86018 -2162689 -13979990 -8683521
            -4309314 -8945665 -8421505</internalNodes>
          <leafValues>
            -2.7708104252815247e-01 3.9148154854774475e-01</leafValues></_>
        <_>
          <internalNodes>
            0 -1 213 -653078279 -570752912 521756157 1594949721
            -1440040774 -1145435976 186309883 453640344</internalNodes>
          <leafValues>
            -3.1736359000205994e-01 2.8812846541404724e-01</leafValues></_>
        <_>
          <internalNodes>
            0 -1 274 -805158829 -11054991 -8954371 1594971221
            -1431663873 -4247361 -1431655681 -1442693109</internalNodes>
          <leafValues>
            -1.9465021789073944e-01 4.1040885448455811e-01</leafValues></_>
        <_>
          <internalNodes>
            0 -1 193 -73403886 -586616820 -1072902120 -581053987
            -930287430 -2012479480 1073791192 -925904673</internalNodes>
          <leafValues>
            -2.9494726657867432e-01 2.7823424339294434e-01</leafValues></_>
        <_>
          <internalNodes>
            0 -1 71 -804138784 -787410896 -131585 1360123281 -789479174
            -252516192 -664679173 1359036418</internalNodes>
          <leafValues>
            -3.8892960548400879e-01 1.9325582683086395e-01</leafValues></_>
        <_>
          <internalNodes>
            0 -1 252 -1181216520 -574878504 -1076346881 -33745539
            -1162297412 -1078318852 -1145520129 -1078326088</internalNodes>
          <leafValues>
            -2.7332907915115356e-01 2.7946832776069641e-01</leafValues></_>
        <_>
          <internalNodes>
            0 -1 0 -923809585 -2097153 -8193 -9761 -4097 -1 -807404033
            -1059864511</internalNodes>
          <leafValues>
            -1.8558318912982941e-01 3.9638522267341614e-01</leafValues></_>
        <_>
          <internalNodes>
            0 -1 412 -1164267504 -2080702448 -1677743683 -1459680207
            -1499815776 16157856 -2136309600 -2135244638</internalNodes>
          <leafValues>
            -3.3087798953056335e-01 1.8791902065277100e-01</leafValues></_>
        <_>
          <internalNodes>
            0 -1 265 -545072904 -573046632 152050909 488178717
            -1442805062 -1145435976 168332031 453707930</internalNodes>
          <leafValues>
            -2.3969654738903046e-01 2.6253741979598999e-01</leafValues></_>
        <_>
          <internalNodes>
            0 -1 227 -1095237388 -64004 -1078231041 -193315 -1145389572
            -1141242375 -1078280193 -1078261576</internalNodes>
          <leafValues>
            -2.6344957947731018e-01 2.2434565424919128e-01</leafValues></_>
        <_>
          <internalNodes>
            0 -1 87 -254283534 -615452430 1349546225 1393586290
            -789536520 3145904 1081463034 1393807579</internalNodes>
          <leafValues>
            -2.6025250554084778e-01 2.2861209511756897e-01</leafValues></_>
        <_>
          <internalNodes>
            0 -1 171 -1710040872 -4470280 -4202497 -9731 -1096090625
            -1078225413 -1078018049 -1145372536</internalNodes>
          <leafValues>
            -2.0527528226375580e-01 2.9074048995971680e-01</leafValues></_>
        <_>
          <internalNodes>
            0 -1 385 -1145381379 -1073783364 -67371011 -1346430792
            -1145372676 -1346372162 1073659385 -1901150038</internalNodes>
          <leafValues>
            -1.9994357228279114e-01 2.7294933795928955e-01</leafValues></_>
        <_>
          <internalNodes>
            0 -1 44 -133436726 -117309440 4255953 1930631170 -2146860914
            167772160 4280539 1396961883</internalNodes>
          <leafValues>
            -2.5899887084960938e-01 2.2091954946517944e-01</leafValues></_>
        <_>
          <internalNodes>
            0 -1 397 -8715 -570425353 -1 -1073741825 -671088641 -9217
            -6145 251649535</internalNodes>
          <leafValues>
            -1.8739816546440125e-01 2.8647345304489136e-01</leafValues></_>
        <_>
          <internalNodes>
            0 -1 179 -81260296 -541261680 -212993 -541256588 -1431783256
            -1146212872 -1162298881 -1079375464</internalNodes>
          <leafValues>
            -2.2102981805801392e-01 2.2788058221340179e-01</leafValues></_>
        <_>
          <internalNodes>
            0 -1 313 -1332176392 -2292240 -1073741825 -190979
            -1363362052 -1078054916 -1095188481 -1081474888</internalNodes>
          <leafValues>
            -2.2665727138519287e-01 2.1759654581546783e-01</leafValues></_>
        <_>
          <internalNodes>
            0 -1 324 -635813869 -547683815 -666935425 286475035
            -99956734 -21358565 -99025286 -1442657765</internalNodes>
          <leafValues>
            -1.9407290220260620e-01 2.5162333250045776e-01</leafValues></_>
        <_>
          <internalNodes>
            0 -1 53 -16798980 -94502328 -1935243122 541204514 -479065292
            1428426036 -134807689 -227279069</internalNodes>
          <leafValues>
            -1.9934032857418060e-01 2.3801806569099426e-01</leafValues></_>
        <_>
          <internalNodes>
            0 -1 243 1280287504 492335026 -316664451 -1726864718
            489702641 -353407555 -1601958214 198110744</internalNodes>
          <leafValues>
            -2.4518291652202606e-01 1.9392640888690948e-01</leafValues></_>
        <_>
          <internalNodes>
            0 -1 264 -602877744 -570947376 1815107583 1602027601
            -2011133824 -1095102032 167775418 187303971</internalNodes>
          <leafValues>
            -2.6322463154792786e-01 1.7155691981315613e-01</leafValues></_>
        <_>
          <internalNodes>
            0 -1 390 -1105585136 -1078911212 -1342214145 -1182838275
            -1363499740 -1075644521 -1909814096 -366818270</internalNodes>
          <leafValues>
            -2.3753251135349274e-01 1.8910600244998932e-01</leafValues></_>
        <_>
          <internalNodes>
            0 -1 83 -15007782 -553625487 2130769745 1459648305
            1073776816 168428568 2064711611 2065387739</internalNodes>
          <leafValues>
            -2.1391665935516357e-01 2.1277354657649994e-01</leafValues></_>
        <_>
          <internalNodes>
            0 -1 126 -2012495727 -72616752 1299676511 -12583471
            -1977645891 -351298256 186615291 -583020527</internalNodes>
          <leafValues>
            -1.5481847524642944e-01 2.9631057381629944e-01</leafValues></_>
        <_>
          <internalNodes>
            0 -1 375 -1073741825 -1879113729 1601437649 -1879065095
            805240831 -1879117830 267935152 -838863621</internalNodes>
          <leafValues>
            -1.3643205165863037e-01 3.3215698599815369e-01</leafValues></_>
        <_>
          <internalNodes>
            0 -1 381 -1080404623 -1078239947 -12583077 -1959577835
            -1086524144 -1346439599 -1372521808 -366944646</internalNodes>
          <leafValues>
            -2.1073223650455475e-01 2.0812717080116272e-01</leafValues></_>
        <_>
          <internalNodes>
            0 -1 230 -1744678575 -33599247 -545292289 -578216867
            -1423401027 -1075060739 758668281 134217744</internalNodes>
          <leafValues>
            -2.7598607540130615e-01 1.6051197052001953e-01</leafValues></_>
        <_>
          <internalNodes>
            0 -1 307 -656424960 1561657345 520967457 268528655
            -658521928 1522354184 -2000946952 403700991</internalNodes>
          <leafValues>
            -2.5181874632835388e-01 1.6890649497509003e-01</leafValues></_>
        <_>
          <internalNodes>
            0 -1 210 -1204104976 -72804136 -1095246339 -1615127408
            -1095057988 -1078227492 -1078289665 -1414854488</internalNodes>
          <leafValues>
            -1.9229067862033844e-01 2.1965500712394714e-01</leafValues></_>
        <_>
          <internalNodes>
            0 -1 40 -487865102 -492166614 -85285122 -261447008
            -483457026 -671922802 -740883979 -419969630</internalNodes>
          <leafValues>
            -1.7796705663204193e-01 2.3250889778137207e-01</leafValues></_>
        <_>
          <internalNodes>
            0 -1 57 -49091 1912406044 870921023 1006450460 1044127996
            527303004 132915708 1558205692</internalNodes>
          <leafValues>
            -2.4940615892410278e-01 1.6507235169410706e-01</leafValues></_>
        <_>
          <internalNodes>
            0 -1 198 -81657608 -67559052 -273055745 -34006531
            -1430735427 -1145427528 -1413829377 -1146486600</internalNodes>
          <leafValues>
            -2.0228807628154755e-01 1.9633622467517853e-01</leafValues></_>
        <_>
          <internalNodes>
            0 -1 191 -775163006 454100867 1494334272 289426511 12845192
            78840976 1839709899 286776543</internalNodes>
          <leafValues>
            -2.5629794597625732e-01 1.5467818081378937e-01</leafValues></_>
        <_>
          <internalNodes>
            0 -1 371 -1111827336 -1678142064 -1075061419 -1986830851
            -1908876880 -1078536908 444636824 -1432691270</internalNodes>
          <leafValues>
            -1.9697931408882141e-01 2.0418360829353333e-01</leafValues></_>
        <_>
          <internalNodes>
            0 -1 92 -536933507 -11461552 -58917249 1481670268 -9490883
            -8698076 -1075003778 -75763841</internalNodes>
          <leafValues>
            -1.3495866954326630e-01 2.8640022873878479e-01</leafValues></_>
        <_>
          <internalNodes>
            0 -1 124 -328078208 1078384499 1878683630 -1056658894
            1153778853 16235451 -1058074916 686940512</internalNodes>
          <leafValues>
            -2.7775824069976807e-01 1.3753065466880798e-01</leafValues></_>
        <_>
          <internalNodes>
            0 -1 176 -569456102 -1626732014 108047455 520819506
            -1945468792 -1474428390 403393692 1260110623</internalNodes>
          <leafValues>
            -1.9965368509292603e-01 1.8445642292499542e-01</leafValues></_>
        <_>
          <internalNodes>
            0 -1 14 -2138390400 -1610579800 -805306417 -4423542
            -1912676421 -75510081 -439003649 -1050721279</internalNodes>
          <leafValues>
            -2.2686317563056946e-01 1.6382357478141785e-01</leafValues></_>
        <_>
          <internalNodes>
            0 -1 366 -577760163 -52131 -8195 -9332357 -13984680 -4215556
            -1434932552 -1439676360</internalNodes>
          <leafValues>
            -2.0965933799743652e-01 1.8252855539321899e-01</leafValues></_>
        <_>
          <internalNodes>
            0 -1 242 -1095627276 -16840464 -1183097857 -61964
            -1096761668 -1073869320 -1364017670 -1413871366</internalNodes>
          <leafValues>
            -1.9800817966461182e-01 1.7629425227642059e-01</leafValues></_></weakClassifiers></_>
    <!-- stage 3 -->
    <_>
      <maxWeakCount>57</maxWeakCount>
      <stageThreshold>-2.5905857086181641e+00</stageThreshold>
      <weakClassifiers>
        <_>
          <internalNodes>
            0 -1 228 -1077968897 -57859 528449535 2139053405 -1346715969
            -1073824002 262864895 -4194305</internalNodes>
          <leafValues>
            -2.3034438490867615e-01 5.6329894065856934e-01</leafValues></_>
        <_>
          <internalNodes>
            0 -1 18 -21299202 -1114114 -1 -4456514 -262145 -262145
            -9207809 2134605619</internalNodes>
          <leafValues>
            -3.3031821250915527e-01 3.3134794235229492e-01</leafValues></_>
        <_>
          <internalNodes>
            0 -1 98 -69 -13504208 -462351 -15642319 -2002220886 -4660808
            -2001155845 -550383109</internalNodes>
          <leafValues>
            -2.1920906007289886e-01 4.5101636648178101e-01</leafValues></_>
        <_>
          <internalNodes>
            0 -1 408 -3 -1610629633 -1 -1073758721 -16388 -1073758721
            -1879077704 -1895839573</internalNodes>
          <leafValues>
            -2.4770361185073853e-01 3.4902617335319519e-01</leafValues></_>
        <_>
          <internalNodes>
            0 -1 169 1392754896 2131955984 -1 1595006747 -593327944
            -16449 1330367743 1526939659</internalNodes>
          <leafValues>
            -2.9864165186882019e-01 2.6467809081077576e-01</leafValues></_>
        <_>
          <internalNodes>
            0 -1 255 -661073672 -573046576 490233341 1599668441
            -1430718214 -1145403208 135830715 462028986</internalNodes>
          <leafValues>
            -2.8863567113876343e-01 2.5066784024238586e-01</leafValues></_>
        <_>
          <internalNodes>
            0 -1 46 -353710850 -487684018 -287659286 -266207198
            -1032649410 -1069152508 -206354473 -211303357</internalNodes>
          <leafValues>
            -2.5609117746353149e-01 2.8030073642730713e-01</leafValues></_>
        <_>
          <internalNodes>
            0 -1 133 -127930126 1393758258 275828976 269504530
            -1061314310 168427530 1078313136 1259074186</internalNodes>
          <leafValues>
            -3.1438469886779785e-01 2.0013323426246643e-01</leafValues></_>
        <_>
          <internalNodes>
            0 -1 253 -1692346120 -570949416 488136703 1566377053
            -1163871558 -1078313736 -1173831681 -1616246535</internalNodes>
          <leafValues>
            -2.3127453029155731e-01 2.7449074387550354e-01</leafValues></_>
        <_>
          <internalNodes>
            0 -1 379 -34579075 -49795 -268435457 -8798209 -67589932
            -6412 -353833220 -365895944</internalNodes>
          <leafValues>
            -2.4522887170314789e-01 2.4648202955722809e-01</leafValues></_>
        <_>
          <internalNodes>
            0 -1 229 -4579851 -57891 -24577 -57859 -1078018051 -3
            -1074020353 -1415051112</internalNodes>
          <leafValues>
            -2.0806632936000824e-01 2.6298880577087402e-01</leafValues></_>
        <_>
          <internalNodes>
            0 -1 211 -46477064 -575078256 486609393 488443933
            -1440175942 -1146484552 167772347 185270427</internalNodes>
          <leafValues>
            -2.4284605681896210e-01 2.2340139746665955e-01</leafValues></_>
        <_>
          <internalNodes>
            0 -1 150 -580919270 -720551676 -602615600 1560334656
            -2134073094 -2146959096 -2000105254 1482552315</internalNodes>
          <leafValues>
            -2.8642952442169189e-01 1.8344967067241669e-01</leafValues></_>
        <_>
          <internalNodes>
            0 -1 416 -1074085953 -1879135297 -4210753 -1879064641
            -1937064513 214875582 76664993 -1895833601</internalNodes>
          <leafValues>
            -1.8052896857261658e-01 2.7888604998588562e-01</leafValues></_>
        <_>
          <internalNodes>
            0 -1 270 -1128784396 -61955 -1077968897 -61955 -1078280262
            -352772 -1078280193 -1078323016</internalNodes>
          <leafValues>
            -2.4682886898517609e-01 2.0384740829467773e-01</leafValues></_>
        <_>
          <internalNodes>
            0 -1 97 -637283966 -787349496 1431362045 -537436229
            -1065309270 -1743189966 65672 1360085139</internalNodes>
          <leafValues>
            -2.7086436748504639e-01 1.8518534302711487e-01</leafValues></_>
        <_>
          <internalNodes>
            0 -1 233 -108474152 -541392688 -262657 -1614867120
            -1414878984 -71592260 -1414877509 195690504</internalNodes>
          <leafValues>
            -2.7297946810722351e-01 1.8259975314140320e-01</leafValues></_>
        <_>
          <internalNodes>
            0 -1 84 -1031142184 -218493772 -17683428 1479557136
            -348519332 -92579767 -1573910470 -97271806</internalNodes>
          <leafValues>
            -2.4614997208118439e-01 1.9740895926952362e-01</leafValues></_>
        <_>
          <internalNodes>
            0 -1 317 -937803695 -537194415 1602052095 1393754205
            -97877862 -317285 -1442251009 167921675</internalNodes>
          <leafValues>
            -2.3106305301189423e-01 2.0941199362277985e-01</leafValues></_>
        <_>
          <internalNodes>
            0 -1 401 -8389264 -1078476809 -4194305 -1221281283 -10548276
            -4211715 -29972 -1573716238</internalNodes>
          <leafValues>
            -2.3135319352149963e-01 1.9388398528099060e-01</leafValues></_>
        <_>
          <internalNodes>
            0 -1 212 -38137608 -457480 -1 -191011 -1078420040
            -1078272068 -1095188485 -1145436008</internalNodes>
          <leafValues>
            -2.0955626666545868e-01 2.1212120354175568e-01</leafValues></_>
        <_>
          <internalNodes>
            0 -1 38 -368394102 -7352616 1242582285 -552051427
            -2013214550 -669384704 51415435 1595659609</internalNodes>
          <leafValues>
            -2.2561939060688019e-01 1.9546960294246674e-01</leafValues></_>
        <_>
          <internalNodes>
            0 -1 293 -538978856 1361117488 1284005148 299752925
            197979582 9961696 218663096 162258427</internalNodes>
          <leafValues>
            -2.2604918479919434e-01 1.8981358408927917e-01</leafValues></_>
        <_>
          <internalNodes>
            0 -1 383 -1078272769 -1074038824 -4202497 -1677762819
            -1096089680 -1074333698 1050451455 -289736454</internalNodes>
          <leafValues>
            -1.4704968035221100e-01 2.8863891959190369e-01</leafValues></_>
        <_>
          <internalNodes>
            0 -1 86 -52541220 -69402300 498097660 1071121696 551026744
            -79560704 16782043 2132494171</internalNodes>
          <leafValues>
            -2.3918588459491730e-01 1.7295409739017487e-01</leafValues></_>
        <_>
          <internalNodes>
            0 -1 165 -1424003073 651700988 268251133 166996988 799555519
            736377852 725102589 535580920</internalNodes>
          <leafValues>
            -2.5605621933937073e-01 1.6182145476341248e-01</leafValues></_>
        <_>
          <internalNodes>
            0 -1 203 -1675980591 -27140 -270337 -40963 -1162167043
            -67371589 -1090535429 -1917124592</internalNodes>
          <leafValues>
            -1.8565389513969421e-01 2.1633829176425934e-01</leafValues></_>
        <_>
          <internalNodes>
            0 -1 354 -126198767 -276606081 -67313729 1360787327
            -21850880 -4461263 -356861253 -365756677</internalNodes>
          <leafValues>
            -1.5665483474731445e-01 2.6231926679611206e-01</leafValues></_>
        <_>
          <internalNodes>
            0 -1 228 1212187665 207119890 -283845283 -1927732489
            308346872 -357482119 -1709897159 189285401</internalNodes>
          <leafValues>
            -2.4561341106891632e-01 1.5753333270549774e-01</leafValues></_>
        <_>
          <internalNodes>
            0 -1 374 -1078264323 -1442965164 -1086324739 -1383326211
            -1078805068 -1699152644 536649204 -1431649096</internalNodes>
          <leafValues>
            -2.0119377970695496e-01 1.8861706554889679e-01</leafValues></_>
        <_>
          <internalNodes>
            0 -1 102 -922033534 -1979523070 1191859957 -11280174 557290
            -2013134848 16859281 1124327491</internalNodes>
          <leafValues>
            -2.6628956198692322e-01 1.4478252828121185e-01</leafValues></_>
        <_>
          <internalNodes>
            0 -1 3 -1979530110 -1082086490 -1075843137 -134225949
            -11534337 -16847497 -1344154113 1147487297</internalNodes>
          <leafValues>
            -2.6318693161010742e-01 1.4113697409629822e-01</leafValues></_>
        <_>
          <internalNodes>
            0 -1 248 1565376516 1432178701 491330404 16866575 1149567136
            1220090408 -872372182 1495268795</internalNodes>
          <leafValues>
            -2.5181445479393005e-01 1.4791527390480042e-01</leafValues></_>
        <_>
          <internalNodes>
            0 -1 389 -1692792720 -1078254220 -1346383875 -1319514771
            -1080516432 -1078252233 -1372026640 -365893582</internalNodes>
          <leafValues>
            -2.2445753216743469e-01 1.6344682872295380e-01</leafValues></_>
        <_>
          <internalNodes>
            0 -1 344 -537410559 -1153 -12583425 -132907169 -33569579
            -4194341 -513 -1878996141</internalNodes>
          <leafValues>
            -1.5551662445068359e-01 2.3376850783824921e-01</leafValues></_>
        <_>
          <internalNodes>
            0 -1 292 -1744252712 496502864 421011453 488445012
            -1968142152 -1682307816 168860602 991103004</internalNodes>
          <leafValues>
            -2.4436730146408081e-01 1.5179540216922760e-01</leafValues></_>
        <_>
          <internalNodes>
            0 -1 42 -98305 -247812 2145140734 1064845308 2143174396
            -1102083 -277922884 -32769</internalNodes>
          <leafValues>
            -1.4286839962005615e-01 2.3782657086849213e-01</leafValues></_>
        <_>
          <internalNodes>
            0 -1 181 -650637064 -203947792 -1089181715 2142770364
            -1238843460 -1079374596 260607994 -1146483560</internalNodes>
          <leafValues>
            -2.1184444427490234e-01 1.6324973106384277e-01</leafValues></_>
        <_>
          <internalNodes>
            0 -1 386 -1684079175 -1883590216 -1879126031 -1347450200
            -1073807877 -1912607298 767491544 -827331416</internalNodes>
          <leafValues>
            -1.5539556741714478e-01 2.1770034730434418e-01</leafValues></_>
        <_>
          <internalNodes>
            0 -1 272 -2011002632 -8897864 -6004737 -13082823 -1162822728
            -71671816 -1423900677 -1693843432</internalNodes>
          <leafValues>
            -1.9367992877960205e-01 1.7614567279815674e-01</leafValues></_>
        <_>
          <internalNodes>
            0 -1 98 -87826362 1364853539 -193516022 1438963494
            1147068637 1617116023 1356214916 1893662645</internalNodes>
          <leafValues>
            -2.0124360918998718e-01 1.6126230359077454e-01</leafValues></_>
        <_>
          <internalNodes>
            0 -1 104 -917256974 -653197312 590366033 2131772675
            -1576530744 523371520 268485883 1595102555</internalNodes>
          <leafValues>
            -2.0184203982353210e-01 1.6581717133522034e-01</leafValues></_>
        <_>
          <internalNodes>
            0 -1 280 -1106600776 -50691 -1073741827 -61699 -1078281282
            -1073858164 -1158365766 -1078256454</internalNodes>
          <leafValues>
            -1.5552672743797302e-01 2.0575618743896484e-01</leafValues></_>
        <_>
          <internalNodes>
            0 -1 91 -50385411 -90214915 -318865669 2020634362 -22147459
            -25227663 -335615233 -29627781</internalNodes>
          <leafValues>
            -1.2436970323324203e-01 2.6143339276313782e-01</leafValues></_>
        <_>
          <internalNodes>
            0 -1 350 -538968201 525966876 1744650164 792279856 268238846
            265885114 250350840 201325818</internalNodes>
          <leafValues>
            -1.5711681544780731e-01 2.0303279161453247e-01</leafValues></_>
        <_>
          <internalNodes>
            0 -1 370 -1095613328 -1077993871 1044371447 -1183756963
            -1171194460 -1079270220 1001453755 -366288897</internalNodes>
          <leafValues>
            -1.6173900663852692e-01 1.9570730626583099e-01</leafValues></_>
        <_>
          <internalNodes>
            0 -1 9 14614528 -243550403 -1283745315 -18561 -1615075397
            -637953827 424087833 21299209</internalNodes>
          <leafValues>
            -2.4240536987781525e-01 1.3005591928958893e-01</leafValues></_>
        <_>
          <internalNodes>
            0 -1 290 -568799024 1496846448 796548605 1602034717
            -1709139798 -1120267368 186694634 993660091</internalNodes>
          <leafValues>
            -1.8560004234313965e-01 1.6706207394599915e-01</leafValues></_>
        <_>
          <internalNodes>
            0 -1 105 -1432630119 -537000588 -32899 1559912124
            -1430778468 -276954051 129029269 -612641455</internalNodes>
          <leafValues>
            -1.4784125983715057e-01 2.0733900368213654e-01</leafValues></_>
        <_>
          <internalNodes>
            0 -1 392 -1086652481 -1078313676 -134218309 -1231192920
            -1091766282 -1275075165 516609200 -822092630</internalNodes>
          <leafValues>
            -1.3205531239509583e-01 2.2847564518451691e-01</leafValues></_>
        <_>
          <internalNodes>
            0 -1 172 -81128272 -12640048 1576943615 -5170736 -1373099848
            -1410455108 -1900535617 -1079374712</internalNodes>
          <leafValues>
            -1.7867277562618256e-01 1.6344149410724640e-01</leafValues></_>
        <_>
          <internalNodes>
            0 -1 157 -10489406 -787406176 824386982 269597295 851976
            9961808 1966987514 1082913755</internalNodes>
          <leafValues>
            -2.4886615574359894e-01 1.1939919739961624e-01</leafValues></_>
        <_>
          <internalNodes>
            0 -1 331 -631619557 -36234477 1307797887 294870555 -17395200
            -18934726 -617677220 -938850773</internalNodes>
          <leafValues>
            -1.4975108206272125e-01 1.9063545763492584e-01</leafValues></_>
        <_>
          <internalNodes>
            0 -1 49 -352415928 -293714390 -17158417 1884843624
            -1560474276 1717570916 -776764699 -218634749</internalNodes>
          <leafValues>
            -1.7091035842895508e-01 1.6620755195617676e-01</leafValues></_>
        <_>
          <internalNodes>
            0 -1 188 -5011207 -291373 -591929345 -201351683 -279041 -9
            -89407493 -1148515304</internalNodes>
          <leafValues>
            -1.1425894498825073e-01 2.4803416430950165e-01</leafValues></_>
        <_>
          <internalNodes>
            0 -1 364 -268448016 532098301 -805572611 226434285 534031784
            -1077994019 -134435604 217921020</internalNodes>
          <leafValues>
            -2.6092278957366943e-01 1.1069618910551071e-01</leafValues></_>
        <_>
          <internalNodes>
            0 -1 256 -859962124 -537121676 -1073791493 -4649507
            -1187103310 -110594 -1612530182 -1078064904</internalNodes>
          <leafValues>
            -1.7860795557498932e-01 1.5922853350639343e-01</leafValues></_></weakClassifiers></_>
    <!-- stage 4 -->
    <_>
      <maxWeakCount>71</maxWeakCount>
      <stageThreshold>-2.5702550411224365e+00</stageThreshold>
      <weakClassifiers>
        <_>
          <internalNodes>
            0 -1 216 -1073774593 -57987 536838143 2139062269 -1078280193
            -6 263913471 -1</internalNodes>
          <leafValues>
            -2.1106919646263123e-01 5.4801779985427856e-01</leafValues></_>
        <_>
          <internalNodes>
            0 -1 112 -131073 -9366751 -918543 -15633631 -926381906
            -67493454 -2000123734 -265285</internalNodes>
          <leafValues>
            -1.8422853946685791e-01 4.9887219071388245e-01</leafValues></_>
        <_>
          <internalNodes>
            0 -1 399 -4 -1 -1 -1073741825 -16388 -1 -2 788529151</internalNodes>
          <leafValues>
            -3.1002116203308105e-01 2.4993200600147247e-01</leafValues></_>
        <_>
          <internalNodes>
            0 -1 208 -1474100205 -4521968 -8388609 -8434403 -1432183654
            -16901 -1979121665 -888979453</internalNodes>
          <leafValues>
            -2.3554861545562744e-01 3.1034296751022339e-01</leafValues></_>
        <_>
          <internalNodes>
            0 -1 30 -353435905 -806441234 -4129 -31282654 -143507457
            -1171458 -143310849 -148412637</internalNodes>
          <leafValues>
            -2.2894665598869324e-01 3.0072253942489624e-01</leafValues></_>
        <_>
          <internalNodes>
            0 -1 239 -651110152 -570863368 -549724675 1572560125
            -1170540294 -4547400 993722363 456788152</internalNodes>
          <leafValues>
            -3.0365234613418579e-01 2.0708853006362915e-01</leafValues></_>
        <_>
          <internalNodes>
            0 -1 411 -16624 -1073763267 -1075868227 -1325682625
            -17830484 -1074813521 -458579808 -391452502</internalNodes>
          <leafValues>
            -2.2230887413024902e-01 2.7786529064178467e-01</leafValues></_>
        <_>
          <internalNodes>
            0 -1 28 -21957 -9362655 -541584964 2100384048 12323006
            767306028 178785279 1429763513</internalNodes>
          <leafValues>
            -2.9511722922325134e-01 1.8313057720661163e-01</leafValues></_>
        <_>
          <internalNodes>
            0 -1 277 -1685022504 496502936 152050173 488177693 671123640
            -1078326888 168332031 454756539</internalNodes>
          <leafValues>
            -2.6842018961906433e-01 2.2331209480762482e-01</leafValues></_>
        <_>
          <internalNodes>
            0 -1 209 -821310256 -543227888 -581108259 1560347648
            143130810 -1895890519 -2002801985 454756411</internalNodes>
          <leafValues>
            -2.9611784219741821e-01 1.6251292824745178e-01</leafValues></_>
        <_>
          <internalNodes>
            0 -1 17 -856699677 -537920001 -1 -257 -513 -4097 -570427913
            -1042825151</internalNodes>
          <leafValues>
            -1.3089439272880554e-01 3.5353234410285950e-01</leafValues></_>
        <_>
          <internalNodes>
            0 -1 380 -6791851 -1073791627 -268828673 -1355022465 -201104
            -4491659 -1430716676 -1439642054</internalNodes>
          <leafValues>
            -2.2602291405200958e-01 2.1744185686111450e-01</leafValues></_>
        <_>
          <internalNodes>
            0 -1 214 -807412997 1104679056 259011568 1372607184
            -1882391814 -1998017880 198740218 -606342406</internalNodes>
          <leafValues>
            -1.7851303517818451e-01 2.8455403447151184e-01</leafValues></_>
        <_>
          <internalNodes>
            0 -1 393 -1078263873 -1879130691 -268435525 -1879065459
            -1074069505 -1883521025 215962800 -855652182</internalNodes>
          <leafValues>
            -1.6193488240242004e-01 2.6459810137748718e-01</leafValues></_>
        <_>
          <internalNodes>
            0 -1 238 -1112009224 -38206212 -1610735619 -537059843
            -1078411266 -1078287108 -1146568705 -1078326086</internalNodes>
          <leafValues>
            -1.9807863235473633e-01 2.1847885847091675e-01</leafValues></_>
        <_>
          <internalNodes>
            0 -1 154 -2147237743 -5303599 -1610817537 -4255727
            -1728907589 -34373 -1937732163 -1995751423</internalNodes>
          <leafValues>
            -1.9300375878810883e-01 2.2267284989356995e-01</leafValues></_>
        <_>
          <internalNodes>
            0 -1 308 -95428094 1360068609 1079925001 18447 -95453184
            -1709503742 -401736958 1242556939</internalNodes>
          <leafValues>
            -2.7735853195190430e-01 1.5852956473827362e-01</leafValues></_>
        <_>
          <internalNodes>
            0 -1 48 -587251462 -136363964 1344947420 1599620100
            -1599037254 -227539968 805307018 2131444635</internalNodes>
          <leafValues>
            -2.1882900595664978e-01 1.8697725236415863e-01</leafValues></_>
        <_>
          <internalNodes>
            0 -1 316 -667940612 -61953 -538992641 -57345 -1078289922
            -81989 -1076314113 -1171650374</internalNodes>
          <leafValues>
            -1.8584232032299042e-01 2.1267154812812805e-01</leafValues></_>
        <_>
          <internalNodes>
            0 -1 215 -736603916 -58116 -4325889 -33616387 -1145520900
            -312835 -1078281218 -1078260548</internalNodes>
          <leafValues>
            -1.7930257320404053e-01 2.1653278172016144e-01</leafValues></_>
        <_>
          <internalNodes>
            0 -1 88 -286374660 -629274624 -218169729 1882341488
            -496628612 -95261115 -1502597526 -97291710</internalNodes>
          <leafValues>
            -2.1063005924224854e-01 1.7506399750709534e-01</leafValues></_>
        <_>
          <internalNodes>
            0 -1 152 -905258758 -620101616 489215473 1494749264
            134742232 -1979187072 1091588351 1527468235</internalNodes>
          <leafValues>
            -1.9844566285610199e-01 1.8469440937042236e-01</leafValues></_>
        <_>
          <internalNodes>
            0 -1 372 -1080369155 -1174594060 -4195339 -1912846347
            -1078019151 -1361125648 1060683769 -1363485510</internalNodes>
          <leafValues>
            -1.7110890150070190e-01 2.1526691317558289e-01</leafValues></_>
        <_>
          <internalNodes>
            0 -1 303 -1718561576 -36175824 523853181 521736345
            -1206863624 -1145566984 151035064 452985016</internalNodes>
          <leafValues>
            -2.7456197142601013e-01 1.2982292473316193e-01</leafValues></_>
        <_>
          <internalNodes>
            0 -1 26 -1962163574 -538977800 -619687617 -576955044 1084074
            -818282240 1193330607 1595262417</internalNodes>
          <leafValues>
            -2.1370297670364380e-01 1.6795328259468079e-01</leafValues></_>
        <_>
          <internalNodes>
            0 -1 417 -1073807425 -1880174593 -1 -268451841 -1896300545
            -1964852265 534770687 -805306369</internalNodes>
          <leafValues>
            -1.0903622955083847e-01 3.1578704714775085e-01</leafValues></_>
        <_>
          <internalNodes>
            0 -1 369 -1078311887 -1078239439 -1 -1552712323 -1097150160
            -1074831557 -1078275589 -365764869</internalNodes>
          <leafValues>
            -1.6008917987346649e-01 2.1814270317554474e-01</leafValues></_>
        <_>
          <internalNodes>
            0 -1 138 -2004102991 -4029824 534762973 -544083087
            -1959544065 -1085594121 84787339 -921714671</internalNodes>
          <leafValues>
            -1.4436036348342896e-01 2.3738171160221100e-01</leafValues></_>
        <_>
          <internalNodes>
            0 -1 231 -1146087176 -4252428 -1073782785 -188931
            -1162310404 -1405507 -1431781377 -1414887204</internalNodes>
          <leafValues>
            -1.8218949437141418e-01 1.8163229525089264e-01</leafValues></_>
        <_>
          <internalNodes>
            0 -1 37 -65537 -123012 804683774 1073495804 2146385917
            -49154 2147434495 -32897</internalNodes>
          <leafValues>
            -1.2992338836193085e-01 2.5745654106140137e-01</leafValues></_>
        <_>
          <internalNodes>
            0 -1 219 -790634356 1430593540 -659033952 1359601708
            1074118826 -1532227544 -21630800 1342559487</internalNodes>
          <leafValues>
            -2.5037312507629395e-01 1.3173224031925201e-01</leafValues></_>
        <_>
          <internalNodes>
            0 -1 216 1245347856 1027098354 -312820353 -1078125221
            -1972602696 -1095095107 -1169947457 506347706</internalNodes>
          <leafValues>
            -2.1343900263309479e-01 1.5348367393016815e-01</leafValues></_>
        <_>
          <internalNodes>
            0 -1 395 -99418607 -536870917 -1310721 -8388609 -262401
            -33619969 -1025 -1440678093</internalNodes>
          <leafValues>
            -1.7013056576251984e-01 1.8955755233764648e-01</leafValues></_>
        <_>
          <internalNodes>
            0 -1 285 -671067952 -6553224 -32769 -536931235 -1363507016
            -1073783363 -1079344386 1068107947</internalNodes>
          <leafValues>
            -2.0651230216026306e-01 1.5743596851825714e-01</leafValues></_>
        <_>
          <internalNodes>
            0 -1 62 -11599352 -115865572 520650111 990409274 -750125048
            -163445760 134351551 2063856355</internalNodes>
          <leafValues>
            -2.0255585014820099e-01 1.5965096652507782e-01</leafValues></_>
        <_>
          <internalNodes>
            0 -1 391 -1089807140 -1680040452 -1073741827 -1334042644
            -1384057424 -1342442063 134259888 -524615944</internalNodes>
          <leafValues>
            -2.0340433716773987e-01 1.5747050940990448e-01</leafValues></_>
        <_>
          <internalNodes>
            0 -1 376 -1078525963 -1883619436 -1745095169 -1885292104
            -1174487560 -1896958241 1039856124 -1901405048</internalNodes>
          <leafValues>
            -1.7972558736801147e-01 1.7387025058269501e-01</leafValues></_>
        <_>
          <internalNodes>
            0 -1 109 -25202947 -94408075 -25395457 2121291390 -25293444
            -8697012 -1166636358 -29626806</internalNodes>
          <leafValues>
            -1.2288431078195572e-01 2.5429457426071167e-01</leafValues></_>
        <_>
          <internalNodes>
            0 -1 148 -635964329 -498965392 1330150911 1073892352
            -866315264 -16890473 1162940501 -939339775</internalNodes>
          <leafValues>
            -1.9181282818317413e-01 1.6373778879642487e-01</leafValues></_>
        <_>
          <internalNodes>
            0 -1 11 1359070370 -772561217 -33565705 -639113305
            -199511813 1658006194 -729821333 1393246987</internalNodes>
          <leafValues>
            -1.7704905569553375e-01 1.7676998674869537e-01</leafValues></_>
        <_>
          <internalNodes>
            0 -1 146 -218377990 -791125796 326651953 61915192 -340741958
            -686105608 1392556219 185322394</internalNodes>
          <leafValues>
            -1.8968403339385986e-01 1.6175197064876556e-01</leafValues></_>
        <_>
          <internalNodes>
            0 -1 357 -612869003 -45059 -8389633 -32771 -4539788 -313377
            -30351362 -1440723408</internalNodes>
          <leafValues>
            -1.8265438079833984e-01 1.5810133516788483e-01</leafValues></_>
        <_>
          <internalNodes>
            0 -1 279 -634351368 -4717424 428879293 496500829 -1145395278
            -353800 456138683 454624408</internalNodes>
          <leafValues>
            -2.0841047167778015e-01 1.4145587384700775e-01</leafValues></_>
        <_>
          <internalNodes>
            0 -1 6 -939351390 -49825111 -1074807809 -4457942 -50598945
            -36975713 -526849 1090863105</internalNodes>
          <leafValues>
            -1.9909740984439850e-01 1.4820736646652222e-01</leafValues></_>
        <_>
          <internalNodes>
            0 -1 328 -1615151206 -1315796464 397628693 353178972
            -1409304136 -1969710704 203018392 -610280310</internalNodes>
          <leafValues>
            -1.3704466819763184e-01 2.0235629379749298e-01</leafValues></_>
        <_>
          <internalNodes>
            0 -1 409 -210587632 -1678006787 -67138563 -1332027009
            -302603008 -1430895019 -252476232 -534721886</internalNodes>
          <leafValues>
            -1.8409784138202667e-01 1.4884613454341888e-01</leafValues></_>
        <_>
          <internalNodes>
            0 -1 382 -1095084944 -1078256624 -1140858889 896621845
            -1095172688 -1145151977 1052548849 -357896454</internalNodes>
          <leafValues>
            -1.7310494184494019e-01 1.6621978580951691e-01</leafValues></_>
        <_>
          <internalNodes>
            0 -1 96 -2147319424 -652377487 -69993123 -537539463
            -2146915345 -671054800 1661027837 1124581633</internalNodes>
          <leafValues>
            -2.1523989737033844e-01 1.2960553169250488e-01</leafValues></_>
        <_>
          <internalNodes>
            0 -1 40 -895302620 -1035819102 -138532682 -157228512
            1642531647 -1655355597 1658011857 -990657406</internalNodes>
          <leafValues>
            -1.8925923109054565e-01 1.4409713447093964e-01</leafValues></_>
        <_>
          <internalNodes>
            0 -1 120 -298123119 -537179820 1610252151 2013203797
            -1556478468 -4518147 -1343080453 -4472677</internalNodes>
          <leafValues>
            -1.0783527791500092e-01 2.5340470671653748e-01</leafValues></_>
        <_>
          <internalNodes>
            0 -1 315 -838631424 -149641 -575401036 -1651769441 -10787
            -8462377 -823145505 268552715</internalNodes>
          <leafValues>
            -1.7329548299312592e-01 1.5615537762641907e-01</leafValues></_>
        <_>
          <internalNodes>
            0 -1 330 -635959080 -836353 -13705217 -37800449 -1078149702
            -426641 1002224639 973734970</internalNodes>
          <leafValues>
            -1.9616103172302246e-01 1.4047807455062866e-01</leafValues></_>
        <_>
          <internalNodes>
            0 -1 90 -1879085249 -1998836611 267136303 268185599
            -1349992641 821572980 191704860 184307928</internalNodes>
          <leafValues>
            -2.2608965635299683e-01 1.2012624740600586e-01</leafValues></_>
        <_>
          <internalNodes>
            0 -1 223 -15540808 -71886352 -5300225 -541126159 -1162154310
            -4309542 -1148669957 -1080091222</internalNodes>
          <leafValues>
            -1.2158832699060440e-01 2.1991893649101257e-01</leafValues></_>
        <_>
          <internalNodes>
            0 -1 414 -1953317228 -1912687202 -1430548551 -1879274019
            -1367347724 -2002064275 16089248 -855638793</internalNodes>
          <leafValues>
            -1.6933992505073547e-01 1.5948754549026489e-01</leafValues></_>
        <_>
          <internalNodes>
            0 -1 178 -352088048 1477444114 239079184 150995342
            -1911453560 210108416 441960604 1270872059</internalNodes>
          <leafValues>
            -1.9495098292827606e-01 1.2828195095062256e-01</leafValues></_>
        <_>
          <internalNodes>
            0 -1 281 -737128363 -42467204 1563446869 2100299320
            -1436535108 -1107530504 -1204805891 -1154873669</internalNodes>
          <leafValues>
            -1.3958592712879181e-01 1.7898280918598175e-01</leafValues></_>
        <_>
          <internalNodes>
            0 -1 112 -792065376 1352068658 -841071090 1405520114
            309684049 72731261 1291149909 1078316100</internalNodes>
          <leafValues>
            -2.5866368412971497e-01 9.8299153149127960e-02</leafValues></_>
        <_>
          <internalNodes>
            0 -1 95 -1978999307 -357914070 -1 -8956794 -1345323009
            -262465 -805578885 -570696587</internalNodes>
          <leafValues>
            -1.2389787286520004e-01 2.0049451291561127e-01</leafValues></_>
        <_>
          <internalNodes>
            0 -1 128 -2010513232 -593604528 -325161475 1605918164
            -1355150280 -617920322 -1382020885 -878983984</internalNodes>
          <leafValues>
            -1.7212754487991333e-01 1.4758665859699249e-01</leafValues></_>
        <_>
          <internalNodes>
            0 -1 218 168820817 -34046851 -1074315265 -1637351332
            -1092447240 -16960001 1060913021 134218768</internalNodes>
          <leafValues>
            -2.8016018867492676e-01 8.5822463035583496e-02</leafValues></_>
        <_>
          <internalNodes>
            0 -1 342 -606090733 -855022992 1120854305 16835199
            -556350832 178420880 -881614831 -613423409</internalNodes>
          <leafValues>
            -1.3193702697753906e-01 1.8658062815666199e-01</leafValues></_>
        <_>
          <internalNodes>
            0 -1 32 -209611894 1481327130 301815769 1409276786 57274286
            334254156 33654235 1409278875</internalNodes>
          <leafValues>
            -1.5797595679759979e-01 1.5294690430164337e-01</leafValues></_>
        <_>
          <internalNodes>
            0 -1 304 -1730636292 -33600011 -1212187137 2113743069
            -1415794691 -1097793 -1136869441 -1080357700</internalNodes>
          <leafValues>
            -1.4910508692264557e-01 1.6082397103309631e-01</leafValues></_>
        <_>
          <internalNodes>
            0 -1 335 -262177 1073545111 971471837 -1075838977 -16388
            -1074922049 -16642 -17413</internalNodes>
          <leafValues>
            -6.0217663645744324e-02 3.9949837327003479e-01</leafValues></_>
        <_>
          <internalNodes>
            0 -1 49 -352326674 -428978322 -272748862 -262000978
            -226947299 -160150156 -151617066 -227020222</internalNodes>
          <leafValues>
            -1.3803565502166748e-01 1.7868976294994354e-01</leafValues></_>
        <_>
          <internalNodes>
            0 -1 194 -584970024 -1646722912 -1074046217 -1621419848
            -1180428036 -1076220483 -1481064513 -1078325768</internalNodes>
          <leafValues>
            -1.6177310049533844e-01 1.4594992995262146e-01</leafValues></_>
        <_>
          <internalNodes>
            0 -1 103 -1371874127 -23171912 -4259969 2110838832
            -1163262852 1852786265 442795135 -550285231</internalNodes>
          <leafValues>
            -1.5051685273647308e-01 1.5506979823112488e-01</leafValues></_>
        <_>
          <internalNodes>
            0 -1 338 -629489573 -748965103 -25601 290154591 -556077247
            -125129 -563807494 -368906501</internalNodes>
          <leafValues>
            -1.1061501502990723e-01 2.1477138996124268e-01</leafValues></_>
        <_>
          <internalNodes>
            0 -1 343 -598352107 -539100289 -33570945 -1329742049
            -1283607275 -16641 -402659841 -1604241913</internalNodes>
          <leafValues>
            -1.2505084276199341e-01 1.8930509686470032e-01</leafValues></_>
        <_>
          <internalNodes>
            0 -1 184 1490375162 1507307519 -639804425 92580551
            1171747327 -709558796 -245376053 1359042527</internalNodes>
          <leafValues>
            -1.5943047404289246e-01 1.4889477193355560e-01</leafValues></_></weakClassifiers></_>
    <!-- stage 5 -->
    <_>
      <maxWeakCount>83</maxWeakCount>
      <stageThreshold>-2.5040352344512939e+00</stageThreshold>
      <weakClassifiers>
        <_>
          <internalNodes>
            0 -1 228 -1073774593 -41475 1065320447 2139054077
            -1078263809 -2 532348927 -1</internalNodes>
          <leafValues>
            -2.0098407566547394e-01 5.0018024444580078e-01</leafValues></_>
        <_>
          <internalNodes>
            0 -1 13 -16842754 -4542534 -1 -462920 -1073758209 -16385
            2138259455 2139062075</internalNodes>
          <leafValues>
            -3.1346035003662109e-01 2.8256490826606750e-01</leafValues></_>
        <_>
          <internalNodes>
            0 -1 125 -536870945 -15375099 -552476911 1997667073
            -930313076 -5635832 -938882421 -14689381</internalNodes>
          <leafValues>
            -1.7138086259365082e-01 4.3872588872909546e-01</leafValues></_>
        <_>
          <internalNodes>
            0 -1 406 -8844 -1073758721 -1 -1107312641 -29048 -16385
            -29528 -2130786134</internalNodes>
          <leafValues>
            -3.3092433214187622e-01 2.0088687539100647e-01</leafValues></_>
        <_>
          <internalNodes>
            0 -1 190 -2013068271 -4521968 -1 -4253891 -1942381411
            -296005 -2012176453 -2012528639</internalNodes>
          <leafValues>
            -2.5034090876579285e-01 2.3750509321689606e-01</leafValues></_>
        <_>
          <internalNodes>
            0 -1 200 -116338448 -46591920 2134474109 2131824688
            -1440171846 -21364552 437844155 990593176</internalNodes>
          <leafValues>
            -2.4885639548301697e-01 2.1757052838802338e-01</leafValues></_>
        <_>
          <internalNodes>
            0 -1 283 -99597195 -958979 -139265 -35824291 -21299201 -257
            -4522241 -100513765</internalNodes>
          <leafValues>
            -2.0275962352752686e-01 2.6184010505676270e-01</leafValues></_>
        <_>
          <internalNodes>
            0 -1 36 -1023750402 -806711570 -68489217 -31292894
            1085552127 -809234433 1171609079 -1035779982</internalNodes>
          <leafValues>
            -2.2749800980091095e-01 2.1325881779193878e-01</leafValues></_>
        <_>
          <internalNodes>
            0 -1 161 -67440392 -606596912 -12913159 1594970160
            -1682407174 -1162178312 455146427 454705337</internalNodes>
          <leafValues>
            -2.8337964415550232e-01 1.6489481925964355e-01</leafValues></_>
        <_>
          <internalNodes>
            0 -1 367 -537371563 -191179 -1 -12886149 -82064 -195
            -84869128 -1440690640</internalNodes>
          <leafValues>
            -2.5574693083763123e-01 1.6503167152404785e-01</leafValues></_>
        <_>
          <internalNodes>
            0 -1 268 -538971950 59812050 1295143024 297785435 -858924804
            -1970632472 1237696728 181138059</internalNodes>
          <leafValues>
            -2.0807550847530365e-01 2.1261180937290192e-01</leafValues></_>
        <_>
          <internalNodes>
            0 -1 137 -715930174 -774561579 -67108881 1359016330
            1355088126 -990658405 -715138070 285425931</internalNodes>
          <leafValues>
            -2.7427858114242554e-01 1.5127347409725189e-01</leafValues></_>
        <_>
          <internalNodes>
            0 -1 266 -1078420996 -2292484 -1077977091 -536929059
            -1145520130 -1073857028 -1078280193 -1078261509</internalNodes>
          <leafValues>
            -1.6255588829517365e-01 2.5959974527359009e-01</leafValues></_>
        <_>
          <internalNodes>
            0 -1 415 -1073807425 -1879130113 -65601 -1342177281
            -1343307777 -1375813697 260087728 -805306369</internalNodes>
          <leafValues>
            -1.4486737549304962e-01 2.8138184547424316e-01</leafValues></_>
        <_>
          <internalNodes>
            0 -1 384 -1147478027 -1074316804 -3 -1393787651 -1078263823
            -1073741825 1052442109 -1364263750</internalNodes>
          <leafValues>
            -1.8483890593051910e-01 2.0982667803764343e-01</leafValues></_>
        <_>
          <internalNodes>
            0 -1 53 -83947908 -128840104 1591611054 1879051786
            -160232696 1936918548 -151900289 -210507933</internalNodes>
          <leafValues>
            -1.9059255719184875e-01 1.9744819402694702e-01</leafValues></_>
        <_>
          <internalNodes>
            0 -1 250 -586624776 -541519720 -4530177 1570443481
            -1162180360 -345879 -1431659266 187302024</internalNodes>
          <leafValues>
            -2.5290715694427490e-01 1.4847657084465027e-01</leafValues></_>
        <_>
          <internalNodes>
            0 -1 309 -595599360 1560637448 337399869 269087759
            1278197912 1280839960 1208799416 1209005055</internalNodes>
          <leafValues>
            -2.4452073872089386e-01 1.4992254972457886e-01</leafValues></_>
        <_>
          <internalNodes>
            0 -1 76 -1978933120 -91561600 271729901 -77232 168461483
            -636534733 102843535 1192219649</internalNodes>
          <leafValues>
            -2.2889076173305511e-01 1.5100978314876556e-01</leafValues></_>
        <_>
          <internalNodes>
            0 -1 242 -4694540 -62211 -32769 -58115 -1078280195 -82945
            -1141194753 -1078256386</internalNodes>
          <leafValues>
            -1.5333236753940582e-01 2.2375306487083435e-01</leafValues></_>
        <_>
          <internalNodes>
            0 -1 45 -805327041 -9162914 228395357 1997807417 231518205
            1828468156 368906239 1560033976</internalNodes>
          <leafValues>
            -2.2331120073795319e-01 1.5300028026103973e-01</leafValues></_>
        <_>
          <internalNodes>
            0 -1 82 -84677942 -216989184 808460914 321987122 -926940984
            65536 1884308223 1934881627</internalNodes>
          <leafValues>
            -2.3554632067680359e-01 1.4545640349388123e-01</leafValues></_>
        <_>
          <internalNodes>
            0 -1 390 -1078305417 -1073758892 -1354776577 -32803
            -1076036687 -1073741833 -1373721412 -365236704</internalNodes>
          <leafValues>
            -1.6107457876205444e-01 2.0161287486553192e-01</leafValues></_>
        <_>
          <internalNodes>
            0 -1 363 -15474925 -1 -1 -4980737 -2161407 -257 -1
            -2144280813</internalNodes>
          <leafValues>
            -1.4224591851234436e-01 2.2628161311149597e-01</leafValues></_>
        <_>
          <internalNodes>
            0 -1 276 -4662020 -536998696 -37789697 -536936195
            -1146443014 -1074067972 -1146437697 -1081406210</internalNodes>
          <leafValues>
            -1.3704948127269745e-01 2.4089501798152924e-01</leafValues></_>
        <_>
          <internalNodes>
            0 -1 321 -664911855 1394541593 1517704575 291049563
            -553744382 -8712533 -361039238 1242221083</internalNodes>
          <leafValues>
            -1.8926404416561127e-01 1.7241947352886200e-01</leafValues></_>
        <_>
          <internalNodes>
            0 -1 27 -788012414 -2147450238 1434264462 -6555649
            -1056144193 301992355 1074855937 1090646275</internalNodes>
          <leafValues>
            -2.6750573515892029e-01 1.1946844309568405e-01</leafValues></_>
        <_>
          <internalNodes>
            0 -1 296 -1615274756 -453124 -1 -537059843 -1416560644
            -127235 -1078411330 -1078328136</internalNodes>
          <leafValues>
            -1.8589779734611511e-01 1.6675803065299988e-01</leafValues></_>
        <_>
          <internalNodes>
            0 -1 61 -1 -8552611 1009530111 1008221822 -8421507 -8425860
            -1099006082 -25692545</internalNodes>
          <leafValues>
            -1.0073381662368774e-01 3.0327251553535461e-01</leafValues></_>
        <_>
          <internalNodes>
            0 -1 35 -521477904 -1064639546 -67113225 -102047006
            -151795713 -238569483 1140278481 -941113166</internalNodes>
          <leafValues>
            -1.5401525795459747e-01 1.9776469469070435e-01</leafValues></_>
        <_>
          <internalNodes>
            0 -1 204 -1145430792 -541391624 -1077969409 532617693
            -1162176008 -1074119175 -1348820993 -1078261624</internalNodes>
          <leafValues>
            -1.6570021212100983e-01 1.7760074138641357e-01</leafValues></_>
        <_>
          <internalNodes>
            0 -1 294 -352410694 -1216339000 -1141040129 524858252
            687481786 735622040 737948158 198154446</internalNodes>
          <leafValues>
            -2.0517472922801971e-01 1.4449912309646606e-01</leafValues></_>
        <_>
          <internalNodes>
            0 -1 22 -2146705248 -558107140 -1861428913 -553123704
            -1068776035 -549495411 57930719 17776649</internalNodes>
          <leafValues>
            -2.2082263231277466e-01 1.3062269985675812e-01</leafValues></_>
        <_>
          <internalNodes>
            0 -1 245 -1979556523 -385089 -1108525057 -1086779907
            -1078813249 -335875 -1087103493 134217729</internalNodes>
          <leafValues>
            -2.2250211238861084e-01 1.2491726130247116e-01</leafValues></_>
        <_>
          <internalNodes>
            0 -1 394 -1074348097 -1343307845 -604504141 -268469313
            -1346456129 -1947271169 147068080 -872416074</internalNodes>
          <leafValues>
            -1.2904298305511475e-01 2.1383835375308990e-01</leafValues></_>
        <_>
          <internalNodes>
            0 -1 149 1195819672 991374090 -6623585 251891466 1078241464
            -8699969 1145833660 1326402203</internalNodes>
          <leafValues>
            -2.0236930251121521e-01 1.3467155396938324e-01</leafValues></_>
        <_>
          <internalNodes>
            0 -1 111 -146333616 -619698892 1063280638 1025510074
            -1463025664 -1101528040 184561880 -83756102</internalNodes>
          <leafValues>
            -1.7802959680557251e-01 1.5086477994918823e-01</leafValues></_>
        <_>
          <internalNodes>
            0 -1 1 -1970616224 -1611661313 1610612735 -1715470357
            -1076895745 -1 -370419221 1142964592</internalNodes>
          <leafValues>
            -2.9641848802566528e-01 9.0168543159961700e-02</leafValues></_>
        <_>
          <internalNodes>
            0 -1 151 -1442145104 -541450664 -1073742849 -8692624
            -1346716422 -1615102979 -1413833477 -1893006183</internalNodes>
          <leafValues>
            -1.6138775646686554e-01 1.6683049499988556e-01</leafValues></_>
        <_>
          <internalNodes>
            0 -1 339 -629522413 1534787889 -93814785 5310591 -97351664
            -71431144 -1442268131 167955067</internalNodes>
          <leafValues>
            -1.9141280651092529e-01 1.4174011349678040e-01</leafValues></_>
        <_>
          <internalNodes>
            0 -1 180 -98569512 1477215308 312365296 418167038 1383969439
            302519773 1122468083 168804555</internalNodes>
          <leafValues>
            -2.0575593411922455e-01 1.2764182686805725e-01</leafValues></_>
        <_>
          <internalNodes>
            0 -1 336 -803933391 -33701889 -134479873 -4202561 -29575233
            -4858945 -67108865 -1464260088</internalNodes>
          <leafValues>
            -1.0476171970367432e-01 2.5170788168907166e-01</leafValues></_>
        <_>
          <internalNodes>
            0 -1 388 -619704875 -1084545195 -1879048193 -1586407437
            -8609596 -142620939 -286216472 -365900038</internalNodes>
          <leafValues>
            -1.5324763953685760e-01 1.7126332223415375e-01</leafValues></_>
        <_>
          <internalNodes>
            0 -1 258 -905822030 -590346086 492855163 -552464838
            -1669018946 -822475270 153099448 -618966982</internalNodes>
          <leafValues>
            -1.4208658039569855e-01 1.8355049192905426e-01</leafValues></_>
        <_>
          <internalNodes>
            0 -1 166 -80587536 -326188 2013102077 -61955 -1097809923
            -68459015 -1079328769 -1147535208</internalNodes>
          <leafValues>
            -1.5117344260215759e-01 1.6501872241497040e-01</leafValues></_>
        <_>
          <internalNodes>
            0 -1 60 -50385044 2088241716 -16797697 2086498158 -411620292
            1361118516 -185159809 -76025985</internalNodes>
          <leafValues>
            -1.3465492427349091e-01 1.9449438154697418e-01</leafValues></_>
        <_>
          <internalNodes>
            0 -1 125 -62585184 1172870906 1868183274 -1929108422
            73990691 7728819 350653950 14755438</internalNodes>
          <leafValues>
            -2.5463524460792542e-01 9.8956763744354248e-02</leafValues></_>
        <_>
          <internalNodes>
            0 -1 359 -1078264335 -1082224715 -1619132427 -1375985923
            -1074085891 -1999709705 -1078394888 -1430594390</internalNodes>
          <leafValues>
            -1.3657331466674805e-01 1.7843618988990784e-01</leafValues></_>
        <_>
          <internalNodes>
            0 -1 113 -230428534 18030722 -1923057155 1501506367
            1078049786 1499184498 269811848 1360200371</internalNodes>
          <leafValues>
            -2.0249146223068237e-01 1.2140128761529922e-01</leafValues></_>
        <_>
          <internalNodes>
            0 -1 80 -1968307048 -890361588 -1688802 -167622632
            -857076932 -16888524 865080500 -769408000</internalNodes>
          <leafValues>
            -2.0976287126541138e-01 1.1569609493017197e-01</leafValues></_>
        <_>
          <internalNodes>
            0 -1 403 -3 1006583807 -369103489 469711864 -1143816308
            -1350586402 -1918320644 268434940</internalNodes>
          <leafValues>
            -1.6172948479652405e-01 1.4967368543148041e-01</leafValues></_>
        <_>
          <internalNodes>
            0 -1 311 -603926448 493879476 530076765 488442365
            -1170542406 -549844752 184555707 520617992</internalNodes>
          <leafValues>
            -2.1634308993816376e-01 1.1178699880838394e-01</leafValues></_>
        <_>
          <internalNodes>
            0 -1 200 -701766561 1458585663 -42543115 357059677 -74259728
            -1304823239 -469039308 -567240669</internalNodes>
          <leafValues>
            -1.2004882842302322e-01 2.0477122068405151e-01</leafValues></_>
        <_>
          <internalNodes>
            0 -1 256 -1909321996 -54023 -1142980609 -1610666755
            -1163198530 -4304905 -1409634306 -1078059522</internalNodes>
          <leafValues>
            -1.6759307682514191e-01 1.4173734188079834e-01</leafValues></_>
        <_>
          <internalNodes>
            0 -1 8 -1744661584 -109838405 276093885 -638321685 -36044833
            -19546113 -143272103 1163247755</internalNodes>
          <leafValues>
            -1.6075870394706726e-01 1.4865237474441528e-01</leafValues></_>
        <_>
          <internalNodes>
            0 -1 49 -923925772 -33673853 -1628819730 814885410
            -1066400072 1400180094 -1057947200 -193469117</internalNodes>
          <leafValues>
            -1.7586328089237213e-01 1.3401691615581512e-01</leafValues></_>
        <_>
          <internalNodes>
            0 -1 142 -651964399 -68505583 -1111498753 -1376943560
            -48257611 -87082573 -853977601 -1952727040</internalNodes>
          <leafValues>
            -1.1747343838214874e-01 1.9908651709556580e-01</leafValues></_>
        <_>
          <internalNodes>
            0 -1 412 -1078808816 -1881497543 -1782726979 -1703149480
            -1359496532 -2047561745 10978464 -1025055582</internalNodes>
          <leafValues>
            -1.8219639360904694e-01 1.2650486826896667e-01</leafValues></_>
        <_>
          <internalNodes>
            0 -1 232 -553549232 1392582672 150998109 16797712 -939456360
            169020434 1297976348 1394602971</internalNodes>
          <leafValues>
            -1.9134034216403961e-01 1.1920773983001709e-01</leafValues></_>
        <_>
          <internalNodes>
            0 -1 68 340539196 351583324 229973820 -6438914 1040007164
            955857340 700267416 769462447</internalNodes>
          <leafValues>
            -1.7071169614791870e-01 1.2997105717658997e-01</leafValues></_>
        <_>
          <internalNodes>
            0 -1 355 -88424429 -2029781729 -1350631459 19029791
            -337054976 -539232737 1781588504 -366813605</internalNodes>
          <leafValues>
            -1.3896740972995758e-01 1.6373628377914429e-01</leafValues></_>
        <_>
          <internalNodes>
            0 -1 273 -1476214021 -17123208 -4898817 -1107813295
            -1610567432 -67462694 1562468347 -620018679</internalNodes>
          <leafValues>
            -1.1372295767068863e-01 1.9697542488574982e-01</leafValues></_>
        <_>
          <internalNodes>
            0 -1 20 -921965121 -2147440978 -16657 -4199734 2143280639
            -275775489 1431655927 -985152265</internalNodes>
          <leafValues>
            -1.0206556320190430e-01 2.2410833835601807e-01</leafValues></_>
        <_>
          <internalNodes>
            0 -1 119 -1440085872 -23187624 -272754689 2115510005
            -1096153028 -68215332 691152859 -1155842032</internalNodes>
          <leafValues>
            -1.8471403419971466e-01 1.2426027655601501e-01</leafValues></_>
        <_>
          <internalNodes>
            0 -1 210 -1442149192 -4717424 -574624001 1073287240
            -1163354632 -1142972450 -1430607106 -1901454200</internalNodes>
          <leafValues>
            -1.7774665355682373e-01 1.2460743635892868e-01</leafValues></_>
        <_>
          <internalNodes>
            0 -1 183 -539123982 1299186098 259001712 1300278194
            1271519435 62166962 185928368 1272836626</internalNodes>
          <leafValues>
            -1.8207100033760071e-01 1.1917663365602493e-01</leafValues></_>
        <_>
          <internalNodes>
            0 -1 77 -287970430 -615481520 -1657700527 185033271 46727823
            -660464456 1215641690 2038395514</internalNodes>
          <leafValues>
            -1.5729010105133057e-01 1.3753642141819000e-01</leafValues></_>
        <_>
          <internalNodes>
            0 -1 319 -665186809 -548207853 2146402303 293809727
            -83893951 -2101485 -8725986 -368915957</internalNodes>
          <leafValues>
            -1.2263783067464828e-01 1.7844335734844208e-01</leafValues></_>
        <_>
          <internalNodes>
            0 -1 5 -973036796 -266159205 -4276225 -409865 -3162179
            -1074020417 -190531 -2023415501</internalNodes>
          <leafValues>
            -1.4920918643474579e-01 1.4293234050273895e-01</leafValues></_>
        <_>
          <internalNodes>
            0 -1 92 -16814467 -25219236 2117906047 1029799542 -9605507
            -144017655 -437649669 -8388769</internalNodes>
          <leafValues>
            -9.3958988785743713e-02 2.3354576528072357e-01</leafValues></_>
        <_>
          <internalNodes>
            0 -1 153 -4516367 -323148 1579114461 -2292359 741093245
            -67557636 -1347472134 -543489912</internalNodes>
          <leafValues>
            -1.1968327313661575e-01 1.7831641435623169e-01</leafValues></_>
        <_>
          <internalNodes>
            0 -1 301 -72318732 -536932104 -536922625 2134840828
            -1148053062 -71668225 -1162857477 993659051</internalNodes>
          <leafValues>
            -1.5580809116363525e-01 1.3431924581527710e-01</leafValues></_>
        <_>
          <internalNodes>
            0 -1 259 -2107596158 -1694521417 -818206128 729984170
            -1529494027 -239813225 -195363 1164800</internalNodes>
          <leafValues>
            -2.1934102475643158e-01 9.6624962985515594e-02</leafValues></_>
        <_>
          <internalNodes>
            0 -1 349 -1078283373 -1714376258 415268112 -238214516
            -1275088494 -2086997328 1001771152 -253770109</internalNodes>
          <leafValues>
            -1.2720622122287750e-01 1.6666528582572937e-01</leafValues></_>
        <_>
          <internalNodes>
            0 -1 385 -1086658768 -1442927820 -1090519563 -1455721544
            -1615856203 -1980170563 1073741821 -1934697424</internalNodes>
          <leafValues>
            -1.6798563301563263e-01 1.2125018984079361e-01</leafValues></_>
        <_>
          <internalNodes>
            0 -1 140 -268440577 1167140353 -276836676 -327095774
            -858486238 -2078917597 -948566893 -134238289</internalNodes>
          <leafValues>
            -8.3390474319458008e-02 2.4752914905548096e-01</leafValues></_>
        <_>
          <internalNodes>
            0 -1 56 1987897340 2145335292 984891388 1073364986 921972664
            2113801272 644613356 1852407406</internalNodes>
          <leafValues>
            -1.8308919668197632e-01 1.1498034745454788e-01</leafValues></_>
        <_>
          <internalNodes>
            0 -1 249 -96988944 -37814023 -1073760769 1060967673
            -1430602500 -1090576390 -1363628610 707658941</internalNodes>
          <leafValues>
            -1.8470117449760437e-01 1.1084699630737305e-01</leafValues></_>
        <_>
          <internalNodes>
            0 -1 43 -682628470 -552900120 926182591 1563977176
            -2125361990 -233307136 4235215 1566426906</internalNodes>
          <leafValues>
            -1.4542435109615326e-01 1.3962291181087494e-01</leafValues></_>
        <_>
          <internalNodes>
            0 -1 16 -792780256 -1339508839 1068150271 -1347486805
            -537026113 -545351939 -1900493 1124450827</internalNodes>
          <leafValues>
            -1.5972742438316345e-01 1.2675979733467102e-01</leafValues></_>
        <_>
          <internalNodes>
            0 -1 136 -2012483567 -69032745 536870909 -612510479
            928495039 -68240397 121587131 -909131775</internalNodes>
          <leafValues>
            -1.1246699839830399e-01 1.8666796386241913e-01</leafValues></_>
        <_>
          <internalNodes>
            0 -1 404 -797382827 -168181761 -84951041 807845887
            -279621771 -329646611 -1074069832 -1338708998</internalNodes>
          <leafValues>
            -1.3742218911647797e-01 1.4762128889560699e-01</leafValues></_>
        <_>
          <internalNodes>
            0 -1 262 1413817358 1165305116 165953516 1363533230
            1081057464 1289591784 491757624 1399848699</internalNodes>
          <leafValues>
            -1.7968130111694336e-01 1.1630212515592575e-01</leafValues></_></weakClassifiers></_>
    <!-- stage 6 -->
    <_>
      <maxWeakCount>100</maxWeakCount>
      <stageThreshold>-2.5491511821746826e+00</stageThreshold>
      <weakClassifiers>
        <_>
          <internalNodes>
            0 -1 201 -1073774593 -32899 -1073774593 -41091 -1413808193
            -1 801046527 -1</internalNodes>
          <leafValues>
            -1.7624625563621521e-01 5.3104454278945923e-01</leafValues></_>
        <_>
          <internalNodes>
            0 -1 2 -16842754 -1114177 -1 -1 -1 -4194305 -1 2139062139</internalNodes>
          <leafValues>
            -2.6147571206092834e-01 2.8892934322357178e-01</leafValues></_>
        <_>
          <internalNodes>
            0 -1 34 -81 -10800367 -27460815 -15338703 -1964080982
            -4480728 -925046021 -67505157</internalNodes>
          <leafValues>
            -1.6001176834106445e-01 4.3223863840103149e-01</leafValues></_>
        <_>
          <internalNodes>
            0 -1 402 -8195 -1073759233 -1 -1073741825 -16388 -20481
            -20740 -1895838017</internalNodes>
          <leafValues>
            -2.3520478606224060e-01 2.5419157743453979e-01</leafValues></_>
        <_>
          <internalNodes>
            0 -1 254 -642591496 -570752776 -4497921 1606371581
            -1145374470 -4547336 993697787 453642424</internalNodes>
          <leafValues>
            -3.0171459913253784e-01 1.7141909897327423e-01</leafValues></_>
        <_>
          <internalNodes>
            0 -1 284 -804110253 -44675 -8560643 1594973533 -1430607105
            -67375173 -1430590721 -368949221</internalNodes>
          <leafValues>
            -1.3034169375896454e-01 3.3843341469764709e-01</leafValues></_>
        <_>
          <internalNodes>
            0 -1 46 -352391426 -489754962 -352915714 -261971326
            -478738561 -981643505 -1007466667 -143145117</internalNodes>
          <leafValues>
            -2.5171127915382385e-01 1.8935069441795349e-01</leafValues></_>
        <_>
          <internalNodes>
            0 -1 196 -1659318032 -1715666760 523506685 534710525
            402688248 -1145403144 1057005567 -1081472837</internalNodes>
          <leafValues>
            -2.2550517320632935e-01 1.9789952039718628e-01</leafValues></_>
        <_>
          <internalNodes>
            0 -1 391 -1145372681 -1073750659 -1073741825 -1107296771
            -1078265869 -1073809665 -1073810178 -352387910</internalNodes>
          <leafValues>
            -1.3134942948818207e-01 3.0194863677024841e-01</leafValues></_>
        <_>
          <internalNodes>
            0 -1 175 -572522614 -640304171 -586023075 1359079311
            12910732 -1967977080 -305141041 1495256223</internalNodes>
          <leafValues>
            -2.0347748696804047e-01 2.0490920543670654e-01</leafValues></_>
        <_>
          <internalNodes>
            0 -1 405 -8389356 -1082675211 -1 -1338982469 -10535668
            -2769031 -4360 -1608452046</internalNodes>
          <leafValues>
            -2.6440992951393127e-01 1.4356164634227753e-01</leafValues></_>
        <_>
          <internalNodes>
            0 -1 287 -1699161864 -1650981680 469769725 488177684
            704678024 -1078327880 167811775 454232217</internalNodes>
          <leafValues>
            -2.5109601020812988e-01 1.6773566603660583e-01</leafValues></_>
        <_>
          <internalNodes>
            0 -1 189 -2011492207 -52267 -587202561 -60035 -1728512513
            -67108865 -1942437889 -1994850303</internalNodes>
          <leafValues>
            -2.0742800831794739e-01 1.7272534966468811e-01</leafValues></_>
        <_>
          <internalNodes>
            0 -1 318 -1145392710 -1848595688 1030494580 285217024
            -1196903236 -1866978374 150804728 -1060122401</internalNodes>
          <leafValues>
            -1.7691172659397125e-01 1.9331765174865723e-01</leafValues></_>
        <_>
          <internalNodes>
            0 -1 52 -16187394 -586653860 2130771773 2130722687
            -1173319496 453640244 2065699000 2132475923</internalNodes>
          <leafValues>
            -2.2074124217033386e-01 1.4995777606964111e-01</leafValues></_>
        <_>
          <internalNodes>
            0 -1 221 -72691464 -4517680 -4202497 -541129516 -1078284804
            -274947 -1146437637 -1079312232</internalNodes>
          <leafValues>
            -1.5391235053539276e-01 2.1034368872642517e-01</leafValues></_>
        <_>
          <internalNodes>
            0 -1 341 -635289600 1461666067 -848635787 1090672387
            -25526240 -105199 -2147434272 33736275</internalNodes>
          <leafValues>
            -3.0183479189872742e-01 1.1242629587650299e-01</leafValues></_>
        <_>
          <internalNodes>
            0 -1 51 -1 -249860 -33652738 1039417340 -49156 -8425648
            -32769 -1</internalNodes>
          <leafValues>
            -9.2207193374633789e-02 3.6270514130592346e-01</leafValues></_>
        <_>
          <internalNodes>
            0 -1 386 -1078001729 -1344290913 -5 -1346372677 -1073807361
            -1879048193 268426491 -827339606</internalNodes>
          <leafValues>
            -1.1587125062942505e-01 2.6389366388320923e-01</leafValues></_>
        <_>
          <internalNodes>
            0 -1 135 -296485958 823206658 502595549 1609764627
            -817853766 -11419854 4229306 1532202939</internalNodes>
          <leafValues>
            -1.7560377717018127e-01 1.8070232868194580e-01</leafValues></_>
        <_>
          <internalNodes>
            0 -1 371 -1078273004 -1074389936 -66053 -1711534595
            -1128464456 -1074069516 1043660728 -352657409</internalNodes>
          <leafValues>
            -1.6649419069290161e-01 1.8617345392704010e-01</leafValues></_>
        <_>
          <internalNodes>
            0 -1 257 -1975903184 -553908996 1073709055 1564286045
            -1095188550 -1074118920 1068040127 1059736765</internalNodes>
          <leafValues>
            -2.4335949122905731e-01 1.2255998700857162e-01</leafValues></_>
        <_>
          <internalNodes>
            0 -1 100 -2012487552 -99946320 -1888553203 -3149296
            134849021 -904973680 18546841 1091522577</internalNodes>
          <leafValues>
            -2.2780050337314606e-01 1.2296519428491592e-01</leafValues></_>
        <_>
          <internalNodes>
            0 -1 63 -60984995 -597884836 223440669 208406621 -2140359879
            812650609 257809981 1079341656</internalNodes>
          <leafValues>
            -2.3127344250679016e-01 1.2354079633951187e-01</leafValues></_>
        <_>
          <internalNodes>
            0 -1 108 -16823043 -86606084 -16847105 2083159804 -353761156
            -25211282 -23426358 -94639542</internalNodes>
          <leafValues>
            -1.2252131849527359e-01 2.2413501143455505e-01</leafValues></_>
        <_>
          <internalNodes>
            0 -1 306 -934133665 -547417771 1501060959 285229151
            -26308984 -71628261 -26411265 -99955189</internalNodes>
          <leafValues>
            -1.2555198371410370e-01 2.1834574639797211e-01</leafValues></_>
        <_>
          <internalNodes>
            0 -1 72 1427632618 288440179 -8913930 461880222 1373450424
            -1108987657 2107985992 453988866</internalNodes>
          <leafValues>
            -2.0507927238941193e-01 1.3987803459167480e-01</leafValues></_>
        <_>
          <internalNodes>
            0 -1 382 -1096135564 -1078307724 -43019 -2005049987
            -1095439184 -1342179467 -1627874060 -496968612</internalNodes>
          <leafValues>
            -2.1803751587867737e-01 1.2281886488199234e-01</leafValues></_>
        <_>
          <internalNodes>
            0 -1 224 -575090440 496763088 218366193 496828632
            -1709142790 -1078246916 318906299 520837278</internalNodes>
          <leafValues>
            -1.8941751122474670e-01 1.4200280606746674e-01</leafValues></_>
        <_>
          <internalNodes>
            0 -1 378 -546242691 -2392193 -1 -260505601 -8550308 -463244
            -289633028 -365891976</internalNodes>
          <leafValues>
            -1.4958983659744263e-01 1.7869438230991364e-01</leafValues></_>
        <_>
          <internalNodes>
            0 -1 24 -894505730 -905401716 -529 -5258614 1174404607
            -33620035 1433785727 -985152509</internalNodes>
          <leafValues>
            -1.4711022377014160e-01 1.9071638584136963e-01</leafValues></_>
        <_>
          <internalNodes>
            0 -1 206 -625344328 -604498468 -1078239233 -539159043
            -1430614344 -4292675 -1078280197 -1078327144</internalNodes>
          <leafValues>
            -1.7315304279327393e-01 1.4983946084976196e-01</leafValues></_>
        <_>
          <internalNodes>
            0 -1 81 -900994422 -232783054 582141713 1941104434
            -833615736 404098056 1414529747 1918367499</internalNodes>
          <leafValues>
            -2.0658841729164124e-01 1.2396848201751709e-01</leafValues></_>
        <_>
          <internalNodes>
            0 -1 375 -1 -1879179265 -1610907727 -805437443 1073725439
            -1879056451 770706928 -838862861</internalNodes>
          <leafValues>
            -9.0941682457923889e-02 2.8959026932716370e-01</leafValues></_>
        <_>
          <internalNodes>
            0 -1 139 -1173189455 -369675 -1073741825 -44547 -1162207879
            -4521985 -1078290053 -1145356272</internalNodes>
          <leafValues>
            -1.4314331114292145e-01 1.7806759476661682e-01</leafValues></_>
        <_>
          <internalNodes>
            0 -1 329 -716143872 -2244801 -147459 -1111703681 -33579011
            -147523 -33743619 806424064</internalNodes>
          <leafValues>
            -1.9746194779872894e-01 1.2451740354299545e-01</leafValues></_>
        <_>
          <internalNodes>
            0 -1 322 -132393968 1343287296 134929917 62733 1792788904
            137939012 175409372 1115672991</internalNodes>
          <leafValues>
            -2.0389994978904724e-01 1.2140841037034988e-01</leafValues></_>
        <_>
          <internalNodes>
            0 -1 132 -829814608 -260872 -1075896321 1610227157
            -2001195528 -1140966152 -1447543813 -1145372518</internalNodes>
          <leafValues>
            -1.4982914924621582e-01 1.6096720099449158e-01</leafValues></_>
        <_>
          <internalNodes>
            0 -1 217 -1071581196 -587459340 -1076035585 2113740253
            -1464811600 -1074126852 800899004 -1078261064</internalNodes>
          <leafValues>
            -1.3310165703296661e-01 1.7927294969558716e-01</leafValues></_>
        <_>
          <internalNodes>
            0 -1 164 -838861829 1441792506 1340919773 1206168506
            -1949451333 -2013644048 265096123 -805524806</internalNodes>
          <leafValues>
            -1.1145023256540298e-01 2.1734520792961121e-01</leafValues></_>
        <_>
          <internalNodes>
            0 -1 10 -2013007232 -645922817 -67113733 -620758273
            -100794389 -101321030 2102517073 1096368339</internalNodes>
          <leafValues>
            -1.7101815342903137e-01 1.3704009354114532e-01</leafValues></_>
        <_>
          <internalNodes>
            0 -1 389 -1164259841 -1086353547 -1344278529 -41943553
            -88844 -16847113 -1895914264 -365894414</internalNodes>
          <leafValues>
            -1.2362211197614670e-01 1.8424378335475922e-01</leafValues></_>
        <_>
          <internalNodes>
            0 -1 373 -1616199790 -1785020420 -1078989154 1373473164
            -1209354288 -1210387034 787629280 -956303734</internalNodes>
          <leafValues>
            -1.5155062079429626e-01 1.5024216473102570e-01</leafValues></_>
        <_>
          <internalNodes>
            0 -1 91 -26251651 -25203116 -824774985 1009912422 -8442000
            -8450956 -31576478 -25990622</internalNodes>
          <leafValues>
            -1.4600148797035217e-01 1.5797387063503265e-01</leafValues></_>
        <_>
          <internalNodes>
            0 -1 286 -552546096 1610354800 528422365 1567430908
            -1107260248 -1095101256 505450170 1059719883</internalNodes>
          <leafValues>
            -1.6824129223823547e-01 1.3776369392871857e-01</leafValues></_>
        <_>
          <internalNodes>
            0 -1 182 -555084304 -57899 -173571 -67428419 -1145520644
            -1090635284 -1079460353 -71361318</internalNodes>
          <leafValues>
            -1.1940886080265045e-01 1.8922276794910431e-01</leafValues></_>
        <_>
          <internalNodes>
            0 -1 21 -829521714 -271008774 2147270653 1023420408
            216794042 1073555061 1700209991 1096138816</internalNodes>
          <leafValues>
            -2.2981023788452148e-01 9.9058121442794800e-02</leafValues></_>
        <_>
          <internalNodes>
            0 -1 129 -1364566640 -4305836 2142994427 2067406708
            -1097319304 -98594 -1170686981 -83111661</internalNodes>
          <leafValues>
            -1.3185353577136993e-01 1.6629262268543243e-01</leafValues></_>
        <_>
          <internalNodes>
            0 -1 337 -565523433 -4221673 -1342177281 421257119 -12992
            -8841 -424486862 -368850405</internalNodes>
          <leafValues>
            -1.0803877562284470e-01 2.0125955343246460e-01</leafValues></_>
        <_>
          <internalNodes>
            0 -1 267 -1440046146 117450196 804335615 499917772 543826750
            200029372 737937918 197918922</internalNodes>
          <leafValues>
            -2.4679616093635559e-01 8.9885823428630829e-02</leafValues></_>
        <_>
          <internalNodes>
            0 -1 141 -180403183 -675601391 -1610629121 -821097201
            -520641284 -268457804 -990336338 -1968511989</internalNodes>
          <leafValues>
            -1.0655298829078674e-01 2.0295213162899017e-01</leafValues></_>
        <_>
          <internalNodes>
            0 -1 202 -1609841643 -268697665 -5767169 -24353010
            -270553091 -369360897 -1310755 -402143931</internalNodes>
          <leafValues>
            -1.1931484937667847e-01 1.7989374697208405e-01</leafValues></_>
        <_>
          <internalNodes>
            0 -1 416 -1210648641 -1921859651 -8388675 -956825731
            -1375732291 -2065777921 217970101 -855640585</internalNodes>
          <leafValues>
            -1.1527059227228165e-01 1.8511104583740234e-01</leafValues></_>
        <_>
          <internalNodes>
            0 -1 205 -551546384 -6549008 -1610678287 -604039728
            -1113023240 -68501570 -1145520134 -1413872440</internalNodes>
          <leafValues>
            -1.6097636520862579e-01 1.3308918476104736e-01</leafValues></_>
        <_>
          <internalNodes>
            0 -1 39 -1009399102 -632221627 923874033 1464715286
            -2137216338 -1809315656 326719451 1533016795</internalNodes>
          <leafValues>
            -1.4105123281478882e-01 1.4917266368865967e-01</leafValues></_>
        <_>
          <internalNodes>
            0 -1 396 -31760368 -2099225 -4194305 -4326405 -4609
            -268435465 -16785761 2147440</internalNodes>
          <leafValues>
            -2.3384544253349304e-01 9.2199929058551788e-02</leafValues></_>
        <_>
          <internalNodes>
            0 -1 34 -867727152 1911877034 -235538690 1564522914
            1685950413 577532919 988650398 1422318516</internalNodes>
          <leafValues>
            -1.8912778794765472e-01 1.1061064153909683e-01</leafValues></_>
        <_>
