<?xml version="1.0"?>
<opencv_storage>
<stage0>
  <maxWeakCount>20</maxWeakCount>
  <stageThreshold>-2.6009452342987061e+00</stageThreshold>
  <weakClassifiers>
    <_>
      <internalNodes>
        0 -1 7021 -12855041 -8847268 520114653 521207837 -1960277765
        -1078263624 185108923 453640376</internalNodes>
      <leafValues>
        -4.7286602854728699e-01 4.8442691564559937e-01</leafValues></_>
    <_>
      <internalNodes>
        0 -1 14792 -9104 -1073769295 -513 -1644718851 -29560 -1073764114
        -1360032600 -1996586838</internalNodes>
      <leafValues>
        -4.8369246721267700e-01 4.1985106468200684e-01</leafValues></_>
    <_>
      <internalNodes>
        0 -1 2481 -805056304 1358954496 -783034883 1392578816 32904
        -670957568 138 453705739</internalNodes>
      <leafValues>
        -5.1139360666275024e-01 3.6481124162673950e-01</leafValues></_>
    <_>
      <internalNodes>
        0 -1 9996 -1078305539 -196528 524115967 1602032989 -1431782726
        -1141233480 168345599 -1615198981</internalNodes>
      <leafValues>
        -3.2081645727157593e-01 4.9453243613243103e-01</leafValues></_>
    <_>
      <internalNodes>
        0 -1 404 -890582274 -825587518 -901058561 -366837726 -1003347457
        -272495170 -979286537 -486326269</internalNodes>
      <leafValues>
        -3.2315218448638916e-01 4.4291383028030396e-01</leafValues></_>
    <_>
      <internalNodes>
        0 -1 11180 -105852680 -2616100 -4456963 -2290435 -1162298888
        -1145430532 -1078281733 -1146486632</internalNodes>
      <leafValues>
        -3.4297788143157959e-01 3.5643583536148071e-01</leafValues></_>
    <_>
      <internalNodes>
        0 -1 6862 -573587256 -721354752 -654294784 1426149632
        -2013233016 -2013265920 134318218 1074516107</internalNodes>
      <leafValues>
        -4.4180184602737427e-01 2.6407670974731445e-01</leafValues></_>
    <_>
      <internalNodes>
        0 -1 11 -357896454 -7559494 -1 -4194406 -262149 -852037
        2096328699 2066969395</internalNodes>
      <leafValues>
        -3.1265366077423096e-01 3.2560533285140991e-01</leafValues></_>
    <_>
      <internalNodes>
        0 -1 9856 -74788616 -4652912 -549462017 -37814256 -1147619144
        -1078057988 -1431651077 -1146421112</internalNodes>
      <leafValues>
        -2.4913673102855682e-01 3.9139080047607422e-01</leafValues></_>
    <_>
      <internalNodes>
        0 -1 10550 -1145430787 -189187 -49153 -57859 -1074086407 -515
        -1073823745 -1081604968</internalNodes>
      <leafValues>
        -2.9607665538787842e-01 3.1063351035118103e-01</leafValues></_>
    <_>
      <internalNodes>
        0 -1 14754 -1413808707 -1912816463 -1645101639 -1342236536
        -1363492929 -1886389093 217759904 -1962948438</internalNodes>
      <leafValues>
        -2.5148692727088928e-01 3.3206149935722351e-01</leafValues></_>
    <_>
      <internalNodes>
        0 -1 1142 -70262654 -216981488 -565120239 1895919921 -2138537848
        -2146959200 138461435 1347547347</internalNodes>
      <leafValues>
        -3.3060151338577271e-01 2.5163400173187256e-01</leafValues></_>
    <_>
      <internalNodes>
        0 -1 10305 -38234888 -577240912 -1659893515 -1644363568
        -1146581825 -1073865219 -1346719813 -1078263622</internalNodes>
      <leafValues>
        -2.2916394472122192e-01 3.4681981801986694e-01</leafValues></_>
    <_>
      <internalNodes>
        0 -1 12650 -670019368 -2155043 -2458369 -59939 -1095070210
        -82468 -1074086149 -1171649350</internalNodes>
      <leafValues>
        -2.2392548620700836e-01 3.1308600306510925e-01</leafValues></_>
    <_>
      <internalNodes>
        0 -1 11869 -815802151 -2088762352 219373045 286906649
        -1937209096 -1970634624 155507928 -878978597</internalNodes>
      <leafValues>
        -1.9079729914665222e-01 3.6737343668937683e-01</leafValues></_>
    <_>
      <internalNodes>
        0 -1 14558 -13068 1040135633 -4129 771694077 -1107523176
        -1080092171 -1090745156 150931644</internalNodes>
      <leafValues>
        -3.5633340477943420e-01 1.9078648090362549e-01</leafValues></_>
    <_>
      <internalNodes>
        0 -1 9048 -661122824 -675802927 -1145479169 -2551299 -1433883458
        -1095087656 -1163345925 -1146486600</internalNodes>
      <leafValues>
        -2.5989887118339539e-01 2.5353074073791504e-01</leafValues></_>
    <_>
      <internalNodes>
        0 -1 1296 -368850238 -13434880 639910481 1526751760 -2147221496
        -1979580416 1073758875 2064073219</internalNodes>
      <leafValues>
        -2.9010909795761108e-01 2.2269567847251892e-01</leafValues></_>
    <_>
      <internalNodes>
        0 -1 10285 -601698096 -586153776 135819515 486604944 -2013233016
        -1970665336 134217866 168509579</internalNodes>
      <leafValues>
        -2.8508681058883667e-01 2.1495808660984039e-01</leafValues></_>
    <_>
      <internalNodes>
        0 -1 546 -352663298 -498178486 -85062002 -132109822 -160432088
        271846411 -485341945 -234626045</internalNodes>
      <leafValues>
        -2.4414138495922089e-01 2.4311740696430206e-01</leafValues></_></weakClassifiers></stage0>
</opencv_storage>
