<?xml version="1.0"?>
<opencv_storage>
<stage6>
  <maxWeakCount>100</maxWeakCount>
  <stageThreshold>-2.5491511821746826e+00</stageThreshold>
  <weakClassifiers>
    <_>
      <internalNodes>
        0 -1 8610 -1073774593 -32899 -1073774593 -41091 -1413808193 -1
        801046527 -1</internalNodes>
      <leafValues>
        -1.7624625563621521e-01 5.3104454278945923e-01</leafValues></_>
    <_>
      <internalNodes>
        0 -1 5 -16842754 -1114177 -1 -1 -1 -4194305 -1 2139062139</internalNodes>
      <leafValues>
        -2.6147571206092834e-01 2.8892934322357178e-01</leafValues></_>
    <_>
      <internalNodes>
        0 -1 401 -81 -10800367 -27460815 -15338703 -1964080982 -4480728
        -925046021 -67505157</internalNodes>
      <leafValues>
        -1.6001176834106445e-01 4.3223863840103149e-01</leafValues></_>
    <_>
      <internalNodes>
        0 -1 14788 -8195 -1073759233 -1 -1073741825 -16388 -20481 -20740
        -1895838017</internalNodes>
      <leafValues>
        -2.3520478606224060e-01 2.5419157743453979e-01</leafValues></_>
    <_>
      <internalNodes>
        0 -1 10783 -642591496 -570752776 -4497921 1606371581 -1145374470
        -4547336 993697787 453642424</internalNodes>
      <leafValues>
        -3.0171459913253784e-01 1.7141909897327423e-01</leafValues></_>
    <_>
      <internalNodes>
        0 -1 11713 -804110253 -44675 -8560643 1594973533 -1430607105
        -67375173 -1430590721 -368949221</internalNodes>
      <leafValues>
        -1.3034169375896454e-01 3.3843341469764709e-01</leafValues></_>
    <_>
      <internalNodes>
        0 -1 507 -352391426 -489754962 -352915714 -261971326 -478738561
        -981643505 -1007466667 -143145117</internalNodes>
      <leafValues>
        -2.5171127915382385e-01 1.8935069441795349e-01</leafValues></_>
    <_>
      <internalNodes>
        0 -1 8532 -1659318032 -1715666760 523506685 534710525 402688248
        -1145403144 1057005567 -1081472837</internalNodes>
      <leafValues>
        -2.2550517320632935e-01 1.9789952039718628e-01</leafValues></_>
    <_>
      <internalNodes>
        0 -1 14748 -1145372681 -1073750659 -1073741825 -1107296771
        -1078265869 -1073809665 -1073810178 -352387910</internalNodes>
      <leafValues>
        -1.3134942948818207e-01 3.0194863677024841e-01</leafValues></_>
    <_>
      <internalNodes>
        0 -1 7877 -572522614 -640304171 -586023075 1359079311 12910732
        -1967977080 -305141041 1495256223</internalNodes>
      <leafValues>
        -2.0347748696804047e-01 2.0490920543670654e-01</leafValues></_>
    <_>
      <internalNodes>
        0 -1 14791 -8389356 -1082675211 -1 -1338982469 -10535668
        -2769031 -4360 -1608452046</internalNodes>
      <leafValues>
        -2.6440992951393127e-01 1.4356164634227753e-01</leafValues></_>
    <_>
      <internalNodes>
        0 -1 11808 -1699161864 -1650981680 469769725 488177684 704678024
        -1078327880 167811775 454232217</internalNodes>
      <leafValues>
        -2.5109601020812988e-01 1.6773566603660583e-01</leafValues></_>
    <_>
      <internalNodes>
        0 -1 8354 -2011492207 -52267 -587202561 -60035 -1728512513
        -67108865 -1942437889 -1994850303</internalNodes>
      <leafValues>
        -2.0742800831794739e-01 1.7272534966468811e-01</leafValues></_>
    <_>
      <internalNodes>
        0 -1 13083 -1145392710 -1848595688 1030494580 285217024
        -1196903236 -1866978374 150804728 -1060122401</internalNodes>
      <leafValues>
        -1.7691172659397125e-01 1.9331765174865723e-01</leafValues></_>
    <_>
      <internalNodes>
        0 -1 568 -16187394 -586653860 2130771773 2130722687 -1173319496
        453640244 2065699000 2132475923</internalNodes>
      <leafValues>
        -2.2074124217033386e-01 1.4995777606964111e-01</leafValues></_>
    <_>
      <internalNodes>
        0 -1 9856 -72691464 -4517680 -4202497 -541129516 -1078284804
        -274947 -1146437637 -1079312232</internalNodes>
      <leafValues>
        -1.5391235053539276e-01 2.1034368872642517e-01</leafValues></_>
    <_>
      <internalNodes>
        0 -1 14055 -635289600 1461666067 -848635787 1090672387 -25526240
        -105199 -2147434272 33736275</internalNodes>
      <leafValues>
        -3.0183479189872742e-01 1.1242629587650299e-01</leafValues></_>
    <_>
      <internalNodes>
        0 -1 548 -1 -249860 -33652738 1039417340 -49156 -8425648 -32769
        -1</internalNodes>
      <leafValues>
        -9.2207193374633789e-02 3.6270514130592346e-01</leafValues></_>
    <_>
      <internalNodes>
        0 -1 14699 -1078001729 -1344290913 -5 -1346372677 -1073807361
        -1879048193 268426491 -827339606</internalNodes>
      <leafValues>
        -1.1587125062942505e-01 2.6389366388320923e-01</leafValues></_>
    <_>
      <internalNodes>
        0 -1 4434 -296485958 823206658 502595549 1609764627 -817853766
        -11419854 4229306 1532202939</internalNodes>
      <leafValues>
        -1.7560377717018127e-01 1.8070232868194580e-01</leafValues></_>
    <_>
      <internalNodes>
        0 -1 14619 -1078273004 -1074389936 -66053 -1711534595
        -1128464456 -1074069516 1043660728 -352657409</internalNodes>
      <leafValues>
        -1.6649419069290161e-01 1.8617345392704010e-01</leafValues></_>
    <_>
      <internalNodes>
        0 -1 10797 -1975903184 -553908996 1073709055 1564286045
        -1095188550 -1074118920 1068040127 1059736765</internalNodes>
      <leafValues>
        -2.4335949122905731e-01 1.2255998700857162e-01</leafValues></_>
    <_>
      <internalNodes>
        0 -1 1818 -2012487552 -99946320 -1888553203 -3149296 134849021
        -904973680 18546841 1091522577</internalNodes>
      <leafValues>
        -2.2780050337314606e-01 1.2296519428491592e-01</leafValues></_>
    <_>
      <internalNodes>
        0 -1 647 -60984995 -597884836 223440669 208406621 -2140359879
        812650609 257809981 1079341656</internalNodes>
      <leafValues>
        -2.3127344250679016e-01 1.2354079633951187e-01</leafValues></_>
    <_>
      <internalNodes>
        0 -1 2058 -16823043 -86606084 -16847105 2083159804 -353761156
        -25211282 -23426358 -94639542</internalNodes>
      <leafValues>
        -1.2252131849527359e-01 2.2413501143455505e-01</leafValues></_>
    <_>
      <internalNodes>
        0 -1 12683 -934133665 -547417771 1501060959 285229151 -26308984
        -71628261 -26411265 -99955189</internalNodes>
      <leafValues>
        -1.2555198371410370e-01 2.1834574639797211e-01</leafValues></_>
    <_>
      <internalNodes>
        0 -1 1023 1427632618 288440179 -8913930 461880222 1373450424
        -1108987657 2107985992 453988866</internalNodes>
      <leafValues>
        -2.0507927238941193e-01 1.3987803459167480e-01</leafValues></_>
    <_>
      <internalNodes>
        0 -1 14688 -1096135564 -1078307724 -43019 -2005049987
        -1095439184 -1342179467 -1627874060 -496968612</internalNodes>
      <leafValues>
        -2.1803751587867737e-01 1.2281886488199234e-01</leafValues></_>
    <_>
      <internalNodes>
        0 -1 9891 -575090440 496763088 218366193 496828632 -1709142790
        -1078246916 318906299 520837278</internalNodes>
      <leafValues>
        -1.8941751122474670e-01 1.4200280606746674e-01</leafValues></_>
    <_>
      <internalNodes>
        0 -1 14671 -546242691 -2392193 -1 -260505601 -8550308 -463244
        -289633028 -365891976</internalNodes>
      <leafValues>
        -1.4958983659744263e-01 1.7869438230991364e-01</leafValues></_>
    <_>
      <internalNodes>
        0 -1 292 -894505730 -905401716 -529 -5258614 1174404607
        -33620035 1433785727 -985152509</internalNodes>
      <leafValues>
        -1.4711022377014160e-01 1.9071638584136963e-01</leafValues></_>
    <_>
      <internalNodes>
        0 -1 9048 -625344328 -604498468 -1078239233 -539159043
        -1430614344 -4292675 -1078280197 -1078327144</internalNodes>
      <leafValues>
        -1.7315304279327393e-01 1.4983946084976196e-01</leafValues></_>
    <_>
      <internalNodes>
        0 -1 1257 -900994422 -232783054 582141713 1941104434 -833615736
        404098056 1414529747 1918367499</internalNodes>
      <leafValues>
        -2.0658841729164124e-01 1.2396848201751709e-01</leafValues></_>
    <_>
      <internalNodes>
        0 -1 14634 -1 -1879179265 -1610907727 -805437443 1073725439
        -1879056451 770706928 -838862861</internalNodes>
      <leafValues>
        -9.0941682457923889e-02 2.8959026932716370e-01</leafValues></_>
    <_>
      <internalNodes>
        0 -1 5129 -1173189455 -369675 -1073741825 -44547 -1162207879
        -4521985 -1078290053 -1145356272</internalNodes>
      <leafValues>
        -1.4314331114292145e-01 1.7806759476661682e-01</leafValues></_>
    <_>
      <internalNodes>
        0 -1 13585 -716143872 -2244801 -147459 -1111703681 -33579011
        -147523 -33743619 806424064</internalNodes>
      <leafValues>
        -1.9746194779872894e-01 1.2451740354299545e-01</leafValues></_>
    <_>
      <internalNodes>
        0 -1 13263 -132393968 1343287296 134929917 62733 1792788904
        137939012 175409372 1115672991</internalNodes>
      <leafValues>
        -2.0389994978904724e-01 1.2140841037034988e-01</leafValues></_>
    <_>
      <internalNodes>
        0 -1 4029 -829814608 -260872 -1075896321 1610227157 -2001195528
        -1140966152 -1447543813 -1145372518</internalNodes>
      <leafValues>
        -1.4982914924621582e-01 1.6096720099449158e-01</leafValues></_>
    <_>
      <internalNodes>
        0 -1 9553 -1071581196 -587459340 -1076035585 2113740253
        -1464811600 -1074126852 800899004 -1078261064</internalNodes>
      <leafValues>
        -1.3310165703296661e-01 1.7927294969558716e-01</leafValues></_>
    <_>
      <internalNodes>
        0 -1 7033 -838861829 1441792506 1340919773 1206168506
        -1949451333 -2013644048 265096123 -805524806</internalNodes>
      <leafValues>
        -1.1145023256540298e-01 2.1734520792961121e-01</leafValues></_>
    <_>
      <internalNodes>
        0 -1 51 -2013007232 -645922817 -67113733 -620758273 -100794389
        -101321030 2102517073 1096368339</internalNodes>
      <leafValues>
        -1.7101815342903137e-01 1.3704009354114532e-01</leafValues></_>
    <_>
      <internalNodes>
        0 -1 14741 -1164259841 -1086353547 -1344278529 -41943553 -88844
        -16847113 -1895914264 -365894414</internalNodes>
      <leafValues>
        -1.2362211197614670e-01 1.8424378335475922e-01</leafValues></_>
    <_>
      <internalNodes>
        0 -1 14628 -1616199790 -1785020420 -1078989154 1373473164
        -1209354288 -1210387034 787629280 -956303734</internalNodes>
      <leafValues>
        -1.5155062079429626e-01 1.5024216473102570e-01</leafValues></_>
    <_>
      <internalNodes>
        0 -1 1365 -26251651 -25203116 -824774985 1009912422 -8442000
        -8450956 -31576478 -25990622</internalNodes>
      <leafValues>
        -1.4600148797035217e-01 1.5797387063503265e-01</leafValues></_>
    <_>
      <internalNodes>
        0 -1 11785 -552546096 1610354800 528422365 1567430908
        -1107260248 -1095101256 505450170 1059719883</internalNodes>
      <leafValues>
        -1.6824129223823547e-01 1.3776369392871857e-01</leafValues></_>
    <_>
      <internalNodes>
        0 -1 8088 -555084304 -57899 -173571 -67428419 -1145520644
        -1090635284 -1079460353 -71361318</internalNodes>
      <leafValues>
        -1.1940886080265045e-01 1.8922276794910431e-01</leafValues></_>
    <_>
      <internalNodes>
        0 -1 234 -829521714 -271008774 2147270653 1023420408 216794042
        1073555061 1700209991 1096138816</internalNodes>
      <leafValues>
        -2.2981023788452148e-01 9.9058121442794800e-02</leafValues></_>
    <_>
      <internalNodes>
        0 -1 3354 -1364566640 -4305836 2142994427 2067406708 -1097319304
        -98594 -1170686981 -83111661</internalNodes>
      <leafValues>
        -1.3185353577136993e-01 1.6629262268543243e-01</leafValues></_>
    <_>
      <internalNodes>
        0 -1 13856 -565523433 -4221673 -1342177281 421257119 -12992
        -8841 -424486862 -368850405</internalNodes>
      <leafValues>
        -1.0803877562284470e-01 2.0125955343246460e-01</leafValues></_>
    <_>
      <internalNodes>
        0 -1 11165 -1440046146 117450196 804335615 499917772 543826750
        200029372 737937918 197918922</internalNodes>
      <leafValues>
        -2.4679616093635559e-01 8.9885823428630829e-02</leafValues></_>
    <_>
      <internalNodes>
        0 -1 5600 -180403183 -675601391 -1610629121 -821097201
        -520641284 -268457804 -990336338 -1968511989</internalNodes>
      <leafValues>
        -1.0655298829078674e-01 2.0295213162899017e-01</leafValues></_>
    <_>
      <internalNodes>
        0 -1 8776 -1609841643 -268697665 -5767169 -24353010 -270553091
        -369360897 -1310755 -402143931</internalNodes>
      <leafValues>
        -1.1931484937667847e-01 1.7989374697208405e-01</leafValues></_>
    <_>
      <internalNodes>
        0 -1 14811 -1210648641 -1921859651 -8388675 -956825731
        -1375732291 -2065777921 217970101 -855640585</internalNodes>
      <leafValues>
        -1.1527059227228165e-01 1.8511104583740234e-01</leafValues></_>
    <_>
      <internalNodes>
        0 -1 8976 -551546384 -6549008 -1610678287 -604039728 -1113023240
        -68501570 -1145520134 -1413872440</internalNodes>
      <leafValues>
        -1.6097636520862579e-01 1.3308918476104736e-01</leafValues></_>
    <_>
      <internalNodes>
        0 -1 432 -1009399102 -632221627 923874033 1464715286 -2137216338
        -1809315656 326719451 1533016795</internalNodes>
      <leafValues>
        -1.4105123281478882e-01 1.4917266368865967e-01</leafValues></_>
    <_>
      <internalNodes>
        0 -1 14767 -31760368 -2099225 -4194305 -4326405 -4609 -268435465
        -16785761 2147440</internalNodes>
      <leafValues>
        -2.3384544253349304e-01 9.2199929058551788e-02</leafValues></_>
    <_>
      <internalNodes>
        0 -1 401 -867727152 1911877034 -235538690 1564522914 1685950413
        577532919 988650398 1422318516</internalNodes>
      <leafValues>
        -1.8912778794765472e-01 1.1061064153909683e-01</leafValues></_>
    <_>
      <internalNodes>
        0 -1 455 -523057928 -1044207858 -403130626 -223158046 -176749121
        -631401 1372804308 -168312816</internalNodes>
      <leafValues>
        -1.5126547217369080e-01 1.3499145209789276e-01</leafValues></_>
    <_>
      <internalNodes>
        0 -1 11481 -1145528836 -539491076 -1140887553 2113478013
        -1145389380 -1094828548 -1146449926 -1077998424</internalNodes>
      <leafValues>
        -1.4154914021492004e-01 1.4596134424209595e-01</leafValues></_>
    <_>
      <internalNodes>
        0 -1 295 -8477122 -134467788 -1343422470 1031552820 725430265
        -51074 2138385403 2138537786</internalNodes>
      <leafValues>
        -1.6904863715171814e-01 1.1829242855310440e-01</leafValues></_>
    <_>
      <internalNodes>
        0 -1 13694 -633733033 1530334224 1828552191 3213661 -94198256
        -1073792232 943589951 1242221183</internalNodes>
      <leafValues>
        -1.5938319265842438e-01 1.2624013423919678e-01</leafValues></_>
    <_>
      <internalNodes>
        0 -1 5725 -1165846288 -4502532 -1107419393 -4480779 -1095105220
        -1346748930 -1103614529 -1950742504</internalNodes>
      <leafValues>
        -1.5497018396854401e-01 1.2842774391174316e-01</leafValues></_>
    <_>
      <internalNodes>
        0 -1 1212 -77600086 -261586872 49440375 1937177362 1113435791
        939524096 307590751 1935144539</internalNodes>
      <leafValues>
        -1.6169399023056030e-01 1.2086315453052521e-01</leafValues></_>
    <_>
      <internalNodes>
        0 -1 14802 -1432706016 -1489851104 -1774473988 -1322713568
        -1561348640 157583217 -2130795360 -223154134</internalNodes>
      <leafValues>
        -1.6885814070701599e-01 1.1568665504455566e-01</leafValues></_>
    <_>
      <internalNodes>
        0 -1 8610 1611039781 148177094 1337773885 897394166 1055206782
        -1478082753 -1863249988 782918908</internalNodes>
      <leafValues>
        -1.8071660399436951e-01 1.0779960453510284e-01</leafValues></_>
    <_>
      <internalNodes>
        0 -1 14631 -1346699271 -1346409987 -1342177281 -1426178243
        -1145913860 -2000945153 790690301 -290542914</internalNodes>
      <leafValues>
        -1.2093805521726608e-01 1.6086530685424805e-01</leafValues></_>
    <_>
      <internalNodes>
        0 -1 12782 -1742040048 -1921908400 490692605 1025246325
        -1442801220 -1074094416 167812282 453509256</internalNodes>
      <leafValues>
        -2.2285969555377960e-01 8.8658668100833893e-02</leafValues></_>
    <_>
      <internalNodes>
        0 -1 731 -2752513 -34029569 -1166341 -540465538 1560100863
        -1075949899 -1075889153 -68208901</internalNodes>
      <leafValues>
        -6.3697874546051025e-02 3.1206896901130676e-01</leafValues></_>
    <_>
      <internalNodes>
        0 -1 8411 -940265932 -649067504 261631893 152570010 -1426546452
        173082744 -1426150700 -4101</internalNodes>
      <leafValues>
        -1.4347317814826965e-01 1.3853275775909424e-01</leafValues></_>
    <_>
      <internalNodes>
        0 -1 14341 -554377771 -8528515 -1 -131715 -4669635 -1048579
        -68407299 -1153933768</internalNodes>
      <leafValues>
        -1.2621127068996429e-01 1.5639023482799530e-01</leafValues></_>
    <_>
      <internalNodes>
        0 -1 37 -736780256 -1203979777 -4506689 -1180124385 -20611
        -1078509633 -202042307 621086211</internalNodes>
      <leafValues>
        -1.7297154664993286e-01 1.1578247696161270e-01</leafValues></_>
    <_>
      <internalNodes>
        0 -1 14676 -567013771 -1216921739 -268437507 -8912897 -433813500
        -692927365 -1404522820 -366936454</internalNodes>
      <leafValues>
        -1.4005717635154724e-01 1.3722135126590729e-01</leafValues></_>
    <_>
      <internalNodes>
        0 -1 2032 -588315060 -33740971 -1076330501 938621918 140294968
        -1185804528 936681471 1062442507</internalNodes>
      <leafValues>
        -1.5199872851371765e-01 1.2514331936836243e-01</leafValues></_>
    <_>
      <internalNodes>
        0 -1 750 -2013101040 -1734821688 -1075841105 -273700 -275866113
        -1080033281 -1348084513 203375633</internalNodes>
      <leafValues>
        -2.0913636684417725e-01 9.2395573854446411e-02</leafValues></_>
    <_>
      <internalNodes>
        0 -1 11883 -1439654408 -4575815 -1107329665 -67303047
        -1348807233 -4818979 -1615151208 -1078321718</internalNodes>
      <leafValues>
        -1.4401657879352570e-01 1.3458970189094543e-01</leafValues></_>
    <_>
      <internalNodes>
        0 -1 8299 1111605954 -201342977 -1892585553 1807805154
        1149060565 1442656247 1274365259 1131627267</internalNodes>
      <leafValues>
        -1.5537273883819580e-01 1.2454029917716980e-01</leafValues></_>
    <_>
      <internalNodes>
        0 -1 14480 -1172697579 -1086573007 2067701487 1345969259
        -69210464 -4515339 -1905104656 -366820738</internalNodes>
      <leafValues>
        -1.5064032375812531e-01 1.3274808228015900e-01</leafValues></_>
    <_>
      <internalNodes>
        0 -1 1287 -894499620 -84783596 -18984993 2033212944 -1498275332
        -361011 -2015315718 -10231742</internalNodes>
      <leafValues>
        -1.2372180819511414e-01 1.5514852106571198e-01</leafValues></_>
    <_>
      <internalNodes>
        0 -1 4418 -2144616319 -171857993 -34619393 -273735622
        -1328044807 -36200773 -1548242721 -1009795071</internalNodes>
      <leafValues>
        -1.1107449978590012e-01 1.7104598879814148e-01</leafValues></_>
    <_>
      <internalNodes>
        0 -1 11072 1432318506 1967218716 884994408 1367468558 1080008874
        211312016 371382696 252696746</internalNodes>
      <leafValues>
        -1.6969875991344452e-01 1.1066966503858566e-01</leafValues></_>
    <_>
      <internalNodes>
        0 -1 13781 1565912694 234683325 -1073889456 500998024
        -1157760002 804174510 1004517882 199225258</internalNodes>
      <leafValues>
        -1.3771247863769531e-01 1.3633294403553009e-01</leafValues></_>
    <_>
      <internalNodes>
        0 -1 13218 -664271684 -57345 -1077960769 1341988189 -1146708547
        -49153 -29710853 704776218</internalNodes>
      <leafValues>
        -1.7535097897052765e-01 1.0346700996160507e-01</leafValues></_>
    <_>
      <internalNodes>
        0 -1 655 2085941116 2109489116 -1105712388 1051733754 2119438140
        -8495252 1649288958 2087678562</internalNodes>
      <leafValues>
        -1.7191129922866821e-01 1.0776250809431076e-01</leafValues></_>
    <_>
      <internalNodes>
        0 -1 7901 -833696238 1393043992 158767934 2097453874 5308556
        1511525762 1421154456 1091301271</internalNodes>
      <leafValues>
        -1.8110558390617371e-01 9.9068321287631989e-02</leafValues></_>
    <_>
      <internalNodes>
        0 -1 10949 -1700128527 -1610900481 -1073823745 -1096081697
        -4276227 -1342292993 -1080541825 134218752</internalNodes>
      <leafValues>
        -2.2704248130321503e-01 7.8722432255744934e-02</leafValues></_>
    <_>
      <internalNodes>
        0 -1 14151 1510116864 -114034689 -71574737 -559349769 -134479676
        -268828673 -38901278 130575</internalNodes>
      <leafValues>
        -1.7124906182289124e-01 1.0475004464387894e-01</leafValues></_>
    <_>
      <internalNodes>
        0 -1 14521 -1740989135 -1359051363 -1079542923 -1892794376
        -1879115788 -1930641409 891043313 -1968551688</internalNodes>
      <leafValues>
        -1.6432823240756989e-01 1.0731210559606552e-01</leafValues></_>
    <_>
      <internalNodes>
        0 -1 7502 -814749950 -727666904 98398173 380645806 803842866
        642789808 161285047 16725169</internalNodes>
      <leafValues>
        -1.7982210218906403e-01 9.7628816962242126e-02</leafValues></_>
    <_>
      <internalNodes>
        0 -1 11202 -28159822 -797308750 622354427 -5625286 -1780163662
        284832699 404756632 1325551674</internalNodes>
      <leafValues>
        -1.4097860455513000e-01 1.2187332659959793e-01</leafValues></_>
    <_>
      <internalNodes>
        0 -1 3274 -2010390095 2036064257 92043069 -553608464 -1405220804
        -1092894785 2646043 -648298279</internalNodes>
      <leafValues>
        -1.1124774813652039e-01 1.5716458857059479e-01</leafValues></_>
    <_>
      <internalNodes>
        0 -1 1806 -1422852171 -290788694 -134218441 -584011736
        -1884311553 -285282389 -976793133 -842181552</internalNodes>
      <leafValues>
        -1.2812174856662750e-01 1.3543450832366943e-01</leafValues></_>
    <_>
      <internalNodes>
        0 -1 10281 -634744784 -40888168 446501363 495784251 -1163886360
        -1145435486 167775418 151650819</internalNodes>
      <leafValues>
        -1.7638984322547913e-01 9.7117528319358826e-02</leafValues></_>
    <_>
      <internalNodes>
        0 -1 12211 -339755245 -470663630 1341486453 -1082690023
        -874529288 -2002090334 1575767288 -880284942</internalNodes>
      <leafValues>
        -9.4815433025360107e-02 1.7958588898181915e-01</leafValues></_>
    <_>
      <internalNodes>
        0 -1 403 -1058029315 -639189074 -134480129 -1920350 936710655
        -712573193 1374766261 -254290749</internalNodes>
      <leafValues>
        -9.4079874455928802e-02 1.8303869664669037e-01</leafValues></_>
    <_>
      <internalNodes>
        0 -1 728 355481597 1073100157 -1074020353 2147302645 -1115914759
        -8197 -1149485059 -1347147427</internalNodes>
      <leafValues>
        -1.4651539921760559e-01 1.1477167159318924e-01</leafValues></_>
    <_>
      <internalNodes>
        0 -1 3659 -132161 -1049517152 -268571082 -853504346 -1929606644
        1146075429 -823295475 -134367297</internalNodes>
      <leafValues>
        -8.7487749755382538e-02 1.9404225051403046e-01</leafValues></_>
    <_>
      <internalNodes>
        0 -1 14397 -1145397743 -1845674188 1069284855 -1409545615
        -1170678383 -1074022223 774561274 -1430588742</internalNodes>
      <leafValues>
        -1.1899213492870331e-01 1.4158937335014343e-01</leafValues></_>
    <_>
      <internalNodes>
        0 -1 14805 -153436396 -2117170796 -704736580 -1078018200
        -1527055188 45387509 -2130859800 -520095062</internalNodes>
      <leafValues>
        -1.1718957126140594e-01 1.4224269986152649e-01</leafValues></_>
    <_>
      <internalNodes>
        0 -1 507 -1058601695 -713719483 2103687143 1872514600 1423493248
        -3754078 -181470482 -926288228</internalNodes>
      <leafValues>
        -1.0271848738193512e-01 1.6311153769493103e-01</leafValues></_>
    <_>
      <internalNodes>
        0 -1 508 -823202947 -42586380 1744711551 492047410 -210289540
        -774340 -143183881 -25695641</internalNodes>
      <leafValues>
        -1.0415723919868469e-01 1.5932817757129669e-01</leafValues></_></weakClassifiers></stage6>
</opencv_storage>
