<?xml version="1.0"?>
<opencv_storage>
<stage3>
  <maxWeakCount>57</maxWeakCount>
  <stageThreshold>-2.5905857086181641e+00</stageThreshold>
  <weakClassifiers>
    <_>
      <internalNodes>
        0 -1 9996 -1077968897 -57859 528449535 2139053405 -1346715969
        -1073824002 262864895 -4194305</internalNodes>
      <leafValues>
        -2.3034438490867615e-01 5.6329894065856934e-01</leafValues></_>
    <_>
      <internalNodes>
        0 -1 160 -21299202 -1114114 -1 -4456514 -262145 -262145 -9207809
        2134605619</internalNodes>
      <leafValues>
        -3.3031821250915527e-01 3.3134794235229492e-01</leafValues></_>
    <_>
      <internalNodes>
        0 -1 1799 -69 -13504208 -462351 -15642319 -2002220886 -4660808
        -2001155845 -550383109</internalNodes>
      <leafValues>
        -2.1920906007289886e-01 4.5101636648178101e-01</leafValues></_>
    <_>
      <internalNodes>
        0 -1 14796 -3 -1610629633 -1 -1073758721 -16388 -1073758721
        -1879077704 -1895839573</internalNodes>
      <leafValues>
        -2.4770361185073853e-01 3.4902617335319519e-01</leafValues></_>
    <_>
      <internalNodes>
        0 -1 7309 1392754896 2131955984 -1 1595006747 -593327944 -16449
        1330367743 1526939659</internalNodes>
      <leafValues>
        -2.9864165186882019e-01 2.6467809081077576e-01</leafValues></_>
    <_>
      <internalNodes>
        0 -1 10785 -661073672 -573046576 490233341 1599668441
        -1430718214 -1145403208 135830715 462028986</internalNodes>
      <leafValues>
        -2.8863567113876343e-01 2.5066784024238586e-01</leafValues></_>
    <_>
      <internalNodes>
        0 -1 507 -353710850 -487684018 -287659286 -266207198 -1032649410
        -1069152508 -206354473 -211303357</internalNodes>
      <leafValues>
        -2.5609117746353149e-01 2.8030073642730713e-01</leafValues></_>
    <_>
      <internalNodes>
        0 -1 4082 -127930126 1393758258 275828976 269504530 -1061314310
        168427530 1078313136 1259074186</internalNodes>
      <leafValues>
        -3.1438469886779785e-01 2.0013323426246643e-01</leafValues></_>
    <_>
      <internalNodes>
        0 -1 10728 -1692346120 -570949416 488136703 1566377053
        -1163871558 -1078313736 -1173831681 -1616246535</internalNodes>
      <leafValues>
        -2.3127453029155731e-01 2.7449074387550354e-01</leafValues></_>
    <_>
      <internalNodes>
        0 -1 14676 -34579075 -49795 -268435457 -8798209 -67589932 -6412
        -353833220 -365895944</internalNodes>
      <leafValues>
        -2.4522887170314789e-01 2.4648202955722809e-01</leafValues></_>
    <_>
      <internalNodes>
        0 -1 10151 -4579851 -57891 -24577 -57859 -1078018051 -3
        -1074020353 -1415051112</internalNodes>
      <leafValues>
        -2.0806632936000824e-01 2.6298880577087402e-01</leafValues></_>
    <_>
      <internalNodes>
        0 -1 9435 -46477064 -575078256 486609393 488443933 -1440175942
        -1146484552 167772347 185270427</internalNodes>
      <leafValues>
        -2.4284605681896210e-01 2.2340139746665955e-01</leafValues></_>
    <_>
      <internalNodes>
        0 -1 6293 -580919270 -720551676 -602615600 1560334656
        -2134073094 -2146959096 -2000105254 1482552315</internalNodes>
      <leafValues>
        -2.8642952442169189e-01 1.8344967067241669e-01</leafValues></_>
    <_>
      <internalNodes>
        0 -1 14811 -1074085953 -1879135297 -4210753 -1879064641
        -1937064513 214875582 76664993 -1895833601</internalNodes>
      <leafValues>
        -1.8052896857261658e-01 2.7888604998588562e-01</leafValues></_>
    <_>
      <internalNodes>
        0 -1 11194 -1128784396 -61955 -1077968897 -61955 -1078280262
        -352772 -1078280193 -1078323016</internalNodes>
      <leafValues>
        -2.4682886898517609e-01 2.0384740829467773e-01</leafValues></_>
    <_>
      <internalNodes>
        0 -1 1782 -637283966 -787349496 1431362045 -537436229
        -1065309270 -1743189966 65672 1360085139</internalNodes>
      <leafValues>
        -2.7086436748504639e-01 1.8518534302711487e-01</leafValues></_>
    <_>
      <internalNodes>
        0 -1 10277 -108474152 -541392688 -262657 -1614867120 -1414878984
        -71592260 -1414877509 195690504</internalNodes>
      <leafValues>
        -2.7297946810722351e-01 1.8259975314140320e-01</leafValues></_>
    <_>
      <internalNodes>
        0 -1 1287 -1031142184 -218493772 -17683428 1479557136 -348519332
        -92579767 -1573910470 -97271806</internalNodes>
      <leafValues>
        -2.4614997208118439e-01 1.9740895926952362e-01</leafValues></_>
    <_>
      <internalNodes>
        0 -1 12964 -937803695 -537194415 1602052095 1393754205 -97877862
        -317285 -1442251009 167921675</internalNodes>
      <leafValues>
        -2.3106305301189423e-01 2.0941199362277985e-01</leafValues></_>
    <_>
      <internalNodes>
        0 -1 14787 -8389264 -1078476809 -4194305 -1221281283 -10548276
        -4211715 -29972 -1573716238</internalNodes>
      <leafValues>
        -2.3135319352149963e-01 1.9388398528099060e-01</leafValues></_>
    <_>
      <internalNodes>
        0 -1 9504 -38137608 -457480 -1 -191011 -1078420040 -1078272068
        -1095188485 -1145436008</internalNodes>
      <leafValues>
        -2.0955626666545868e-01 2.1212120354175568e-01</leafValues></_>
    <_>
      <internalNodes>
        0 -1 416 -368394102 -7352616 1242582285 -552051427 -2013214550
        -669384704 51415435 1595659609</internalNodes>
      <leafValues>
        -2.2561939060688019e-01 1.9546960294246674e-01</leafValues></_>
    <_>
      <internalNodes>
        0 -1 12163 -538978856 1361117488 1284005148 299752925 197979582
        9961696 218663096 162258427</internalNodes>
      <leafValues>
        -2.2604918479919434e-01 1.8981358408927917e-01</leafValues></_>
    <_>
      <internalNodes>
        0 -1 14691 -1078272769 -1074038824 -4202497 -1677762819
        -1096089680 -1074333698 1050451455 -289736454</internalNodes>
      <leafValues>
        -1.4704968035221100e-01 2.8863891959190369e-01</leafValues></_>
    <_>
      <internalNodes>
        0 -1 1297 -52541220 -69402300 498097660 1071121696 551026744
        -79560704 16782043 2132494171</internalNodes>
      <leafValues>
        -2.3918588459491730e-01 1.7295409739017487e-01</leafValues></_>
    <_>
      <internalNodes>
        0 -1 7034 -1424003073 651700988 268251133 166996988 799555519
        736377852 725102589 535580920</internalNodes>
      <leafValues>
        -2.5605621933937073e-01 1.6182145476341248e-01</leafValues></_>
    <_>
      <internalNodes>
        0 -1 8840 -1675980591 -27140 -270337 -40963 -1162167043
        -67371589 -1090535429 -1917124592</internalNodes>
      <leafValues>
        -1.8565389513969421e-01 2.1633829176425934e-01</leafValues></_>
    <_>
      <internalNodes>
        0 -1 14373 -126198767 -276606081 -67313729 1360787327 -21850880
        -4461263 -356861253 -365756677</internalNodes>
      <leafValues>
        -1.5665483474731445e-01 2.6231926679611206e-01</leafValues></_>
    <_>
      <internalNodes>
        0 -1 9996 1212187665 207119890 -283845283 -1927732489 308346872
        -357482119 -1709897159 189285401</internalNodes>
      <leafValues>
        -2.4561341106891632e-01 1.5753333270549774e-01</leafValues></_>
    <_>
      <internalNodes>
        0 -1 14631 -1078264323 -1442965164 -1086324739 -1383326211
        -1078805068 -1699152644 536649204 -1431649096</internalNodes>
      <leafValues>
        -2.0119377970695496e-01 1.8861706554889679e-01</leafValues></_>
    <_>
      <internalNodes>
        0 -1 1870 -922033534 -1979523070 1191859957 -11280174 557290
        -2013134848 16859281 1124327491</internalNodes>
      <leafValues>
        -2.6628956198692322e-01 1.4478252828121185e-01</leafValues></_>
    <_>
      <internalNodes>
        0 -1 10 -1979530110 -1082086490 -1075843137 -134225949 -11534337
        -16847497 -1344154113 1147487297</internalNodes>
      <leafValues>
        -2.6318693161010742e-01 1.4113697409629822e-01</leafValues></_>
    <_>
      <internalNodes>
        0 -1 10645 1565376516 1432178701 491330404 16866575 1149567136
        1220090408 -872372182 1495268795</internalNodes>
      <leafValues>
        -2.5181445479393005e-01 1.4791527390480042e-01</leafValues></_>
    <_>
      <internalNodes>
        0 -1 14741 -1692792720 -1078254220 -1346383875 -1319514771
        -1080516432 -1078252233 -1372026640 -365893582</internalNodes>
      <leafValues>
        -2.2445753216743469e-01 1.6344682872295380e-01</leafValues></_>
    <_>
      <internalNodes>
        0 -1 14150 -537410559 -1153 -12583425 -132907169 -33569579
        -4194341 -513 -1878996141</internalNodes>
      <leafValues>
        -1.5551662445068359e-01 2.3376850783824921e-01</leafValues></_>
    <_>
      <internalNodes>
        0 -1 12150 -1744252712 496502864 421011453 488445012 -1968142152
        -1682307816 168860602 991103004</internalNodes>
      <leafValues>
        -2.4436730146408081e-01 1.5179540216922760e-01</leafValues></_>
    <_>
      <internalNodes>
        0 -1 458 -98305 -247812 2145140734 1064845308 2143174396
        -1102083 -277922884 -32769</internalNodes>
      <leafValues>
        -1.4286839962005615e-01 2.3782657086849213e-01</leafValues></_>
    <_>
      <internalNodes>
        0 -1 8043 -650637064 -203947792 -1089181715 2142770364
        -1238843460 -1079374596 260607994 -1146483560</internalNodes>
      <leafValues>
        -2.1184444427490234e-01 1.6324973106384277e-01</leafValues></_>
    <_>
      <internalNodes>
        0 -1 14699 -1684079175 -1883590216 -1879126031 -1347450200
        -1073807877 -1912607298 767491544 -827331416</internalNodes>
      <leafValues>
        -1.5539556741714478e-01 2.1770034730434418e-01</leafValues></_>
    <_>
      <internalNodes>
        0 -1 11336 -2011002632 -8897864 -6004737 -13082823 -1162822728
        -71671816 -1423900677 -1693843432</internalNodes>
      <leafValues>
        -1.9367992877960205e-01 1.7614567279815674e-01</leafValues></_>
    <_>
      <internalNodes>
        0 -1 1799 -87826362 1364853539 -193516022 1438963494 1147068637
        1617116023 1356214916 1893662645</internalNodes>
      <leafValues>
        -2.0124360918998718e-01 1.6126230359077454e-01</leafValues></_>
    <_>
      <internalNodes>
        0 -1 1919 -917256974 -653197312 590366033 2131772675 -1576530744
        523371520 268485883 1595102555</internalNodes>
      <leafValues>
        -2.0184203982353210e-01 1.6581717133522034e-01</leafValues></_>
    <_>
      <internalNodes>
        0 -1 11541 -1106600776 -50691 -1073741827 -61699 -1078281282
        -1073858164 -1158365766 -1078256454</internalNodes>
      <leafValues>
        -1.5552672743797302e-01 2.0575618743896484e-01</leafValues></_>
    <_>
      <internalNodes>
        0 -1 1365 -50385411 -90214915 -318865669 2020634362 -22147459
        -25227663 -335615233 -29627781</internalNodes>
      <leafValues>
        -1.2436970323324203e-01 2.6143339276313782e-01</leafValues></_>
    <_>
      <internalNodes>
        0 -1 14279 -538968201 525966876 1744650164 792279856 268238846
        265885114 250350840 201325818</internalNodes>
      <leafValues>
        -1.5711681544780731e-01 2.0303279161453247e-01</leafValues></_>
    <_>
      <internalNodes>
        0 -1 14613 -1095613328 -1077993871 1044371447 -1183756963
        -1171194460 -1079270220 1001453755 -366288897</internalNodes>
      <leafValues>
        -1.6173900663852692e-01 1.9570730626583099e-01</leafValues></_>
    <_>
      <internalNodes>
        0 -1 44 14614528 -243550403 -1283745315 -18561 -1615075397
        -637953827 424087833 21299209</internalNodes>
      <leafValues>
        -2.4240536987781525e-01 1.3005591928958893e-01</leafValues></_>
    <_>
      <internalNodes>
        0 -1 12127 -568799024 1496846448 796548605 1602034717
        -1709139798 -1120267368 186694634 993660091</internalNodes>
      <leafValues>
        -1.8560004234313965e-01 1.6706207394599915e-01</leafValues></_>
    <_>
      <internalNodes>
        0 -1 1950 -1432630119 -537000588 -32899 1559912124 -1430778468
        -276954051 129029269 -612641455</internalNodes>
      <leafValues>
        -1.4784125983715057e-01 2.0733900368213654e-01</leafValues></_>
    <_>
      <internalNodes>
        0 -1 14751 -1086652481 -1078313676 -134218309 -1231192920
        -1091766282 -1275075165 516609200 -822092630</internalNodes>
      <leafValues>
        -1.3205531239509583e-01 2.2847564518451691e-01</leafValues></_>
    <_>
      <internalNodes>
        0 -1 7476 -81128272 -12640048 1576943615 -5170736 -1373099848
        -1410455108 -1900535617 -1079374712</internalNodes>
      <leafValues>
        -1.7867277562618256e-01 1.6344149410724640e-01</leafValues></_>
    <_>
      <internalNodes>
        0 -1 6861 -10489406 -787406176 824386982 269597295 851976
        9961808 1966987514 1082913755</internalNodes>
      <leafValues>
        -2.4886615574359894e-01 1.1939919739961624e-01</leafValues></_>
    <_>
      <internalNodes>
        0 -1 13682 -631619557 -36234477 1307797887 294870555 -17395200
        -18934726 -617677220 -938850773</internalNodes>
      <leafValues>
        -1.4975108206272125e-01 1.9063545763492584e-01</leafValues></_>
    <_>
      <internalNodes>
        0 -1 546 -352415928 -293714390 -17158417 1884843624 -1560474276
        1717570916 -776764699 -218634749</internalNodes>
      <leafValues>
        -1.7091035842895508e-01 1.6620755195617676e-01</leafValues></_>
    <_>
      <internalNodes>
        0 -1 8349 -5011207 -291373 -591929345 -201351683 -279041 -9
        -89407493 -1148515304</internalNodes>
      <leafValues>
        -1.1425894498825073e-01 2.4803416430950165e-01</leafValues></_>
    <_>
      <internalNodes>
        0 -1 14558 -268448016 532098301 -805572611 226434285 534031784
        -1077994019 -134435604 217921020</internalNodes>
      <leafValues>
        -2.6092278957366943e-01 1.1069618910551071e-01</leafValues></_>
    <_>
      <internalNodes>
        0 -1 10795 -859962124 -537121676 -1073791493 -4649507
        -1187103310 -110594 -1612530182 -1078064904</internalNodes>
      <leafValues>
        -1.7860795557498932e-01 1.5922853350639343e-01</leafValues></_></weakClassifiers></stage3>
</opencv_storage>
