<?xml version="1.0"?>
<opencv_storage>
<stage2>
  <maxWeakCount>43</maxWeakCount>
  <stageThreshold>-2.5909450054168701e+00</stageThreshold>
  <weakClassifiers>
    <_>
      <internalNodes>
        0 -1 10400 -1145414401 -61315 528449535 2138922333 -1431651650
        -1078281478 523960319 -12887553</internalNodes>
      <leafValues>
        -2.7515637874603271e-01 5.3276079893112183e-01</leafValues></_>
    <_>
      <internalNodes>
        0 -1 3166 -538968065 -15663104 -552476911 1594971393 -2004318070
        -16252928 134269099 -551560549</internalNodes>
      <leafValues>
        -2.2409974038600922e-01 5.3231096267700195e-01</leafValues></_>
    <_>
      <internalNodes>
        0 -1 14795 -652 -1073758731 -513 -1107837441 -4215544
        -1073759041 -16798552 -2135242578</internalNodes>
      <leafValues>
        -3.4170478582382202e-01 3.3402743935585022e-01</leafValues></_>
    <_>
      <internalNodes>
        0 -1 289 -84213761 -86018 -2162689 -13979990 -8683521 -4309314
        -8945665 -8421505</internalNodes>
      <leafValues>
        -2.7708104252815247e-01 3.9148154854774475e-01</leafValues></_>
    <_>
      <internalNodes>
        0 -1 9524 -653078279 -570752912 521756157 1594949721 -1440040774
        -1145435976 186309883 453640344</internalNodes>
      <leafValues>
        -3.1736359000205994e-01 2.8812846541404724e-01</leafValues></_>
    <_>
      <internalNodes>
        0 -1 11371 -805158829 -11054991 -8954371 1594971221 -1431663873
        -4247361 -1431655681 -1442693109</internalNodes>
      <leafValues>
        -1.9465021789073944e-01 4.1040885448455811e-01</leafValues></_>
    <_>
      <internalNodes>
        0 -1 8499 -73403886 -586616820 -1072902120 -581053987 -930287430
        -2012479480 1073791192 -925904673</internalNodes>
      <leafValues>
        -2.9494726657867432e-01 2.7823424339294434e-01</leafValues></_>
    <_>
      <internalNodes>
        0 -1 959 -804138784 -787410896 -131585 1360123281 -789479174
        -252516192 -664679173 1359036418</internalNodes>
      <leafValues>
        -3.8892960548400879e-01 1.9325582683086395e-01</leafValues></_>
    <_>
      <internalNodes>
        0 -1 10725 -1181216520 -574878504 -1076346881 -33745539
        -1162297412 -1078318852 -1145520129 -1078326088</internalNodes>
      <leafValues>
        -2.7332907915115356e-01 2.7946832776069641e-01</leafValues></_>
    <_>
      <internalNodes>
        0 -1 3 -923809585 -2097153 -8193 -9761 -4097 -1 -807404033
        -1059864511</internalNodes>
      <leafValues>
        -1.8558318912982941e-01 3.9638522267341614e-01</leafValues></_>
    <_>
      <internalNodes>
        0 -1 14805 -1164267504 -2080702448 -1677743683 -1459680207
        -1499815776 16157856 -2136309600 -2135244638</internalNodes>
      <leafValues>
        -3.3087798953056335e-01 1.8791902065277100e-01</leafValues></_>
    <_>
      <internalNodes>
        0 -1 11106 -545072904 -573046632 152050909 488178717 -1442805062
        -1145435976 168332031 453707930</internalNodes>
      <leafValues>
        -2.3969654738903046e-01 2.6253741979598999e-01</leafValues></_>
    <_>
      <internalNodes>
        0 -1 9992 -1095237388 -64004 -1078231041 -193315 -1145389572
        -1141242375 -1078280193 -1078261576</internalNodes>
      <leafValues>
        -2.6344957947731018e-01 2.2434565424919128e-01</leafValues></_>
    <_>
      <internalNodes>
        0 -1 1324 -254283534 -615452430 1349546225 1393586290 -789536520
        3145904 1081463034 1393807579</internalNodes>
      <leafValues>
        -2.6025250554084778e-01 2.2861209511756897e-01</leafValues></_>
    <_>
      <internalNodes>
        0 -1 7368 -1710040872 -4470280 -4202497 -9731 -1096090625
        -1078225413 -1078018049 -1145372536</internalNodes>
      <leafValues>
        -2.0527528226375580e-01 2.9074048995971680e-01</leafValues></_>
    <_>
      <internalNodes>
        0 -1 14697 -1145381379 -1073783364 -67371011 -1346430792
        -1145372676 -1346372162 1073659385 -1901150038</internalNodes>
      <leafValues>
        -1.9994357228279114e-01 2.7294933795928955e-01</leafValues></_>
    <_>
      <internalNodes>
        0 -1 475 -133436726 -117309440 4255953 1930631170 -2146860914
        167772160 4280539 1396961883</internalNodes>
      <leafValues>
        -2.5899887084960938e-01 2.2091954946517944e-01</leafValues></_>
    <_>
      <internalNodes>
        0 -1 14768 -8715 -570425353 -1 -1073741825 -671088641 -9217
        -6145 251649535</internalNodes>
      <leafValues>
        -1.8739816546440125e-01 2.8647345304489136e-01</leafValues></_>
    <_>
      <internalNodes>
        0 -1 7989 -81260296 -541261680 -212993 -541256588 -1431783256
        -1146212872 -1162298881 -1079375464</internalNodes>
      <leafValues>
        -2.2102981805801392e-01 2.2788058221340179e-01</leafValues></_>
    <_>
      <internalNodes>
        0 -1 12790 -1332176392 -2292240 -1073741825 -190979 -1363362052
        -1078054916 -1095188481 -1081474888</internalNodes>
      <leafValues>
        -2.2665727138519287e-01 2.1759654581546783e-01</leafValues></_>
    <_>
      <internalNodes>
        0 -1 13454 -635813869 -547683815 -666935425 286475035 -99956734
        -21358565 -99025286 -1442657765</internalNodes>
      <leafValues>
        -1.9407290220260620e-01 2.5162333250045776e-01</leafValues></_>
    <_>
      <internalNodes>
        0 -1 585 -16798980 -94502328 -1935243122 541204514 -479065292
        1428426036 -134807689 -227279069</internalNodes>
      <leafValues>
        -1.9934032857418060e-01 2.3801806569099426e-01</leafValues></_>
    <_>
      <internalNodes>
        0 -1 10400 1280287504 492335026 -316664451 -1726864718 489702641
        -353407555 -1601958214 198110744</internalNodes>
      <leafValues>
        -2.4518291652202606e-01 1.9392640888690948e-01</leafValues></_>
    <_>
      <internalNodes>
        0 -1 11079 -602877744 -570947376 1815107583 1602027601
        -2011133824 -1095102032 167775418 187303971</internalNodes>
      <leafValues>
        -2.6322463154792786e-01 1.7155691981315613e-01</leafValues></_>
    <_>
      <internalNodes>
        0 -1 14745 -1105585136 -1078911212 -1342214145 -1182838275
        -1363499740 -1075644521 -1909814096 -366818270</internalNodes>
      <leafValues>
        -2.3753251135349274e-01 1.8910600244998932e-01</leafValues></_>
    <_>
      <internalNodes>
        0 -1 1267 -15007782 -553625487 2130769745 1459648305 1073776816
        168428568 2064711611 2065387739</internalNodes>
      <leafValues>
        -2.1391665935516357e-01 2.1277354657649994e-01</leafValues></_>
    <_>
      <internalNodes>
        0 -1 3182 -2012495727 -72616752 1299676511 -12583471 -1977645891
        -351298256 186615291 -583020527</internalNodes>
      <leafValues>
        -1.5481847524642944e-01 2.9631057381629944e-01</leafValues></_>
    <_>
      <internalNodes>
        0 -1 14634 -1073741825 -1879113729 1601437649 -1879065095
        805240831 -1879117830 267935152 -838863621</internalNodes>
      <leafValues>
        -1.3643205165863037e-01 3.3215698599815369e-01</leafValues></_>
    <_>
      <internalNodes>
        0 -1 14684 -1080404623 -1078239947 -12583077 -1959577835
        -1086524144 -1346439599 -1372521808 -366944646</internalNodes>
      <leafValues>
        -2.1073223650455475e-01 2.0812717080116272e-01</leafValues></_>
    <_>
      <internalNodes>
        0 -1 10156 -1744678575 -33599247 -545292289 -578216867
        -1423401027 -1075060739 758668281 134217744</internalNodes>
      <leafValues>
        -2.7598607540130615e-01 1.6051197052001953e-01</leafValues></_>
    <_>
      <internalNodes>
        0 -1 12692 -656424960 1561657345 520967457 268528655 -658521928
        1522354184 -2000946952 403700991</internalNodes>
      <leafValues>
        -2.5181874632835388e-01 1.6890649497509003e-01</leafValues></_>
    <_>
      <internalNodes>
        0 -1 9400 -1204104976 -72804136 -1095246339 -1615127408
        -1095057988 -1078227492 -1078289665 -1414854488</internalNodes>
      <leafValues>
        -1.9229067862033844e-01 2.1965500712394714e-01</leafValues></_>
    <_>
      <internalNodes>
        0 -1 455 -487865102 -492166614 -85285122 -261447008 -483457026
        -671922802 -740883979 -419969630</internalNodes>
      <leafValues>
        -1.7796705663204193e-01 2.3250889778137207e-01</leafValues></_>
    <_>
      <internalNodes>
        0 -1 608 -49091 1912406044 870921023 1006450460 1044127996
        527303004 132915708 1558205692</internalNodes>
      <leafValues>
        -2.4940615892410278e-01 1.6507235169410706e-01</leafValues></_>
    <_>
      <internalNodes>
        0 -1 8583 -81657608 -67559052 -273055745 -34006531 -1430735427
        -1145427528 -1413829377 -1146486600</internalNodes>
      <leafValues>
        -2.0228807628154755e-01 1.9633622467517853e-01</leafValues></_>
    <_>
      <internalNodes>
        0 -1 8390 -775163006 454100867 1494334272 289426511 12845192
        78840976 1839709899 286776543</internalNodes>
      <leafValues>
        -2.5629794597625732e-01 1.5467818081378937e-01</leafValues></_>
    <_>
      <internalNodes>
        0 -1 14619 -1111827336 -1678142064 -1075061419 -1986830851
        -1908876880 -1078536908 444636824 -1432691270</internalNodes>
      <leafValues>
        -1.9697931408882141e-01 2.0418360829353333e-01</leafValues></_>
    <_>
      <internalNodes>
        0 -1 1391 -536933507 -11461552 -58917249 1481670268 -9490883
        -8698076 -1075003778 -75763841</internalNodes>
      <leafValues>
        -1.3495866954326630e-01 2.8640022873878479e-01</leafValues></_>
    <_>
      <internalNodes>
        0 -1 3166 -328078208 1078384499 1878683630 -1056658894
        1153778853 16235451 -1058074916 686940512</internalNodes>
      <leafValues>
        -2.7775824069976807e-01 1.3753065466880798e-01</leafValues></_>
    <_>
      <internalNodes>
        0 -1 7897 -569456102 -1626732014 108047455 520819506 -1945468792
        -1474428390 403393692 1260110623</internalNodes>
      <leafValues>
        -1.9965368509292603e-01 1.8445642292499542e-01</leafValues></_>
    <_>
      <internalNodes>
        0 -1 92 -2138390400 -1610579800 -805306417 -4423542 -1912676421
        -75510081 -439003649 -1050721279</internalNodes>
      <leafValues>
        -2.2686317563056946e-01 1.6382357478141785e-01</leafValues></_>
    <_>
      <internalNodes>
        0 -1 14579 -577760163 -52131 -8195 -9332357 -13984680 -4215556
        -1434932552 -1439676360</internalNodes>
      <leafValues>
        -2.0965933799743652e-01 1.8252855539321899e-01</leafValues></_>
    <_>
      <internalNodes>
        0 -1 10396 -1095627276 -16840464 -1183097857 -61964 -1096761668
        -1073869320 -1364017670 -1413871366</internalNodes>
      <leafValues>
        -1.9800817966461182e-01 1.7629425227642059e-01</leafValues></_></weakClassifiers></stage2>
</opencv_storage>
