<?xml version="1.0"?>
<opencv_storage>
<stage5>
  <maxWeakCount>83</maxWeakCount>
  <stageThreshold>-2.5040352344512939e+00</stageThreshold>
  <weakClassifiers>
    <_>
      <internalNodes>
        0 -1 9996 -1073774593 -41475 1065320447 2139054077 -1078263809
        -2 532348927 -1</internalNodes>
      <leafValues>
        -2.0098407566547394e-01 5.0018024444580078e-01</leafValues></_>
    <_>
      <internalNodes>
        0 -1 89 -16842754 -4542534 -1 -462920 -1073758209 -16385
        2138259455 2139062075</internalNodes>
      <leafValues>
        -3.1346035003662109e-01 2.8256490826606750e-01</leafValues></_>
    <_>
      <internalNodes>
        0 -1 3171 -536870945 -15375099 -552476911 1997667073 -930313076
        -5635832 -938882421 -14689381</internalNodes>
      <leafValues>
        -1.7138086259365082e-01 4.3872588872909546e-01</leafValues></_>
    <_>
      <internalNodes>
        0 -1 14792 -8844 -1073758721 -1 -1107312641 -29048 -16385 -29528
        -2130786134</internalNodes>
      <leafValues>
        -3.3092433214187622e-01 2.0088687539100647e-01</leafValues></_>
    <_>
      <internalNodes>
        0 -1 8359 -2013068271 -4521968 -1 -4253891 -1942381411 -296005
        -2012176453 -2012528639</internalNodes>
      <leafValues>
        -2.5034090876579285e-01 2.3750509321689606e-01</leafValues></_>
    <_>
      <internalNodes>
        0 -1 8605 -116338448 -46591920 2134474109 2131824688 -1440171846
        -21364552 437844155 990593176</internalNodes>
      <leafValues>
        -2.4885639548301697e-01 2.1757052838802338e-01</leafValues></_>
    <_>
      <internalNodes>
        0 -1 11708 -99597195 -958979 -139265 -35824291 -21299201 -257
        -4522241 -100513765</internalNodes>
      <leafValues>
        -2.0275962352752686e-01 2.6184010505676270e-01</leafValues></_>
    <_>
      <internalNodes>
        0 -1 404 -1023750402 -806711570 -68489217 -31292894 1085552127
        -809234433 1171609079 -1035779982</internalNodes>
      <leafValues>
        -2.2749800980091095e-01 2.1325881779193878e-01</leafValues></_>
    <_>
      <internalNodes>
        0 -1 6991 -67440392 -606596912 -12913159 1594970160 -1682407174
        -1162178312 455146427 454705337</internalNodes>
      <leafValues>
        -2.8337964415550232e-01 1.6489481925964355e-01</leafValues></_>
    <_>
      <internalNodes>
        0 -1 14589 -537371563 -191179 -1 -12886149 -82064 -195 -84869128
        -1440690640</internalNodes>
      <leafValues>
        -2.5574693083763123e-01 1.6503167152404785e-01</leafValues></_>
    <_>
      <internalNodes>
        0 -1 11178 -538971950 59812050 1295143024 297785435 -858924804
        -1970632472 1237696728 181138059</internalNodes>
      <leafValues>
        -2.0807550847530365e-01 2.1261180937290192e-01</leafValues></_>
    <_>
      <internalNodes>
        0 -1 4972 -715930174 -774561579 -67108881 1359016330 1355088126
        -990658405 -715138070 285425931</internalNodes>
      <leafValues>
        -2.7427858114242554e-01 1.5127347409725189e-01</leafValues></_>
    <_>
      <internalNodes>
        0 -1 11124 -1078420996 -2292484 -1077977091 -536929059
        -1145520130 -1073857028 -1078280193 -1078261509</internalNodes>
      <leafValues>
        -1.6255588829517365e-01 2.5959974527359009e-01</leafValues></_>
    <_>
      <internalNodes>
        0 -1 14809 -1073807425 -1879130113 -65601 -1342177281
        -1343307777 -1375813697 260087728 -805306369</internalNodes>
      <leafValues>
        -1.4486737549304962e-01 2.8138184547424316e-01</leafValues></_>
    <_>
      <internalNodes>
        0 -1 14694 -1147478027 -1074316804 -3 -1393787651 -1078263823
        -1073741825 1052442109 -1364263750</internalNodes>
      <leafValues>
        -1.8483890593051910e-01 2.0982667803764343e-01</leafValues></_>
    <_>
      <internalNodes>
        0 -1 585 -83947908 -128840104 1591611054 1879051786 -160232696
        1936918548 -151900289 -210507933</internalNodes>
      <leafValues>
        -1.9059255719184875e-01 1.9744819402694702e-01</leafValues></_>
    <_>
      <internalNodes>
        0 -1 10676 -586624776 -541519720 -4530177 1570443481 -1162180360
        -345879 -1431659266 187302024</internalNodes>
      <leafValues>
        -2.5290715694427490e-01 1.4847657084465027e-01</leafValues></_>
    <_>
      <internalNodes>
        0 -1 12712 -595599360 1560637448 337399869 269087759 1278197912
        1280839960 1208799416 1209005055</internalNodes>
      <leafValues>
        -2.4452073872089386e-01 1.4992254972457886e-01</leafValues></_>
    <_>
      <internalNodes>
        0 -1 1152 -1978933120 -91561600 271729901 -77232 168461483
        -636534733 102843535 1192219649</internalNodes>
      <leafValues>
        -2.2889076173305511e-01 1.5100978314876556e-01</leafValues></_>
    <_>
      <internalNodes>
        0 -1 10396 -4694540 -62211 -32769 -58115 -1078280195 -82945
        -1141194753 -1078256386</internalNodes>
      <leafValues>
        -1.5333236753940582e-01 2.2375306487083435e-01</leafValues></_>
    <_>
      <internalNodes>
        0 -1 506 -805327041 -9162914 228395357 1997807417 231518205
        1828468156 368906239 1560033976</internalNodes>
      <leafValues>
        -2.2331120073795319e-01 1.5300028026103973e-01</leafValues></_>
    <_>
      <internalNodes>
        0 -1 1263 -84677942 -216989184 808460914 321987122 -926940984
        65536 1884308223 1934881627</internalNodes>
      <leafValues>
        -2.3554632067680359e-01 1.4545640349388123e-01</leafValues></_>
    <_>
      <internalNodes>
        0 -1 14745 -1078305417 -1073758892 -1354776577 -32803
        -1076036687 -1073741833 -1373721412 -365236704</internalNodes>
      <leafValues>
        -1.6107457876205444e-01 2.0161287486553192e-01</leafValues></_>
    <_>
      <internalNodes>
        0 -1 14555 -15474925 -1 -1 -4980737 -2161407 -257 -1 -2144280813</internalNodes>
      <leafValues>
        -1.4224591851234436e-01 2.2628161311149597e-01</leafValues></_>
    <_>
      <internalNodes>
        0 -1 11463 -4662020 -536998696 -37789697 -536936195 -1146443014
        -1074067972 -1146437697 -1081406210</internalNodes>
      <leafValues>
        -1.3704948127269745e-01 2.4089501798152924e-01</leafValues></_>
    <_>
      <internalNodes>
        0 -1 13226 -664911855 1394541593 1517704575 291049563 -553744382
        -8712533 -361039238 1242221083</internalNodes>
      <leafValues>
        -1.8926404416561127e-01 1.7241947352886200e-01</leafValues></_>
    <_>
      <internalNodes>
        0 -1 331 -788012414 -2147450238 1434264462 -6555649 -1056144193
        301992355 1074855937 1090646275</internalNodes>
      <leafValues>
        -2.6750573515892029e-01 1.1946844309568405e-01</leafValues></_>
    <_>
      <internalNodes>
        0 -1 12213 -1615274756 -453124 -1 -537059843 -1416560644 -127235
        -1078411330 -1078328136</internalNodes>
      <leafValues>
        -1.8589779734611511e-01 1.6675803065299988e-01</leafValues></_>
    <_>
      <internalNodes>
        0 -1 627 -1 -8552611 1009530111 1008221822 -8421507 -8425860
        -1099006082 -25692545</internalNodes>
      <leafValues>
        -1.0073381662368774e-01 3.0327251553535461e-01</leafValues></_>
    <_>
      <internalNodes>
        0 -1 403 -521477904 -1064639546 -67113225 -102047006 -151795713
        -238569483 1140278481 -941113166</internalNodes>
      <leafValues>
        -1.5401525795459747e-01 1.9776469469070435e-01</leafValues></_>
    <_>
      <internalNodes>
        0 -1 8944 -1145430792 -541391624 -1077969409 532617693
        -1162176008 -1074119175 -1348820993 -1078261624</internalNodes>
      <leafValues>
        -1.6570021212100983e-01 1.7760074138641357e-01</leafValues></_>
    <_>
      <internalNodes>
        0 -1 12200 -352410694 -1216339000 -1141040129 524858252
        687481786 735622040 737948158 198154446</internalNodes>
      <leafValues>
        -2.0517472922801971e-01 1.4449912309646606e-01</leafValues></_>
    <_>
      <internalNodes>
        0 -1 242 -2146705248 -558107140 -1861428913 -553123704
        -1068776035 -549495411 57930719 17776649</internalNodes>
      <leafValues>
        -2.2082263231277466e-01 1.3062269985675812e-01</leafValues></_>
    <_>
      <internalNodes>
        0 -1 10555 -1979556523 -385089 -1108525057 -1086779907
        -1078813249 -335875 -1087103493 134217729</internalNodes>
      <leafValues>
        -2.2250211238861084e-01 1.2491726130247116e-01</leafValues></_>
    <_>
      <internalNodes>
        0 -1 14756 -1074348097 -1343307845 -604504141 -268469313
        -1346456129 -1947271169 147068080 -872416074</internalNodes>
      <leafValues>
        -1.2904298305511475e-01 2.1383835375308990e-01</leafValues></_>
    <_>
      <internalNodes>
        0 -1 6186 1195819672 991374090 -6623585 251891466 1078241464
        -8699969 1145833660 1326402203</internalNodes>
      <leafValues>
        -2.0236930251121521e-01 1.3467155396938324e-01</leafValues></_>
    <_>
      <internalNodes>
        0 -1 2090 -146333616 -619698892 1063280638 1025510074
        -1463025664 -1101528040 184561880 -83756102</internalNodes>
      <leafValues>
        -1.7802959680557251e-01 1.5086477994918823e-01</leafValues></_>
    <_>
      <internalNodes>
        0 -1 4 -1970616224 -1611661313 1610612735 -1715470357
        -1076895745 -1 -370419221 1142964592</internalNodes>
      <leafValues>
        -2.9641848802566528e-01 9.0168543159961700e-02</leafValues></_>
    <_>
      <internalNodes>
        0 -1 6295 -1442145104 -541450664 -1073742849 -8692624
        -1346716422 -1615102979 -1413833477 -1893006183</internalNodes>
      <leafValues>
        -1.6138775646686554e-01 1.6683049499988556e-01</leafValues></_>
    <_>
      <internalNodes>
        0 -1 13891 -629522413 1534787889 -93814785 5310591 -97351664
        -71431144 -1442268131 167955067</internalNodes>
      <leafValues>
        -1.9141280651092529e-01 1.4174011349678040e-01</leafValues></_>
    <_>
      <internalNodes>
        0 -1 8014 -98569512 1477215308 312365296 418167038 1383969439
        302519773 1122468083 168804555</internalNodes>
      <leafValues>
        -2.0575593411922455e-01 1.2764182686805725e-01</leafValues></_>
    <_>
      <internalNodes>
        0 -1 13806 -803933391 -33701889 -134479873 -4202561 -29575233
        -4858945 -67108865 -1464260088</internalNodes>
      <leafValues>
        -1.0476171970367432e-01 2.5170788168907166e-01</leafValues></_>
    <_>
      <internalNodes>
        0 -1 14737 -619704875 -1084545195 -1879048193 -1586407437
        -8609596 -142620939 -286216472 -365900038</internalNodes>
      <leafValues>
        -1.5324763953685760e-01 1.7126332223415375e-01</leafValues></_>
    <_>
      <internalNodes>
        0 -1 10803 -905822030 -590346086 492855163 -552464838
        -1669018946 -822475270 153099448 -618966982</internalNodes>
      <leafValues>
        -1.4208658039569855e-01 1.8355049192905426e-01</leafValues></_>
    <_>
      <internalNodes>
        0 -1 7035 -80587536 -326188 2013102077 -61955 -1097809923
        -68459015 -1079328769 -1147535208</internalNodes>
      <leafValues>
        -1.5117344260215759e-01 1.6501872241497040e-01</leafValues></_>
    <_>
      <internalNodes>
        0 -1 624 -50385044 2088241716 -16797697 2086498158 -411620292
        1361118516 -185159809 -76025985</internalNodes>
      <leafValues>
        -1.3465492427349091e-01 1.9449438154697418e-01</leafValues></_>
    <_>
      <internalNodes>
        0 -1 3171 -62585184 1172870906 1868183274 -1929108422 73990691
        7728819 350653950 14755438</internalNodes>
      <leafValues>
        -2.5463524460792542e-01 9.8956763744354248e-02</leafValues></_>
    <_>
      <internalNodes>
        0 -1 14517 -1078264335 -1082224715 -1619132427 -1375985923
        -1074085891 -1999709705 -1078394888 -1430594390</internalNodes>
      <leafValues>
        -1.3657331466674805e-01 1.7843618988990784e-01</leafValues></_>
    <_>
      <internalNodes>
        0 -1 2466 -230428534 18030722 -1923057155 1501506367 1078049786
        1499184498 269811848 1360200371</internalNodes>
      <leafValues>
        -2.0249146223068237e-01 1.2140128761529922e-01</leafValues></_>
    <_>
      <internalNodes>
        0 -1 1248 -1968307048 -890361588 -1688802 -167622632 -857076932
        -16888524 865080500 -769408000</internalNodes>
      <leafValues>
        -2.0976287126541138e-01 1.1569609493017197e-01</leafValues></_>
    <_>
      <internalNodes>
        0 -1 14789 -3 1006583807 -369103489 469711864 -1143816308
        -1350586402 -1918320644 268434940</internalNodes>
      <leafValues>
        -1.6172948479652405e-01 1.4967368543148041e-01</leafValues></_>
    <_>
      <internalNodes>
        0 -1 12768 -603926448 493879476 530076765 488442365 -1170542406
        -549844752 184555707 520617992</internalNodes>
      <leafValues>
        -2.1634308993816376e-01 1.1178699880838394e-01</leafValues></_>
    <_>
      <internalNodes>
        0 -1 8605 -701766561 1458585663 -42543115 357059677 -74259728
        -1304823239 -469039308 -567240669</internalNodes>
      <leafValues>
        -1.2004882842302322e-01 2.0477122068405151e-01</leafValues></_>
    <_>
      <internalNodes>
        0 -1 10795 -1909321996 -54023 -1142980609 -1610666755
        -1163198530 -4304905 -1409634306 -1078059522</internalNodes>
      <leafValues>
        -1.6759307682514191e-01 1.4173734188079834e-01</leafValues></_>
    <_>
      <internalNodes>
        0 -1 39 -1744661584 -109838405 276093885 -638321685 -36044833
        -19546113 -143272103 1163247755</internalNodes>
      <leafValues>
        -1.6075870394706726e-01 1.4865237474441528e-01</leafValues></_>
    <_>
      <internalNodes>
        0 -1 546 -923925772 -33673853 -1628819730 814885410 -1066400072
        1400180094 -1057947200 -193469117</internalNodes>
      <leafValues>
        -1.7586328089237213e-01 1.3401691615581512e-01</leafValues></_>
    <_>
      <internalNodes>
        0 -1 5645 -651964399 -68505583 -1111498753 -1376943560 -48257611
        -87082573 -853977601 -1952727040</internalNodes>
      <leafValues>
        -1.1747343838214874e-01 1.9908651709556580e-01</leafValues></_>
    <_>
      <internalNodes>
        0 -1 14805 -1078808816 -1881497543 -1782726979 -1703149480
        -1359496532 -2047561745 10978464 -1025055582</internalNodes>
      <leafValues>
        -1.8219639360904694e-01 1.2650486826896667e-01</leafValues></_>
    <_>
      <internalNodes>
        0 -1 10265 -553549232 1392582672 150998109 16797712 -939456360
        169020434 1297976348 1394602971</internalNodes>
      <leafValues>
        -1.9134034216403961e-01 1.1920773983001709e-01</leafValues></_>
    <_>
      <internalNodes>
        0 -1 734 340539196 351583324 229973820 -6438914 1040007164
        955857340 700267416 769462447</internalNodes>
      <leafValues>
        -1.7071169614791870e-01 1.2997105717658997e-01</leafValues></_>
    <_>
      <internalNodes>
        0 -1 14381 -88424429 -2029781729 -1350631459 19029791 -337054976
        -539232737 1781588504 -366813605</internalNodes>
      <leafValues>
        -1.3896740972995758e-01 1.6373628377914429e-01</leafValues></_>
    <_>
      <internalNodes>
        0 -1 11341 -1476214021 -17123208 -4898817 -1107813295
        -1610567432 -67462694 1562468347 -620018679</internalNodes>
      <leafValues>
        -1.1372295767068863e-01 1.9697542488574982e-01</leafValues></_>
    <_>
      <internalNodes>
        0 -1 227 -921965121 -2147440978 -16657 -4199734 2143280639
        -275775489 1431655927 -985152265</internalNodes>
      <leafValues>
        -1.0206556320190430e-01 2.2410833835601807e-01</leafValues></_>
    <_>
      <internalNodes>
        0 -1 2634 -1440085872 -23187624 -272754689 2115510005
        -1096153028 -68215332 691152859 -1155842032</internalNodes>
      <leafValues>
        -1.8471403419971466e-01 1.2426027655601501e-01</leafValues></_>
    <_>
      <internalNodes>
        0 -1 9400 -1442149192 -4717424 -574624001 1073287240 -1163354632
        -1142972450 -1430607106 -1901454200</internalNodes>
      <leafValues>
        -1.7774665355682373e-01 1.2460743635892868e-01</leafValues></_>
    <_>
      <internalNodes>
        0 -1 8104 -539123982 1299186098 259001712 1300278194 1271519435
        62166962 185928368 1272836626</internalNodes>
      <leafValues>
        -1.8207100033760071e-01 1.1917663365602493e-01</leafValues></_>
    <_>
      <internalNodes>
        0 -1 1181 -287970430 -615481520 -1657700527 185033271 46727823
        -660464456 1215641690 2038395514</internalNodes>
      <leafValues>
        -1.5729010105133057e-01 1.3753642141819000e-01</leafValues></_>
    <_>
      <internalNodes>
        0 -1 13213 -665186809 -548207853 2146402303 293809727 -83893951
        -2101485 -8725986 -368915957</internalNodes>
      <leafValues>
        -1.2263783067464828e-01 1.7844335734844208e-01</leafValues></_>
    <_>
      <internalNodes>
        0 -1 19 -973036796 -266159205 -4276225 -409865 -3162179
        -1074020417 -190531 -2023415501</internalNodes>
      <leafValues>
        -1.4920918643474579e-01 1.4293234050273895e-01</leafValues></_>
    <_>
      <internalNodes>
        0 -1 1391 -16814467 -25219236 2117906047 1029799542 -9605507
        -144017655 -437649669 -8388769</internalNodes>
      <leafValues>
        -9.3958988785743713e-02 2.3354576528072357e-01</leafValues></_>
    <_>
      <internalNodes>
        0 -1 6465 -4516367 -323148 1579114461 -2292359 741093245
        -67557636 -1347472134 -543489912</internalNodes>
      <leafValues>
        -1.1968327313661575e-01 1.7831641435623169e-01</leafValues></_>
    <_>
      <internalNodes>
        0 -1 12430 -72318732 -536932104 -536922625 2134840828
        -1148053062 -71668225 -1162857477 993659051</internalNodes>
      <leafValues>
        -1.5580809116363525e-01 1.3431924581527710e-01</leafValues></_>
    <_>
      <internalNodes>
        0 -1 10909 -2107596158 -1694521417 -818206128 729984170
        -1529494027 -239813225 -195363 1164800</internalNodes>
      <leafValues>
        -2.1934102475643158e-01 9.6624962985515594e-02</leafValues></_>
    <_>
      <internalNodes>
        0 -1 14277 -1078283373 -1714376258 415268112 -238214516
        -1275088494 -2086997328 1001771152 -253770109</internalNodes>
      <leafValues>
        -1.2720622122287750e-01 1.6666528582572937e-01</leafValues></_>
    <_>
      <internalNodes>
        0 -1 14697 -1086658768 -1442927820 -1090519563 -1455721544
        -1615856203 -1980170563 1073741821 -1934697424</internalNodes>
      <leafValues>
        -1.6798563301563263e-01 1.2125018984079361e-01</leafValues></_>
    <_>
      <internalNodes>
        0 -1 5528 -268440577 1167140353 -276836676 -327095774 -858486238
        -2078917597 -948566893 -134238289</internalNodes>
      <leafValues>
        -8.3390474319458008e-02 2.4752914905548096e-01</leafValues></_>
    <_>
      <internalNodes>
        0 -1 596 1987897340 2145335292 984891388 1073364986 921972664
        2113801272 644613356 1852407406</internalNodes>
      <leafValues>
        -1.8308919668197632e-01 1.1498034745454788e-01</leafValues></_>
    <_>
      <internalNodes>
        0 -1 10648 -96988944 -37814023 -1073760769 1060967673
        -1430602500 -1090576390 -1363628610 707658941</internalNodes>
      <leafValues>
        -1.8470117449760437e-01 1.1084699630737305e-01</leafValues></_>
    <_>
      <internalNodes>
        0 -1 468 -682628470 -552900120 926182591 1563977176 -2125361990
        -233307136 4235215 1566426906</internalNodes>
      <leafValues>
        -1.4542435109615326e-01 1.3962291181087494e-01</leafValues></_>
    <_>
      <internalNodes>
        0 -1 115 -792780256 -1339508839 1068150271 -1347486805
        -537026113 -545351939 -1900493 1124450827</internalNodes>
      <leafValues>
        -1.5972742438316345e-01 1.2675979733467102e-01</leafValues></_>
    <_>
      <internalNodes>
        0 -1 4466 -2012483567 -69032745 536870909 -612510479 928495039
        -68240397 121587131 -909131775</internalNodes>
      <leafValues>
        -1.1246699839830399e-01 1.8666796386241913e-01</leafValues></_>
    <_>
      <internalNodes>
        0 -1 14790 -797382827 -168181761 -84951041 807845887 -279621771
        -329646611 -1074069832 -1338708998</internalNodes>
      <leafValues>
        -1.3742218911647797e-01 1.4762128889560699e-01</leafValues></_>
    <_>
      <internalNodes>
        0 -1 11040 1413817358 1165305116 165953516 1363533230 1081057464
        1289591784 491757624 1399848699</internalNodes>
      <leafValues>
        -1.7968130111694336e-01 1.1630212515592575e-01</leafValues></_></weakClassifiers></stage5>
</opencv_storage>
