<?xml version="1.0"?>
<opencv_storage>
<stage7>
  <maxWeakCount>100</maxWeakCount>
  <stageThreshold>-2.5400457382202148e+00</stageThreshold>
  <weakClassifiers>
    <_>
      <internalNodes>
        0 -1 9540 -1073774593 -33283 536838143 2147450877 -1073807361 -3
        536805375 -1</internalNodes>
      <leafValues>
        -1.8562282621860504e-01 4.6467754244804382e-01</leafValues></_>
    <_>
      <internalNodes>
        0 -1 14779 -8204 -1 -1 -1073741825 -25860 -1 -20738 251645183</internalNodes>
      <leafValues>
        -2.9957365989685059e-01 2.4956457316875458e-01</leafValues></_>
    <_>
      <internalNodes>
        0 -1 3102 -131073 -9358575 -984071 -13552863 -1997763410 -281165
        -1998026582 -132165</internalNodes>
      <leafValues>
        -1.7583675682544708e-01 3.7620612978935242e-01</leafValues></_>
    <_>
      <internalNodes>
        0 -1 456 -352387073 -269578258 -1118465 -64968158 -176734337
        -126977 -143165441 -8951965</internalNodes>
      <leafValues>
        -2.3369109630584717e-01 2.3717410862445831e-01</leafValues></_>
    <_>
      <internalNodes>
        0 -1 10595 -1843249037 -42767501 -1 -48935587 -1163201793
        -262145 -89404417 -100483045</internalNodes>
      <leafValues>
        -1.5753166377544403e-01 2.9315114021301270e-01</leafValues></_>
    <_>
      <internalNodes>
        0 -1 14751 -1078263809 -1073741827 -65 -1342178051 -1073809921
        -1073743873 788462842 -1896874838</internalNodes>
      <leafValues>
        -1.7096017301082611e-01 2.6344743371009827e-01</leafValues></_>
    <_>
      <internalNodes>
        0 -1 9978 -650456840 -570863368 -8705 1610174717 -1153763144
        -4535048 1060699899 1058668696</internalNodes>
      <leafValues>
        -2.2118708491325378e-01 2.0347249507904053e-01</leafValues></_>
    <_>
      <internalNodes>
        0 -1 3 -925907737 -4097 -67117057 -1 -1 -4097 -538968065
        -1043873711</internalNodes>
      <leafValues>
        -1.6684052348136902e-01 2.5138720870018005e-01</leafValues></_>
    <_>
      <internalNodes>
        0 -1 10707 -1715957512 498598040 152049919 496566493 706906298
        -1078327046 167780027 453707962</internalNodes>
      <leafValues>
        -2.4979256093502045e-01 1.5589839220046997e-01</leafValues></_>
    <_>
      <internalNodes>
        0 -1 14795 -8391564 -1078478924 -1 -1078673476 -5296504
        -1073762707 -16807768 -1608456160</internalNodes>
      <leafValues>
        -2.6151120662689209e-01 1.4811199903488159e-01</leafValues></_>
    <_>
      <internalNodes>
        0 -1 3446 -92278542 1527980563 279974128 269496370 -1026180934
        134350898 1078050992 1258545666</internalNodes>
      <leafValues>
        -2.6415672898292542e-01 1.3414604961872101e-01</leafValues></_>
    <_>
      <internalNodes>
        0 -1 6042 1342390402 -772542729 -67109893 -1042161161 -706751233
        -604242506 -301999142 1359168778</internalNodes>
      <leafValues>
        -2.2579053044319153e-01 1.4082030951976776e-01</leafValues></_>
    <_>
      <internalNodes>
        0 -1 14745 -1086710433 -1077960843 -1342198273 -1140892675
        -1078024194 -1073743945 -1359044418 -357370114</internalNodes>
      <leafValues>
        -1.4994756877422333e-01 2.1702820062637329e-01</leafValues></_>
    <_>
      <internalNodes>
        0 -1 10285 -584003368 -570949424 134762751 488194256 -2013230968
        -1096144710 134220026 184763019</internalNodes>
      <leafValues>
        -2.0457205176353455e-01 1.5514113008975983e-01</leafValues></_>
    <_>
      <internalNodes>
        0 -1 111 -1727865984 -1159 -613361155 -6423943 -211829830
        -69721576 -145629189 1594967113</internalNodes>
      <leafValues>
        -2.2821182012557983e-01 1.2797032296657562e-01</leafValues></_>
    <_>
      <internalNodes>
        0 -1 12748 -536871532 -249974528 1317592380 1364852701 244223392
        -1439521006 256706696 992726779</internalNodes>
      <leafValues>
        -1.7426154017448425e-01 1.6747933626174927e-01</leafValues></_>
    <_>
      <internalNodes>
        0 -1 9540 1108377616 494666322 -277282945 -1652751009 178861240
        -1091031814 -1408680449 254301436</internalNodes>
      <leafValues>
        -2.2882732748985291e-01 1.2326809018850327e-01</leafValues></_>
    <_>
      <internalNodes>
        0 -1 14351 -570663563 -33417 -131073 -139393 -67373447 -1
        -5439489 -1172301776</internalNodes>
      <leafValues>
        -1.7513059079647064e-01 1.6647292673587799e-01</leafValues></_>
    <_>
      <internalNodes>
        0 -1 1409 -95047041 -46847361 272232701 1564031071 1075085368
        923861040 1081458940 2019418718</internalNodes>
      <leafValues>
        -1.7030872404575348e-01 1.6237461566925049e-01</leafValues></_>
    <_>
      <internalNodes>
        0 -1 14260 -1145047118 -167790657 -1083541708 1351596684
        -1073826384 -1191530310 980297888 -251658549</internalNodes>
      <leafValues>
        -1.4070279896259308e-01 1.9423764944076538e-01</leafValues></_>
    <_>
      <internalNodes>
        0 -1 6825 -1174219311 -4465155 -4194305 -279043 -1078214657
        -16897 -1079263233 -1145371631</internalNodes>
      <leafValues>
        -1.3263995945453644e-01 2.0031596720218658e-01</leafValues></_>
    <_>
      <internalNodes>
        0 -1 10644 -233856512 454230803 -96174331 268458511 1884749828
        145884552 -260187956 785183</internalNodes>
      <leafValues>
        -2.8446736931800842e-01 9.7904175519943237e-02</leafValues></_>
    <_>
      <internalNodes>
        0 -1 14684 -1088791535 -1078241483 -1350574085 -1389142729
        -13830768 -1346374361 -294998344 -366940614</internalNodes>
      <leafValues>
        -1.7155100405216217e-01 1.5243957936763763e-01</leafValues></_>
    <_>
      <internalNodes>
        0 -1 8320 -703934952 1060833083 -257 422124048 -84042564 -8193
        2053905660 168758299</internalNodes>
      <leafValues>
        -2.1836806833744049e-01 1.2040237337350845e-01</leafValues></_>
    <_>
      <internalNodes>
        0 -1 352 -1064645894 -812995698 -1 -352118 1979678719 -2281505
        1979020757 -1072480256</internalNodes>
      <leafValues>
        -1.9980117678642273e-01 1.3307347893714905e-01</leafValues></_>
    <_>
      <internalNodes>
        0 -1 12236 1081354836 896804678 2147237756 626270980 -1073890306
        1072573688 738179838 734996650</internalNodes>
      <leafValues>
        -2.3297277092933655e-01 1.0592754930257797e-01</leafValues></_>
    <_>
      <internalNodes>
        0 -1 7989 -617082640 -4652912 -352769 501814736 -1364681540
        -1140970769 -1078150145 -1079377448</internalNodes>
      <leafValues>
        -1.7515316605567932e-01 1.4032435417175293e-01</leafValues></_>
    <_>
      <internalNodes>
        0 -1 589 -1 -16814084 1023175933 1041824510 -8443009 -8436116
        2055110271 -25690497</internalNodes>
      <leafValues>
        -9.6559278666973114e-02 2.6607459783554077e-01</leafValues></_>
    <_>
      <internalNodes>
        0 -1 8601 -542108428 -254723 -1074364417 -188931 -1363623938
        -16842819 -1078935558 -1078322024</internalNodes>
      <leafValues>
        -1.6760015487670898e-01 1.4495752751827240e-01</leafValues></_>
    <_>
      <internalNodes>
        0 -1 14523 -1212498122 -1879269473 234686896 -811778420
        -1279525442 -1946157889 753884400 -855641394</internalNodes>
      <leafValues>
        -1.4584591984748840e-01 1.6196997463703156e-01</leafValues></_>
    <_>
      <internalNodes>
        0 -1 13530 -1178936068 -256523 -1074274819 2113871325
        -1162166785 -1074127368 985317311 -1146485606</internalNodes>
      <leafValues>
        -1.3972012698650360e-01 1.6964294016361237e-01</leafValues></_>
    <_>
      <internalNodes>
        0 -1 364 -1978932566 -82068598 957384719 -82792432 -1040023318
        -595935232 272745163 1393246473</internalNodes>
      <leafValues>
        -1.8841922283172607e-01 1.2333141267299652e-01</leafValues></_>
    <_>
      <internalNodes>
        0 -1 14565 -17301665 -8388609 -1 -260837377 -715186859 -161 -1
        -260833701</internalNodes>
      <leafValues>
        -8.0424182116985321e-02 2.8755673766136169e-01</leafValues></_>
    <_>
      <internalNodes>
        0 -1 12365 -88456963 -513 -1 -40961 -81921 -257 -1095045125
        -1440085830</internalNodes>
      <leafValues>
        -1.3487569987773895e-01 1.7936357855796814e-01</leafValues></_>
    <_>
      <internalNodes>
        0 -1 14807 -1073807361 -1073954820 1072977917 -1073939556
        1006436350 -1078001668 464535548 268435455</internalNodes>
      <leafValues>
        -1.4515399932861328e-01 1.5926223993301392e-01</leafValues></_>
    <_>
      <internalNodes>
        0 -1 11423 -615853872 424220753 67131743 218693971 -1441884008
        -1154809840 503585688 453984603</internalNodes>
      <leafValues>
        -1.6391208767890930e-01 1.3600829243659973e-01</leafValues></_>
    <_>
      <internalNodes>
        0 -1 547 -285331588 -547082404 879625980 473181804 -25219460
        2138517342 -1234030724 2137484919</internalNodes>
      <leafValues>
        -1.9504395127296448e-01 1.0942447185516357e-01</leafValues></_>
    <_>
      <internalNodes>
        0 -1 14613 -1095082896 -1254519692 -1086587407 22109437
        -1967587920 -1075137372 251433208 -352650497</internalNodes>
      <leafValues>
        -1.4975418150424957e-01 1.4525602757930756e-01</leafValues></_>
    <_>
      <internalNodes>
        0 -1 10388 -902639120 1475477744 195059165 1338526712
        -1976501261 -960859920 221306363 1266860186</internalNodes>
      <leafValues>
        -1.5565674006938934e-01 1.3948424160480499e-01</leafValues></_>
    <_>
      <internalNodes>
        0 -1 7288 -716241903 -541653934 -574668801 -314637285 -285241104
        -57867 -554426433 -2002042725</internalNodes>
      <leafValues>
        -1.1072897911071777e-01 1.8882805109024048e-01</leafValues></_>
    <_>
      <internalNodes>
        0 -1 2510 -892370781 -1598946398 -56328811 -34557006 205851627
        576744487 1095041025 1096270083</internalNodes>
      <leafValues>
        -1.9908368587493896e-01 1.0619667172431946e-01</leafValues></_>
    <_>
      <internalNodes>
        0 -1 1296 -295514550 -82607277 1784825425 2066887218 -1073738744
        -33026796 1715472095 2069852763</internalNodes>
      <leafValues>
        -1.6261900961399078e-01 1.2719643115997314e-01</leafValues></_>
    <_>
      <internalNodes>
        0 -1 14754 -1078280259 -1879130178 -1342211143 -1342199156
        -1107574851 -1883572289 217438384 -855638880</internalNodes>
      <leafValues>
        -1.4356021583080292e-01 1.4192949235439301e-01</leafValues></_>
    <_>
      <internalNodes>
        0 -1 12850 -1672183536 -147457 -33734659 -1145196609 -841114251
        -8405121 -188963 276105761</internalNodes>
      <leafValues>
        -1.8175409734249115e-01 1.1149037629365921e-01</leafValues></_>
    <_>
      <internalNodes>
        0 -1 14597 -609072111 -1077979273 -4210849 -1422164141 -198911
        -563469 -30888196 -1439633862</internalNodes>
      <leafValues>
        -1.4925684034824371e-01 1.3711898028850555e-01</leafValues></_>
    <_>
      <internalNodes>
        0 -1 12453 -1700753188 1064832080 17833949 530121168 136349880
        -1078191052 167774907 990449816</internalNodes>
      <leafValues>
        -1.9559621810913086e-01 1.0166567564010620e-01</leafValues></_>
    <_>
      <internalNodes>
        0 -1 13490 -95428096 1359062542 134803233 568319 -267943936
        404765696 -1072839423 1243604703</internalNodes>
      <leafValues>
        -2.1183830499649048e-01 9.2815980315208435e-02</leafValues></_>
    <_>
      <internalNodes>
        0 -1 83 -1073807362 -612712518 -143889 -2117710 -524545
        -1073758209 1878473663 2138472446</internalNodes>
      <leafValues>
        -1.7023238539695740e-01 1.1666993051767349e-01</leafValues></_>
    <_>
      <internalNodes>
        0 -1 5705 -536633344 1610625794 1814310716 2133276434 1170540160
        549062144 1364526232 1163351319</internalNodes>
      <leafValues>
        -2.5291118025779724e-01 7.5881272554397583e-02</leafValues></_>
    <_>
      <internalNodes>
        0 -1 1494 -1073418511 -705317955 -1342971905 -8513 -631920645
        -6147 -34755585 -1343815659</internalNodes>
      <leafValues>
        -8.7560668587684631e-02 2.2306106984615326e-01</leafValues></_>
    <_>
      <internalNodes>
        0 -1 8529 -670033672 -1147404112 512496125 536478000 -1078416132
        -1090907716 1001959167 -1079374630</internalNodes>
      <leafValues>
        -1.5256932377815247e-01 1.2718477845191956e-01</leafValues></_>
    <_>
      <internalNodes>
        0 -1 3102 -842093792 1351664674 -1418736126 1363200658
        1142252489 1617185340 1083523669 1082261572</internalNodes>
      <leafValues>
        -2.3727032542228699e-01 8.1757768988609314e-02</leafValues></_>
    <_>
      <internalNodes>
        0 -1 1391 -545313419 -34459883 -1094717825 947006078 -8437891
        -8436451 -3063809 -8392837</internalNodes>
      <leafValues>
        -1.0381889343261719e-01 1.8711584806442261e-01</leafValues></_>
    <_>
      <internalNodes>
        0 -1 14691 -1078277057 -1648589228 -1140851741 -2132132007
        -1078263873 -1367345156 1048379387 -286593954</internalNodes>
      <leafValues>
        -1.1319200694561005e-01 1.6848050057888031e-01</leafValues></_>
    <_>
      <internalNodes>
        0 -1 167 -852581726 -527521618 -49153 -1144182 -540289025
        -1082140737 1744270815 -989346813</internalNodes>
      <leafValues>
        -1.2551258504390717e-01 1.5258164703845978e-01</leafValues></_>
    <_>
      <internalNodes>
        0 -1 9266 -1876766447 -73760939 -1612750849 -2146783651
        -50882084 -1078198279 -576857639 -2013248495</internalNodes>
      <leafValues>
        -1.5159472823143005e-01 1.2797470390796661e-01</leafValues></_>
    <_>
      <internalNodes>
        0 -1 611 -67162355 167720781 1039939391 998061885 782778300
        620504444 771243964 1022131116</internalNodes>
      <leafValues>
        -1.8930859863758087e-01 1.0152329504489899e-01</leafValues></_>
    <_>
      <internalNodes>
        0 -1 6902 -62059220 1896680749 1320159496 1057046792 -2131976022
        -1541143368 202735786 1077273275</internalNodes>
      <leafValues>
        -1.9973924756050110e-01 9.3803167343139648e-02</leafValues></_>
    <_>
      <internalNodes>
        0 -1 392 -44482686 1360541451 156594552 423564083 1288286122
        -1734857541 80021754 1404785307</internalNodes>
      <leafValues>
        -1.5274019539356232e-01 1.2348910421133041e-01</leafValues></_>
    <_>
      <internalNodes>
        0 -1 10305 -71658248 -537258800 1060797435 -537063268
        -1162167106 -1073765380 716876731 -1078261318</internalNodes>
      <leafValues>
        -1.1436147987842560e-01 1.6458360850811005e-01</leafValues></_>
    <_>
      <internalNodes>
        0 -1 2586 -1975861071 -88443656 -4229761 2055326164 -1171649506
        -1703205095 1060918847 -616578047</internalNodes>
      <leafValues>
        -1.2571650743484497e-01 1.4772348105907440e-01</leafValues></_>
    <_>
      <internalNodes>
        0 -1 507 -1058864896 -1050670299 -178770262 1884480226
        -799604596 1364548692 -705690432 -422062718</internalNodes>
      <leafValues>
        -1.5552236139774323e-01 1.2204363197088242e-01</leafValues></_>
    <_>
      <internalNodes>
        0 -1 1854 -2113884527 -18175310 -33620097 -68092304 -1372713061
        -361073795 1433785723 -713833424</internalNodes>
      <leafValues>
        -1.3690318167209625e-01 1.3849613070487976e-01</leafValues></_>
    <_>
      <internalNodes>
        0 -1 1972 -79367438 -791134623 1882257938 2063721139 1245759892
        134745753 -5230126 1310670931</internalNodes>
      <leafValues>
        -1.7063497006893158e-01 1.0695225000381470e-01</leafValues></_>
    <_>
      <internalNodes>
        0 -1 14638 -1 -1912602625 -14647343 -1610612737 -1342324737
        -1879048194 1610415605 -805306637</internalNodes>
      <leafValues>
        -6.1457768082618713e-02 2.9061585664749146e-01</leafValues></_>
    <_>
      <internalNodes>
        0 -1 10959 -1976905025 -17124688 -1074823201 -1619292555
        -1908540935 -16844838 1571380731 -653574055</internalNodes>
      <leafValues>
        -9.8856851458549500e-02 1.8700632452964783e-01</leafValues></_>
    <_>
      <internalNodes>
        0 -1 12375 -2110652333 -12599753 1610317823 993593947 -329347845
        -101042443 -273027329 -368915941</internalNodes>
      <leafValues>
        -1.0652868449687958e-01 1.6879218816757202e-01</leafValues></_>
    <_>
      <internalNodes>
        0 -1 1341 -934483202 -261033101 241841790 827374335 1145079516
        1884578929 1801108223 1499324947</internalNodes>
      <leafValues>
        -1.4525187015533447e-01 1.2375509738922119e-01</leafValues></_>
    <_>
      <internalNodes>
        0 -1 13756 -67652673 -213074 -1073861123 -182076788 -1073758721
        -1361134664 1056839932 -607126833</internalNodes>
      <leafValues>
        -7.1843869984149933e-02 2.4615290760993958e-01</leafValues></_>
    <_>
      <internalNodes>
        0 -1 14729 -584053451 -1115706763 -131073 -1087250441
        -1471183656 -24899 -348504 -1911501310</internalNodes>
      <leafValues>
        -1.6408735513687134e-01 1.0683979839086533e-01</leafValues></_>
    <_>
      <internalNodes>
        0 -1 6877 -117398790 -82664778 1137472759 1430292222 201370296
        241696954 222596860 1259332347</internalNodes>
      <leafValues>
        -1.4074443280696869e-01 1.2569087743759155e-01</leafValues></_>
    <_>
      <internalNodes>
        0 -1 862 -736690176 -769705985 -1985077314 -339936593 -677911261
        334868479 -565755894 1107345419</internalNodes>
      <leafValues>
        -1.6921284794807434e-01 1.0368019342422485e-01</leafValues></_>
    <_>
      <internalNodes>
        0 -1 8254 -2007989598 1484193791 -134250498 589442762 -520101676
        829812315 -135290149 558972997</internalNodes>
      <leafValues>
        -1.9329069554805756e-01 9.5556274056434631e-02</leafValues></_>
    <_>
      <internalNodes>
        0 -1 12225 -2136941064 -38134275 -1073848321 -320003 -1078411777
        -1346723843 -1078280517 -1078259270</internalNodes>
      <leafValues>
        -1.2079400569200516e-01 1.4286588132381439e-01</leafValues></_>
    <_>
      <internalNodes>
        0 -1 1326 -890305395 -614511522 -17322307 2049990330 -205646484
        -94474691 -1493908838 -93068702</internalNodes>
      <leafValues>
        -1.1148709803819656e-01 1.4967979490756989e-01</leafValues></_>
    <_>
      <internalNodes>
        0 -1 3134 -2002026495 -224775245 1862041407 -541279734
        -1595562241 -1235149131 -996320995 143478793</internalNodes>
      <leafValues>
        -1.4101186394691467e-01 1.1941064149141312e-01</leafValues></_>
    <_>
      <internalNodes>
        0 -1 14305 394133461 930920437 -1078386699 -1073898727
        -1078674435 -1073742921 1072905724 -1073792005</internalNodes>
      <leafValues>
        -8.9059703052043915e-02 1.9047769904136658e-01</leafValues></_>
    <_>
      <internalNodes>
        0 -1 7103 -1066475424 -793760010 1063636861 611068998 5513504
        547628080 -825415620 140324358</internalNodes>
      <leafValues>
        -1.9729936122894287e-01 8.4091924130916595e-02</leafValues></_>
    <_>
      <internalNodes>
        0 -1 1950 -1398141295 -36016139 -1677756547 2117779224
        -1371798440 -16896707 726697439 -81011695</internalNodes>
      <leafValues>
        -1.2510329484939575e-01 1.3219906389713287e-01</leafValues></_>
    <_>
      <internalNodes>
        0 -1 1196 -2004647792 -90012160 1014953279 -116219648
        -1930098756 -869368769 1166071188 -865090560</internalNodes>
      <leafValues>
        -1.4407211542129517e-01 1.1643466353416443e-01</leafValues></_>
    <_>
      <internalNodes>
        0 -1 2086 1648372932 -604886818 1067597817 1004546914 407120140
        1023688448 191634943 1532490563</internalNodes>
      <leafValues>
        -1.6376821696758270e-01 9.9195860326290131e-02</leafValues></_>
    <_>
      <internalNodes>
        0 -1 7004 -817057994 1173635044 266611581 15740924 266087222
        1206920688 267200319 15999648</internalNodes>
      <leafValues>
        -2.4034258723258972e-01 6.9294787943363190e-02</leafValues></_>
    <_>
      <internalNodes>
        0 -1 11590 -2146401007 -1409745929 -67266593 -1342528741
        2011514325 -805487313 -940241067 -1979629551</internalNodes>
      <leafValues>
        -1.4923645555973053e-01 1.0727166384458542e-01</leafValues></_>
    <_>
      <internalNodes>
        0 -1 12139 1363529858 286366736 15539457 20961587 1435079048
        9049472 1410313266 1076881083</internalNodes>
      <leafValues>
        -1.7558881640434265e-01 9.3057841062545776e-02</leafValues></_>
    <_>
      <internalNodes>
        0 -1 14799 -146883280 -1657488976 -205537601 -1644642372
        -1879589976 -1086738946 49679528 -2144941020</internalNodes>
      <leafValues>
        -1.8298369646072388e-01 8.5778333246707916e-02</leafValues></_>
    <_>
      <internalNodes>
        0 -1 7557 -40231504 -59920 1601597437 -536929803 -1358250504
        -1073824003 1043922943 -1079311158</internalNodes>
      <leafValues>
        -1.0820688307285309e-01 1.4855238795280457e-01</leafValues></_>
    <_>
      <internalNodes>
        0 -1 3051 1565652450 829500661 -571609105 25224115 477970684
        614966507 -43002514 1405047707</internalNodes>
      <leafValues>
        -1.4673319458961487e-01 1.1237432062625885e-01</leafValues></_>
    <_>
      <internalNodes>
        0 -1 14694 -1465219568 -1516501967 502259705 -1359299080
        -1460099275 -1527761605 907281845 -352424400</internalNodes>
      <leafValues>
        -1.7483599483966827e-01 9.0317904949188232e-02</leafValues></_>
    <_>
      <internalNodes>
        0 -1 13458 -94713334 456198149 2055184235 287328811 -17639424
        -17688811 -3151352 1745014366</internalNodes>
      <leafValues>
        -1.5830044448375702e-01 1.0141915827989578e-01</leafValues></_>
    <_>
      <internalNodes>
        0 -1 590 -8519809 2138865660 259792764 1060912766 1467760380
        1602125308 711864316 2121955058</internalNodes>
      <leafValues>
        -1.2204662710428238e-01 1.2954871356487274e-01</leafValues></_>
    <_>
      <internalNodes>
        0 -1 8349 -549748367 -4552449 -16777217 -16388 -67109379 -1
        -6303745 -106233840</internalNodes>
      <leafValues>
        -9.1261066496372223e-02 1.7479564249515533e-01</leafValues></_>
    <_>
      <internalNodes>
        0 -1 14525 515177905 -1347122255 -1614938625 -1414763589
        -1690589249 -1884618821 511540733 -1899045702</internalNodes>
      <leafValues>
        -1.2658825516700745e-01 1.2653861939907074e-01</leafValues></_>
    <_>
      <internalNodes>
        0 -1 14249 -750335462 1128326970 -1016369300 16835150 -233522304
        1430273328 -530267132 1111683670</internalNodes>
      <leafValues>
        -1.8736912310123444e-01 8.3166763186454773e-02</leafValues></_>
    <_>
      <internalNodes>
        0 -1 9400 -73736712 -608498480 1061126143 -912319040 -1164263768
        -1073742387 -1075142721 -1431369512</internalNodes>
      <leafValues>
        -1.1557303369045258e-01 1.3743348419666290e-01</leafValues></_>
    <_>
      <internalNodes>
        0 -1 13446 1553465561 -541381189 -4620289 1866144127 -21458725
        -541622273 2122104575 973209658</internalNodes>
      <leafValues>
        -1.6163291037082672e-01 9.8588645458221436e-02</leafValues></_>
    <_>
      <internalNodes>
        0 -1 685 1181021180 -788564101 1307377660 -1107382338 1191000040
        1928794356 2093823916 1793405578</internalNodes>
      <leafValues>
        -1.5064780414104462e-01 1.0560983419418335e-01</leafValues></_>
    <_>
      <internalNodes>
        0 -1 546 -922754308 -142776735 -48878597 2104655362 1685127752
        810550364 -412039180 -79436542</internalNodes>
      <leafValues>
        -1.0697578638792038e-01 1.4672315120697021e-01</leafValues></_>
    <_>
      <internalNodes>
        0 -1 2484 -268981457 -378147031 -38130697 -139340868 -1375948865
        -570425857 -20123649 -1048577</internalNodes>
      <leafValues>
        -5.5954817682504654e-02 2.9022550582885742e-01</leafValues></_>
    <_>
      <internalNodes>
        0 -1 14808 -220807403 -2013349569 -1929529671 -1090748551
        -1141117442 230440153 83464352 -1929380162</internalNodes>
      <leafValues>
        -1.1135856807231903e-01 1.3699181377887726e-01</leafValues></_>
    <_>
      <internalNodes>
        0 -1 14172 -1271259275 -180227 -657409 -75644931 -1140867203
        -131099 -4423691 -1104667536</internalNodes>
      <leafValues>
        -1.3984932005405426e-01 1.0989888012409210e-01</leafValues></_></weakClassifiers></stage7>
</opencv_storage>
