<?xml version="1.0"?>
<opencv_storage>
<stage1>
  <maxWeakCount>33</maxWeakCount>
  <stageThreshold>-2.6214907169342041e+00</stageThreshold>
  <weakClassifiers>
    <_>
      <internalNodes>
        0 -1 9540 454693245 -196528 528449535 1600066909 -1431782662
        -1073862472 178831359 -1078241025</internalNodes>
      <leafValues>
        -3.7081614136695862e-01 4.8736581206321716e-01</leafValues></_>
    <_>
      <internalNodes>
        0 -1 2483 -325 -13545168 -36646415 -49196751 -2002222934
        -71794504 -2001174277 -651046405</internalNodes>
      <leafValues>
        -2.7647796273231506e-01 5.4536336660385132e-01</leafValues></_>
    <_>
      <internalNodes>
        0 -1 14774 -4 -1 -1 -1073741825 -4 -1537 -2 -1358954497</internalNodes>
      <leafValues>
        -2.9512909054756165e-01 4.6791690587997437e-01</leafValues></_>
    <_>
      <internalNodes>
        0 -1 10386 -671035144 -577241008 420500989 1561919577
        -1979672326 -1145438024 134256891 185204888</internalNodes>
      <leafValues>
        -4.2878597974777222e-01 2.6902532577514648e-01</leafValues></_>
    <_>
      <internalNodes>
        0 -1 456 -352653570 -269840658 -282398994 -1306525696 -265146497
        -128454 -215544865 -98352637</internalNodes>
      <leafValues>
        -3.3596464991569519e-01 3.4575858712196350e-01</leafValues></_>
    <_>
      <internalNodes>
        0 -1 6821 -581436224 -581873408 -586088619 285298945 -2147450744
        -2013134848 -586167605 420201743</internalNodes>
      <leafValues>
        -3.4980043768882751e-01 3.2399851083755493e-01</leafValues></_>
    <_>
      <internalNodes>
        0 -1 7333 -2011971439 -570748527 -1665212929 -539028331
        -2009421637 -52485 -1945068101 -2012545023</internalNodes>
      <leafValues>
        -2.8996783494949341e-01 3.2250347733497620e-01</leafValues></_>
    <_>
      <internalNodes>
        0 -1 12365 -670023436 -62243 -393217 -44547 -88424449 -67333
        -1095057409 -1171650390</internalNodes>
      <leafValues>
        -2.4671699106693268e-01 3.4606963396072388e-01</leafValues></_>
    <_>
      <internalNodes>
        0 -1 5857 -69472014 -606584584 -751242767 1527795792 -1743216454
        -1158016840 454095099 453660827</internalNodes>
      <leafValues>
        -2.7623343467712402e-01 3.0568513274192810e-01</leafValues></_>
    <_>
      <internalNodes>
        0 -1 352 -1058094854 -863075126 -571473921 -1122142 -1057033989
        -36977449 -774548239 -1070383088</internalNodes>
      <leafValues>
        -3.2776916027069092e-01 2.4442024528980255e-01</leafValues></_>
    <_>
      <internalNodes>
        0 -1 14748 -1148527600 -1143340004 -1073741827 -1311564776
        -1165428752 -1147472862 -1430613840 -1464155992</internalNodes>
      <leafValues>
        -3.0426463484764099e-01 2.6170402765274048e-01</leafValues></_>
    <_>
      <internalNodes>
        0 -1 10308 -653209352 -1648885616 419435007 488177885
        -1442805576 -1145569096 167779003 453705883</internalNodes>
      <leafValues>
        -2.8673681616783142e-01 2.5321623682975769e-01</leafValues></_>
    <_>
      <internalNodes>
        0 -1 623 -34817 1608319101 253300575 526194527 262933951
        513560924 252451837 1599885789</internalNodes>
      <leafValues>
        -2.5557953119277954e-01 2.7025490999221802e-01</leafValues></_>
    <_>
      <internalNodes>
        0 -1 14808 -1430613840 -2133196772 -1979990083 -1896018759
        -1896090380 149849215 13730976 -2130722569</internalNodes>
      <leafValues>
        -2.8994512557983398e-01 2.3785355687141418e-01</leafValues></_>
    <_>
      <internalNodes>
        0 -1 11541 -2003297104 -36042500 -1078362113 -1074064131
        -1095189574 -1078299204 -1145389121 -1078325064</internalNodes>
      <leafValues>
        -2.9725480079650879e-01 2.1474505960941315e-01</leafValues></_>
    <_>
      <internalNodes>
        0 -1 9864 -587018032 -646971312 134238417 487657489 -2013230936
        -1163263816 134217914 168493059</internalNodes>
      <leafValues>
        -2.9256746172904968e-01 2.2358413040637970e-01</leafValues></_>
    <_>
      <internalNodes>
        0 -1 1121 -620502398 1481785394 1399878641 1400885617
        -2138535798 -2004336632 155 1398002683</internalNodes>
      <leafValues>
        -2.6164102554321289e-01 2.3461720347404480e-01</leafValues></_>
    <_>
      <internalNodes>
        0 -1 8556 -802156368 -69730056 1561596413 -2555428 -1442804552
        -1165326180 -1154961409 -1146485608</internalNodes>
      <leafValues>
        -2.5740936398506165e-01 2.3118929564952850e-01</leafValues></_>
    <_>
      <internalNodes>
        0 -1 1365 -25214339 -228692904 -558609153 940599904 -30535884
        -8442571 -1442304258 -29656453</internalNodes>
      <leafValues>
        -2.0394365489482880e-01 2.8768810629844666e-01</leafValues></_>
    <_>
      <internalNodes>
        0 -1 9540 -320516462 340942777 -980935299 -1120057217 427449789
        -857090713 -1660796744 1246668552</internalNodes>
      <leafValues>
        -2.5376501679420471e-01 2.3220853507518768e-01</leafValues></_>
    <_>
      <internalNodes>
        0 -1 14694 -1078272624 -1109670660 -1112736291 -1946670852
        -1229396816 -1275397893 469767600 -1431642966</internalNodes>
      <leafValues>
        -2.4553644657135010e-01 2.3126132786273956e-01</leafValues></_>
    <_>
      <internalNodes>
        0 -1 9853 -183508992 1359282176 823742504 354810895 565416
        134217728 67170480 651419</internalNodes>
      <leafValues>
        -3.7269324064254761e-01 1.4715647697448730e-01</leafValues></_>
    <_>
      <internalNodes>
        0 -1 14772 -15469488 -2185 -65 -131097 -2081 -1 -5 -1609502704</internalNodes>
      <leafValues>
        -2.6068270206451416e-01 2.0570001006126404e-01</leafValues></_>
    <_>
      <internalNodes>
        0 -1 11883 -1162176328 -4323847 -1077993989 -1079310855
        -1432307526 -1078290984 -1156400197 -1145429830</internalNodes>
      <leafValues>
        -2.1591326594352722e-01 2.5003334879875183e-01</leafValues></_>
    <_>
      <internalNodes>
        0 -1 2483 -1060904074 -773872095 -1556254858 1465315392
        1616832733 72842499 1113652156 1724808725</internalNodes>
      <leafValues>
        -2.4928189814090729e-01 2.1128267049789429e-01</leafValues></_>
    <_>
      <internalNodes>
        0 -1 9912 -1618420488 -6417256 -1074241537 -193291 -1162310408
        -1074918728 -1097294657 -1146486614</internalNodes>
      <leafValues>
        -2.0591309666633606e-01 2.5524184107780457e-01</leafValues></_>
    <_>
      <internalNodes>
        0 -1 11 -299177282 -13096392 -54530049 -543446778 -268443649
        -1074791493 469467135 2071161651</internalNodes>
      <leafValues>
        -2.2961968183517456e-01 2.2650144994258881e-01</leafValues></_>
    <_>
      <internalNodes>
        0 -1 13446 -625344296 -58883 2142887935 -4255393 -1081558277
        -4309505 -1095057665 -1440087878</internalNodes>
      <leafValues>
        -2.0214055478572845e-01 2.5177946686744690e-01</leafValues></_>
    <_>
      <internalNodes>
        0 -1 1105 -1962688376 -79969744 -636433569 -541394720 32938
        -616955904 182971 1528021329</internalNodes>
      <leafValues>
        -2.4886970221996307e-01 1.9718070328235626e-01</leafValues></_>
    <_>
      <internalNodes>
        0 -1 14688 -1095084943 -1080355564 -9 -1321509387 -1430586960
        -1078308299 989396917 -365764877</internalNodes>
      <leafValues>
        -2.0236191153526306e-01 2.3936511576175690e-01</leafValues></_>
    <_>
      <internalNodes>
        0 -1 14027 -88421353 -12624123 -270849 -98853601 -4208560
        -71565773 -298147654 -536688613</internalNodes>
      <leafValues>
        -1.7302508652210236e-01 2.6480367779731750e-01</leafValues></_>
    <_>
      <internalNodes>
        0 -1 8601 -542506768 -4451244 -1141481507 -2286220 -1164923912
        -1079050755 -1145520145 -1147534200</internalNodes>
      <leafValues>
        -2.2025826573371887e-01 2.0454949140548706e-01</leafValues></_>
    <_>
      <internalNodes>
        0 -1 14756 -1883570241 -1881232705 2113924919 -805357123
        -1427456513 -2001817665 144806064 -822084422</internalNodes>
      <leafValues>
        -1.5380118787288666e-01 2.8900894522666931e-01</leafValues></_></weakClassifiers></stage1>
</opencv_storage>
