<?xml version="1.0"?>
<opencv_storage>
<stage4>
  <maxWeakCount>71</maxWeakCount>
  <stageThreshold>-2.5702550411224365e+00</stageThreshold>
  <weakClassifiers>
    <_>
      <internalNodes>
        0 -1 9540 -1073774593 -57987 536838143 2139062269 -1078280193 -6
        263913471 -1</internalNodes>
      <leafValues>
        -2.1106919646263123e-01 5.4801779985427856e-01</leafValues></_>
    <_>
      <internalNodes>
        0 -1 2423 -131073 -9366751 -918543 -15633631 -926381906
        -67493454 -2000123734 -265285</internalNodes>
      <leafValues>
        -1.8422853946685791e-01 4.9887219071388245e-01</leafValues></_>
    <_>
      <internalNodes>
        0 -1 14774 -4 -1 -1 -1073741825 -16388 -1 -2 788529151</internalNodes>
      <leafValues>
        -3.1002116203308105e-01 2.4993200600147247e-01</leafValues></_>
    <_>
      <internalNodes>
        0 -1 9306 -1474100205 -4521968 -8388609 -8434403 -1432183654
        -16901 -1979121665 -888979453</internalNodes>
      <leafValues>
        -2.3554861545562744e-01 3.1034296751022339e-01</leafValues></_>
    <_>
      <internalNodes>
        0 -1 353 -353435905 -806441234 -4129 -31282654 -143507457
        -1171458 -143310849 -148412637</internalNodes>
      <leafValues>
        -2.2894665598869324e-01 3.0072253942489624e-01</leafValues></_>
    <_>
      <internalNodes>
        0 -1 10384 -651110152 -570863368 -549724675 1572560125
        -1170540294 -4547400 993722363 456788152</internalNodes>
      <leafValues>
        -3.0365234613418579e-01 2.0708853006362915e-01</leafValues></_>
    <_>
      <internalNodes>
        0 -1 14802 -16624 -1073763267 -1075868227 -1325682625 -17830484
        -1074813521 -458579808 -391452502</internalNodes>
      <leafValues>
        -2.2230887413024902e-01 2.7786529064178467e-01</leafValues></_>
    <_>
      <internalNodes>
        0 -1 350 -21957 -9362655 -541584964 2100384048 12323006
        767306028 178785279 1429763513</internalNodes>
      <leafValues>
        -2.9511722922325134e-01 1.8313057720661163e-01</leafValues></_>
    <_>
      <internalNodes>
        0 -1 11466 -1685022504 496502936 152050173 488177693 671123640
        -1078326888 168332031 454756539</internalNodes>
      <leafValues>
        -2.6842018961906433e-01 2.2331209480762482e-01</leafValues></_>
    <_>
      <internalNodes>
        0 -1 9322 -821310256 -543227888 -581108259 1560347648 143130810
        -1895890519 -2002801985 454756411</internalNodes>
      <leafValues>
        -2.9611784219741821e-01 1.6251292824745178e-01</leafValues></_>
    <_>
      <internalNodes>
        0 -1 158 -856699677 -537920001 -1 -257 -513 -4097 -570427913
        -1042825151</internalNodes>
      <leafValues>
        -1.3089439272880554e-01 3.5353234410285950e-01</leafValues></_>
    <_>
      <internalNodes>
        0 -1 14680 -6791851 -1073791627 -268828673 -1355022465 -201104
        -4491659 -1430716676 -1439642054</internalNodes>
      <leafValues>
        -2.2602291405200958e-01 2.1744185686111450e-01</leafValues></_>
    <_>
      <internalNodes>
        0 -1 9534 -807412997 1104679056 259011568 1372607184 -1882391814
        -1998017880 198740218 -606342406</internalNodes>
      <leafValues>
        -1.7851303517818451e-01 2.8455403447151184e-01</leafValues></_>
    <_>
      <internalNodes>
        0 -1 14754 -1078263873 -1879130691 -268435525 -1879065459
        -1074069505 -1883521025 215962800 -855652182</internalNodes>
      <leafValues>
        -1.6193488240242004e-01 2.6459810137748718e-01</leafValues></_>
    <_>
      <internalNodes>
        0 -1 10326 -1112009224 -38206212 -1610735619 -537059843
        -1078411266 -1078287108 -1146568705 -1078326086</internalNodes>
      <leafValues>
        -1.9807863235473633e-01 2.1847885847091675e-01</leafValues></_>
    <_>
      <internalNodes>
        0 -1 6785 -2147237743 -5303599 -1610817537 -4255727 -1728907589
        -34373 -1937732163 -1995751423</internalNodes>
      <leafValues>
        -1.9300375878810883e-01 2.2267284989356995e-01</leafValues></_>
    <_>
      <internalNodes>
        0 -1 12711 -95428094 1360068609 1079925001 18447 -95453184
        -1709503742 -401736958 1242556939</internalNodes>
      <leafValues>
        -2.7735853195190430e-01 1.5852956473827362e-01</leafValues></_>
    <_>
      <internalNodes>
        0 -1 517 -587251462 -136363964 1344947420 1599620100 -1599037254
        -227539968 805307018 2131444635</internalNodes>
      <leafValues>
        -2.1882900595664978e-01 1.8697725236415863e-01</leafValues></_>
    <_>
      <internalNodes>
        0 -1 12935 -667940612 -61953 -538992641 -57345 -1078289922
        -81989 -1076314113 -1171650374</internalNodes>
      <leafValues>
        -1.8584232032299042e-01 2.1267154812812805e-01</leafValues></_>
    <_>
      <internalNodes>
        0 -1 9536 -736603916 -58116 -4325889 -33616387 -1145520900
        -312835 -1078281218 -1078260548</internalNodes>
      <leafValues>
        -1.7930257320404053e-01 2.1653278172016144e-01</leafValues></_>
    <_>
      <internalNodes>
        0 -1 1326 -286374660 -629274624 -218169729 1882341488 -496628612
        -95261115 -1502597526 -97291710</internalNodes>
      <leafValues>
        -2.1063005924224854e-01 1.7506399750709534e-01</leafValues></_>
    <_>
      <internalNodes>
        0 -1 6343 -905258758 -620101616 489215473 1494749264 134742232
        -1979187072 1091588351 1527468235</internalNodes>
      <leafValues>
        -1.9844566285610199e-01 1.8469440937042236e-01</leafValues></_>
    <_>
      <internalNodes>
        0 -1 14625 -1080369155 -1174594060 -4195339 -1912846347
        -1078019151 -1361125648 1060683769 -1363485510</internalNodes>
      <leafValues>
        -1.7110890150070190e-01 2.1526691317558289e-01</leafValues></_>
    <_>
      <internalNodes>
        0 -1 12497 -1718561576 -36175824 523853181 521736345 -1206863624
        -1145566984 151035064 452985016</internalNodes>
      <leafValues>
        -2.7456197142601013e-01 1.2982292473316193e-01</leafValues></_>
    <_>
      <internalNodes>
        0 -1 308 -1962163574 -538977800 -619687617 -576955044 1084074
        -818282240 1193330607 1595262417</internalNodes>
      <leafValues>
        -2.1370297670364380e-01 1.6795328259468079e-01</leafValues></_>
    <_>
      <internalNodes>
        0 -1 14813 -1073807425 -1880174593 -1 -268451841 -1896300545
        -1964852265 534770687 -805306369</internalNodes>
      <leafValues>
        -1.0903622955083847e-01 3.1578704714775085e-01</leafValues></_>
    <_>
      <internalNodes>
        0 -1 14605 -1078311887 -1078239439 -1 -1552712323 -1097150160
        -1074831557 -1078275589 -365764869</internalNodes>
      <leafValues>
        -1.6008917987346649e-01 2.1814270317554474e-01</leafValues></_>
    <_>
      <internalNodes>
        0 -1 5093 -2004102991 -4029824 534762973 -544083087 -1959544065
        -1085594121 84787339 -921714671</internalNodes>
      <leafValues>
        -1.4436036348342896e-01 2.3738171160221100e-01</leafValues></_>
    <_>
      <internalNodes>
        0 -1 10249 -1146087176 -4252428 -1073782785 -188931 -1162310404
        -1405507 -1431781377 -1414887204</internalNodes>
      <leafValues>
        -1.8218949437141418e-01 1.8163229525089264e-01</leafValues></_>
    <_>
      <internalNodes>
        0 -1 406 -65537 -123012 804683774 1073495804 2146385917 -49154
        2147434495 -32897</internalNodes>
      <leafValues>
        -1.2992338836193085e-01 2.5745654106140137e-01</leafValues></_>
    <_>
      <internalNodes>
        0 -1 9789 -790634356 1430593540 -659033952 1359601708 1074118826
        -1532227544 -21630800 1342559487</internalNodes>
      <leafValues>
        -2.5037312507629395e-01 1.3173224031925201e-01</leafValues></_>
    <_>
      <internalNodes>
        0 -1 9540 1245347856 1027098354 -312820353 -1078125221
        -1972602696 -1095095107 -1169947457 506347706</internalNodes>
      <leafValues>
        -2.1343900263309479e-01 1.5348367393016815e-01</leafValues></_>
    <_>
      <internalNodes>
        0 -1 14766 -99418607 -536870917 -1310721 -8388609 -262401
        -33619969 -1025 -1440678093</internalNodes>
      <leafValues>
        -1.7013056576251984e-01 1.8955755233764648e-01</leafValues></_>
    <_>
      <internalNodes>
        0 -1 11781 -671067952 -6553224 -32769 -536931235 -1363507016
        -1073783363 -1079344386 1068107947</internalNodes>
      <leafValues>
        -2.0651230216026306e-01 1.5743596851825714e-01</leafValues></_>
    <_>
      <internalNodes>
        0 -1 632 -11599352 -115865572 520650111 990409274 -750125048
        -163445760 134351551 2063856355</internalNodes>
      <leafValues>
        -2.0255585014820099e-01 1.5965096652507782e-01</leafValues></_>
    <_>
      <internalNodes>
        0 -1 14748 -1089807140 -1680040452 -1073741827 -1334042644
        -1384057424 -1342442063 134259888 -524615944</internalNodes>
      <leafValues>
        -2.0340433716773987e-01 1.5747050940990448e-01</leafValues></_>
    <_>
      <internalNodes>
        0 -1 14635 -1078525963 -1883619436 -1745095169 -1885292104
        -1174487560 -1896958241 1039856124 -1901405048</internalNodes>
      <leafValues>
        -1.7972558736801147e-01 1.7387025058269501e-01</leafValues></_>
    <_>
      <internalNodes>
        0 -1 2082 -25202947 -94408075 -25395457 2121291390 -25293444
        -8697012 -1166636358 -29626806</internalNodes>
      <leafValues>
        -1.2288431078195572e-01 2.5429457426071167e-01</leafValues></_>
    <_>
      <internalNodes>
        0 -1 6185 -635964329 -498965392 1330150911 1073892352 -866315264
        -16890473 1162940501 -939339775</internalNodes>
      <leafValues>
        -1.9181282818317413e-01 1.6373778879642487e-01</leafValues></_>
    <_>
      <internalNodes>
        0 -1 75 1359070370 -772561217 -33565705 -639113305 -199511813
        1658006194 -729821333 1393246987</internalNodes>
      <leafValues>
        -1.7704905569553375e-01 1.7676998674869537e-01</leafValues></_>
    <_>
      <internalNodes>
        0 -1 5860 -218377990 -791125796 326651953 61915192 -340741958
        -686105608 1392556219 185322394</internalNodes>
      <leafValues>
        -1.8968403339385986e-01 1.6175197064876556e-01</leafValues></_>
    <_>
      <internalNodes>
        0 -1 14465 -612869003 -45059 -8389633 -32771 -4539788 -313377
        -30351362 -1440723408</internalNodes>
      <leafValues>
        -1.8265438079833984e-01 1.5810133516788483e-01</leafValues></_>
    <_>
      <internalNodes>
        0 -1 11484 -634351368 -4717424 428879293 496500829 -1145395278
        -353800 456138683 454624408</internalNodes>
      <leafValues>
        -2.0841047167778015e-01 1.4145587384700775e-01</leafValues></_>
    <_>
      <internalNodes>
        0 -1 20 -939351390 -49825111 -1074807809 -4457942 -50598945
        -36975713 -526849 1090863105</internalNodes>
      <leafValues>
        -1.9909740984439850e-01 1.4820736646652222e-01</leafValues></_>
    <_>
      <internalNodes>
        0 -1 13536 -1615151206 -1315796464 397628693 353178972
        -1409304136 -1969710704 203018392 -610280310</internalNodes>
      <leafValues>
        -1.3704466819763184e-01 2.0235629379749298e-01</leafValues></_>
    <_>
      <internalNodes>
        0 -1 14798 -210587632 -1678006787 -67138563 -1332027009
        -302603008 -1430895019 -252476232 -534721886</internalNodes>
      <leafValues>
        -1.8409784138202667e-01 1.4884613454341888e-01</leafValues></_>
    <_>
      <internalNodes>
        0 -1 14688 -1095084944 -1078256624 -1140858889 896621845
        -1095172688 -1145151977 1052548849 -357896454</internalNodes>
      <leafValues>
        -1.7310494184494019e-01 1.6621978580951691e-01</leafValues></_>
    <_>
      <internalNodes>
        0 -1 1767 -2147319424 -652377487 -69993123 -537539463
        -2146915345 -671054800 1661027837 1124581633</internalNodes>
      <leafValues>
        -2.1523989737033844e-01 1.2960553169250488e-01</leafValues></_>
    <_>
      <internalNodes>
        0 -1 455 -895302620 -1035819102 -138532682 -157228512 1642531647
        -1655355597 1658011857 -990657406</internalNodes>
      <leafValues>
        -1.8925923109054565e-01 1.4409713447093964e-01</leafValues></_>
    <_>
      <internalNodes>
        0 -1 2670 -298123119 -537179820 1610252151 2013203797
        -1556478468 -4518147 -1343080453 -4472677</internalNodes>
      <leafValues>
        -1.0783527791500092e-01 2.5340470671653748e-01</leafValues></_>
    <_>
      <internalNodes>
        0 -1 12851 -838631424 -149641 -575401036 -1651769441 -10787
        -8462377 -823145505 268552715</internalNodes>
      <leafValues>
        -1.7329548299312592e-01 1.5615537762641907e-01</leafValues></_>
    <_>
      <internalNodes>
        0 -1 13674 -635959080 -836353 -13705217 -37800449 -1078149702
        -426641 1002224639 973734970</internalNodes>
      <leafValues>
        -1.9616103172302246e-01 1.4047807455062866e-01</leafValues></_>
    <_>
      <internalNodes>
        0 -1 1364 -1879085249 -1998836611 267136303 268185599
        -1349992641 821572980 191704860 184307928</internalNodes>
      <leafValues>
        -2.2608965635299683e-01 1.2012624740600586e-01</leafValues></_>
    <_>
      <internalNodes>
        0 -1 9888 -15540808 -71886352 -5300225 -541126159 -1162154310
        -4309542 -1148669957 -1080091222</internalNodes>
      <leafValues>
        -1.2158832699060440e-01 2.1991893649101257e-01</leafValues></_>
    <_>
      <internalNodes>
        0 -1 14808 -1953317228 -1912687202 -1430548551 -1879274019
        -1367347724 -2002064275 16089248 -855638793</internalNodes>
      <leafValues>
        -1.6933992505073547e-01 1.5948754549026489e-01</leafValues></_>
    <_>
      <internalNodes>
        0 -1 7933 -352088048 1477444114 239079184 150995342 -1911453560
        210108416 441960604 1270872059</internalNodes>
      <leafValues>
        -1.9495098292827606e-01 1.2828195095062256e-01</leafValues></_>
    <_>
      <internalNodes>
        0 -1 11555 -737128363 -42467204 1563446869 2100299320
        -1436535108 -1107530504 -1204805891 -1154873669</internalNodes>
      <leafValues>
        -1.3958592712879181e-01 1.7898280918598175e-01</leafValues></_>
    <_>
      <internalNodes>
        0 -1 2423 -792065376 1352068658 -841071090 1405520114 309684049
        72731261 1291149909 1078316100</internalNodes>
      <leafValues>
        -2.5866368412971497e-01 9.8299153149127960e-02</leafValues></_>
    <_>
      <internalNodes>
        0 -1 1687 -1978999307 -357914070 -1 -8956794 -1345323009 -262465
        -805578885 -570696587</internalNodes>
      <leafValues>
        -1.2389787286520004e-01 2.0049451291561127e-01</leafValues></_>
    <_>
      <internalNodes>
        0 -1 3318 -2010513232 -593604528 -325161475 1605918164
        -1355150280 -617920322 -1382020885 -878983984</internalNodes>
      <leafValues>
        -1.7212754487991333e-01 1.4758665859699249e-01</leafValues></_>
    <_>
      <internalNodes>
        0 -1 9717 168820817 -34046851 -1074315265 -1637351332
        -1092447240 -16960001 1060913021 134218768</internalNodes>
      <leafValues>
        -2.8016018867492676e-01 8.5822463035583496e-02</leafValues></_>
    <_>
      <internalNodes>
        0 -1 14088 -606090733 -855022992 1120854305 16835199 -556350832
        178420880 -881614831 -613423409</internalNodes>
      <leafValues>
        -1.3193702697753906e-01 1.8658062815666199e-01</leafValues></_>
    <_>
      <internalNodes>
        0 -1 380 -209611894 1481327130 301815769 1409276786 57274286
        334254156 33654235 1409278875</internalNodes>
      <leafValues>
        -1.5797595679759979e-01 1.5294690430164337e-01</leafValues></_>
    <_>
      <internalNodes>
        0 -1 12505 -1730636292 -33600011 -1212187137 2113743069
        -1415794691 -1097793 -1136869441 -1080357700</internalNodes>
      <leafValues>
        -1.4910508692264557e-01 1.6082397103309631e-01</leafValues></_>
    <_>
      <internalNodes>
        0 -1 13793 -262177 1073545111 971471837 -1075838977 -16388
        -1074922049 -16642 -17413</internalNodes>
      <leafValues>
        -6.0217663645744324e-02 3.9949837327003479e-01</leafValues></_>
    <_>
      <internalNodes>
        0 -1 546 -352326674 -428978322 -272748862 -262000978 -226947299
        -160150156 -151617066 -227020222</internalNodes>
      <leafValues>
        -1.3803565502166748e-01 1.7868976294994354e-01</leafValues></_>
    <_>
      <internalNodes>
        0 -1 8502 -584970024 -1646722912 -1074046217 -1621419848
        -1180428036 -1076220483 -1481064513 -1078325768</internalNodes>
      <leafValues>
        -1.6177310049533844e-01 1.4594992995262146e-01</leafValues></_>
    <_>
      <internalNodes>
        0 -1 1902 -1371874127 -23171912 -4259969 2110838832 -1163262852
        1852786265 442795135 -550285231</internalNodes>
      <leafValues>
        -1.5051685273647308e-01 1.5506979823112488e-01</leafValues></_>
    <_>
      <internalNodes>
        0 -1 13883 -629489573 -748965103 -25601 290154591 -556077247
        -125129 -563807494 -368906501</internalNodes>
      <leafValues>
        -1.1061501502990723e-01 2.1477138996124268e-01</leafValues></_>
    <_>
      <internalNodes>
        0 -1 14149 -598352107 -539100289 -33570945 -1329742049
        -1283607275 -16641 -402659841 -1604241913</internalNodes>
      <leafValues>
        -1.2505084276199341e-01 1.8930509686470032e-01</leafValues></_>
    <_>
      <internalNodes>
        0 -1 8202 1490375162 1507307519 -639804425 92580551 1171747327
        -709558796 -245376053 1359042527</internalNodes>
      <leafValues>
        -1.5943047404289246e-01 1.4889477193355560e-01</leafValues></_></weakClassifiers></stage4>
</opencv_storage>
